2.617166666666666 2.617166666666666 2.617166666666666 0.6171666666666665 0.6171666666666665 2.617166666666666 2.617166666666666 2.617166666666666 0.6171666666666665 0.6171666666666665 0.6171666666666665 0.6171666666666665 2.617166666666666 2.617166666666666 2.617166666666666 -0.7931666666666668 1.2068333333333336 -0.7931666666666668 -0.7931666666666668 1.2068333333333336 -0.7931666666666668 -0.7931666666666668 1.2068333333333336 -0.7931666666666668 1.2068333333333336 -0.7931666666666668 1.2068333333333336 -0.7931666666666668 1.2068333333333336 1.2068333333333336 -1.8277333333333334 0.17226666666666648 -1.8277333333333334 0.17226666666666648 0.17226666666666648 -1.8277333333333334 -1.8277333333333334 0.17226666666666648 -1.8277333333333334 -1.8277333333333334 -1.8277333333333334 0.17226666666666648 -1.8277333333333334 -1.8277333333333334 0.17226666666666648 -0.4408333333333335 1.5591666666666668 -0.4408333333333335 -0.4408333333333335 -0.4408333333333335 -0.4408333333333335 -0.4408333333333335 -0.4408333333333335 1.5591666666666668 1.5591666666666668 1.5591666666666668 -0.4408333333333335 -0.4408333333333335 1.5591666666666668 1.5591666666666668 -1.3353666666666668 0.6646333333333332 0.6646333333333332 -1.3353666666666668 -1.3353666666666668 -1.3353666666666668 -1.3353666666666668 0.6646333333333332 0.6646333333333332 -1.3353666666666668 0.6646333333333332 0.6646333333333332 0.6646333333333332 -1.3353666666666668 0.6646333333333332 -0.4625333333333334 -0.4625333333333334 -0.4625333333333334 -0.4625333333333334 -2.462533333333333 -0.4625333333333334 -0.4625333333333334 -0.4625333333333334 -2.462533333333333 -2.462533333333333 -2.462533333333333 -0.4625333333333334 -2.462533333333333 -0.4625333333333334 -0.4625333333333334 3.6564 3.6564 1.6564 3.6564 3.6564 1.6564 3.6564 1.6564 1.6564 1.6564 1.6564 1.6564 1.6564 1.6564 1.6564 0.43700000000000006 0.43700000000000006 0.43700000000000006 0.43700000000000006 -1.5629999999999997 -1.5629999999999997 -1.5629999999999997 0.43700000000000006 0.43700000000000006 -1.5629999999999997 0.43700000000000006 -1.5629999999999997 0.43700000000000006 0.43700000000000006 -1.5629999999999997 -0.03559999999999998 -2.0356 -0.03559999999999998 -0.03559999999999998 -0.03559999999999998 -0.03559999999999998 -2.0356 -0.03559999999999998 -2.0356 -2.0356 -0.03559999999999998 -2.0356 -2.0356 -0.03559999999999998 -0.03559999999999998 -1.815333333333333 0.18466666666666673 -1.815333333333333 0.18466666666666673 -1.815333333333333 0.18466666666666673 0.18466666666666673 -1.815333333333333 -1.815333333333333 0.18466666666666673 0.18466666666666673 -1.815333333333333 -1.815333333333333 -1.815333333333333 -1.815333333333333
0.5530333333333335 -1.4469666666666663 -1.4469666666666663 0.5530333333333335 0.5530333333333335 0.5530333333333335 0.5530333333333335 0.5530333333333335 -1.4469666666666663 -1.4469666666666663 -1.4469666666666663 -1.4469666666666663 -1.4469666666666663 -1.4469666666666663 0.5530333333333335 0.018833333333333386 0.018833333333333386 -1.9811666666666667 -1.9811666666666667 0.018833333333333386 0.018833333333333386 0.018833333333333386 0.018833333333333386 -1.9811666666666667 -1.9811666666666667 0.018833333333333386 -1.9811666666666667 0.018833333333333386 0.018833333333333386 -1.9811666666666667 1.3079333333333334 1.3079333333333334 1.3079333333333334 1.3079333333333334 -0.6920666666666664 1.3079333333333334 -0.6920666666666664 -0.6920666666666664 1.3079333333333334 1.3079333333333334 -0.6920666666666664 1.3079333333333334 -0.6920666666666664 1.3079333333333334 -0.6920666666666664 3.194833333333334 3.194833333333334 3.194833333333334 3.194833333333334 1.1948333333333334 1.1948333333333334 1.1948333333333334 1.1948333333333334 3.194833333333334 1.1948333333333334 1.1948333333333334 1.1948333333333334 1.1948333333333334 3.194833333333334 3.194833333333334 1.4665 -0.5334999999999999 -0.5334999999999999 1.4665 1.4665 1.4665 1.4665 1.4665 1.4665 -0.5334999999999999 1.4665 -0.5334999999999999 -0.5334999999999999 -0.5334999999999999 -0.5334999999999999 -0.39253333333333323 -0.39253333333333323 -0.39253333333333323 -2.3925333333333336 -2.3925333333333336 -0.39253333333333323 -2.3925333333333336 -2.3925333333333336 -0.39253333333333323 -2.3925333333333336 -2.3925333333333336 -2.3925333333333336 -0.39253333333333323 -2.3925333333333336 -0.39253333333333323 -4.703199999999999 -2.7032 -2.7032 -4.703199999999999 -4.703199999999999 -2.7032 -2.7032 -2.7032 -4.703199999999999 -2.7032 -4.703199999999999 -2.7032 -4.703199999999999 -2.7032 -4.703199999999999 0.8108666666666666 2.810866666666667 2.810866666666667 2.810866666666667 0.8108666666666666 0.8108666666666666 2.810866666666667 2.810866666666667 0.8108666666666666 2.810866666666667 0.8108666666666666 0.8108666666666666 2.810866666666667 0.8108666666666666 0.8108666666666666 1.3201333333333332 -0.6798666666666667 -0.6798666666666667 -0.6798666666666667 1.3201333333333332 -0.6798666666666667 1.3201333333333332 1.3201333333333332 -0.6798666666666667 1.3201333333333332 -0.6798666666666667 1.3201333333333332 -0.6798666666666667 -0.6798666666666667 1.3201333333333332 0.42360000000000014 2.4236 0.42360000000000014 2.4236 2.4236 2.4236 0.42360000000000014 2.4236 0.42360000000000014 0.42360000000000014 0.42360000000000014 2.4236 2.4236 2.4236 0.42360000000000014
0.3139666666666667 0.3139666666666667 0.3139666666666667 0.3139666666666667 2.3139666666666665 0.3139666666666667 0.3139666666666667 2.3139666666666665 2.3139666666666665 2.3139666666666665 0.3139666666666667 2.3139666666666665 2.3139666666666665 0.3139666666666667 0.3139666666666667 -1.096833333333333 -1.096833333333333 0.903166666666667 0.903166666666667 0.903166666666667 -1.096833333333333 -1.096833333333333 -1.096833333333333 -1.096833333333333 -1.096833333333333 -1.096833333333333 -1.096833333333333 -1.096833333333333 0.903166666666667 -1.096833333333333 1.3737999999999997 -0.6262 -0.6262 1.3737999999999997 1.3737999999999997 -0.6262 1.3737999999999997 1.3737999999999997 1.3737999999999997 1.3737999999999997 -0.6262 -0.6262 1.3737999999999997 1.3737999999999997 -0.6262 1.1544999999999999 1.1544999999999999 1.1544999999999999 3.1545 1.1544999999999999 1.1544999999999999 1.1544999999999999 3.1545 3.1545 1.1544999999999999 1.1544999999999999 1.1544999999999999 3.1545 1.1544999999999999 3.1545 -1.8463666666666667 0.1536333333333333 0.1536333333333333 -1.8463666666666667 -1.8463666666666667 0.1536333333333333 -1.8463666666666667 -1.8463666666666667 -1.8463666666666667 -1.8463666666666667 -1.8463666666666667 -1.8463666666666667 -1.8463666666666667 0.1536333333333333 -1.8463666666666667 0.025666666666666654 2.0256666666666665 0.025666666666666654 0.025666666666666654 0.025666666666666654 2.0256666666666665 2.0256666666666665 2.0256666666666665 0.025666666666666654 2.0256666666666665 2.0256666666666665 2.0256666666666665 0.025666666666666654 0.025666666666666654 2.0256666666666665 -0.5553333333333329 -2.555333333333333 -0.5553333333333329 -0.5553333333333329 -0.5553333333333329 -2.555333333333333 -2.555333333333333 -2.555333333333333 -2.555333333333333 -0.5553333333333329 -0.5553333333333329 -2.555333333333333 -2.555333333333333 -0.5553333333333329 -2.555333333333333 0.05966666666666678 -1.9403333333333335 0.05966666666666678 -1.9403333333333335 -1.9403333333333335 0.05966666666666678 -1.9403333333333335 0.05966666666666678 -1.9403333333333335 0.05966666666666678 -1.9403333333333335 -1.9403333333333335 0.05966666666666678 -1.9403333333333335 0.05966666666666678 -0.4435333333333332 1.5564666666666667 1.5564666666666667 1.5564666666666667 1.5564666666666667 1.5564666666666667 -0.4435333333333332 1.5564666666666667 -0.4435333333333332 -0.4435333333333332 1.5564666666666667 -0.4435333333333332 1.5564666666666667 -0.4435333333333332 -0.4435333333333332 -2.985533333333333 -2.985533333333333 -0.9855333333333335 -2.985533333333333 -2.985533333333333 -0.9855333333333335 -2.985533333333333 -2.985533333333333 -0.9855333333333335 -0.9855333333333335 -2.985533333333333 -0.9855333333333335 -0.9855333333333335 -2.985533333333333 -0.9855333333333335
-2.1132999999999997 -4.113299999999999 -4.113299999999999 -4.113299999999999 -2.1132999999999997 -2.1132999999999997 -4.113299999999999 -4.113299999999999 -4.113299999999999 -2.1132999999999997 -4.113299999999999 -4.113299999999999 -2.1132999999999997 -4.113299999999999 -4.113299999999999 0.3195 2.3195 0.3195 2.3195 2.3195 2.3195 2.3195 0.3195 0.3195 0.3195 2.3195 0.3195 2.3195 2.3195 2.3195 0.40920000000000006 -1.5908 -1.5908 -1.5908 0.40920000000000006 0.40920000000000006 0.40920000000000006 0.40920000000000006 0.40920000000000006 -1.5908 0.40920000000000006 0.40920000000000006 0.40920000000000006 0.40920000000000006 0.40920000000000006 -0.6526999999999998 1.3472999999999997 -0.6526999999999998 -0.6526999999999998 -0.6526999999999998 1.3472999999999997 -0.6526999999999998 -0.6526999999999998 1.3472999999999997 1.3472999999999997 1.3472999999999997 1.3472999999999997 -0.6526999999999998 -0.6526999999999998 1.3472999999999997 1.9224333333333332 -0.07756666666666674 1.9224333333333332 -0.07756666666666674 1.9224333333333332 1.9224333333333332 -0.07756666666666674 1.9224333333333332 1.9224333333333332 -0.07756666666666674 1.9224333333333332 -0.07756666666666674 1.9224333333333332 -0.07756666666666674 -0.07756666666666674 0.8953333333333333 0.8953333333333333 -1.104666666666667 -1.104666666666667 -1.104666666666667 -1.104666666666667 -1.104666666666667 -1.104666666666667 0.8953333333333333 -1.104666666666667 -1.104666666666667 -1.104666666666667 -1.104666666666667 0.8953333333333333 0.8953333333333333 -1.3495999999999997 0.6504 -1.3495999999999997 0.6504 0.6504 0.6504 -1.3495999999999997 0.6504 0.6504 -1.3495999999999997 0.6504 -1.3495999999999997 0.6504 -1.3495999999999997 0.6504 -0.2948666666666668 -2.2948666666666666 -0.2948666666666668 -0.2948666666666668 -2.2948666666666666 -0.2948666666666668 -2.2948666666666666 -0.2948666666666668 -2.2948666666666666 -0.2948666666666668 -2.2948666666666666 -0.2948666666666668 -2.2948666666666666 -2.2948666666666666 -2.2948666666666666 0.7986666666666666 0.7986666666666666 0.7986666666666666 2.798666666666667 2.798666666666667 2.798666666666667 2.798666666666667 0.7986666666666666 2.798666666666667 0.7986666666666666 0.7986666666666666 2.798666666666667 2.798666666666667 0.7986666666666666 2.798666666666667 2.0653333333333337 0.06533333333333335 2.0653333333333337 2.0653333333333337 0.06533333333333335 0.06533333333333335 0.06533333333333335 2.0653333333333337 0.06533333333333335 2.0653333333333337 0.06533333333333335 0.06533333333333335 2.0653333333333337 0.06533333333333335 2.0653333333333337
1.7731666666666663 1.7731666666666663 1.7731666666666663 -0.22683333333333333 1.7731666666666663 -0.22683333333333333 -0.22683333333333333 1.7731666666666663 1.7731666666666663 -0.22683333333333333 -0.22683333333333333 -0.22683333333333333 1.7731666666666663 1.7731666666666663 -0.22683333333333333 -0.3817000000000004 1.6182999999999996 -0.3817000000000004 -0.3817000000000004 1.6182999999999996 -0.3817000000000004 1.6182999999999996 1.6182999999999996 -0.3817000000000004 -0.3817000000000004 -0.3817000000000004 1.6182999999999996 -0.3817000000000004 1.6182999999999996 -0.3817000000000004 -0.04173333333333338 -2.041733333333333 -2.041733333333333 -0.04173333333333338 -0.04173333333333338 -2.041733333333333 -2.041733333333333 -2.041733333333333 -0.04173333333333338 -2.041733333333333 -2.041733333333333 -0.04173333333333338 -0.04173333333333338 -2.041733333333333 -0.04173333333333338 -1.1985666666666668 0.8014333333333331 0.8014333333333331 -1.1985666666666668 0.8014333333333331 0.8014333333333331 -1.1985666666666668 0.8014333333333331 0.8014333333333331 0.8014333333333331 -1.1985666666666668 -1.1985666666666668 -1.1985666666666668 -1.1985666666666668 0.8014333333333331 -0.06376666666666664 1.936233333333333 1.936233333333333 1.936233333333333 -0.06376666666666664 1.936233333333333 -0.06376666666666664 -0.06376666666666664 1.936233333333333 -0.06376666666666664 -0.06376666666666664 1.936233333333333 -0.06376666666666664 -0.06376666666666664 1.936233333333333 0.2894666666666666 -1.710533333333333 -1.710533333333333 0.2894666666666666 0.2894666666666666 -1.710533333333333 0.2894666666666666 0.2894666666666666 0.2894666666666666 0.2894666666666666 0.2894666666666666 -1.710533333333333 0.2894666666666666 -1.710533333333333 -1.710533333333333 -0.6569999999999995 1.3430000000000002 1.3430000000000002 1.3430000000000002 1.3430000000000002 1.3430000000000002 1.3430000000000002 -0.6569999999999995 -0.6569999999999995 1.3430000000000002 -0.6569999999999995 1.3430000000000002 1.3430000000000002 -0.6569999999999995 -0.6569999999999995 -1.1256 0.8743999999999998 -1.1256 -1.1256 0.8743999999999998 -1.1256 0.8743999999999998 -1.1256 0.8743999999999998 0.8743999999999998 -1.1256 0.8743999999999998 0.8743999999999998 0.8743999999999998 0.8743999999999998 0.18386666666666668 0.18386666666666668 0.18386666666666668 0.18386666666666668 -1.8161333333333327 -1.8161333333333327 -1.8161333333333327 -1.8161333333333327 -1.8161333333333327 -1.8161333333333327 0.18386666666666668 -1.8161333333333327 -1.8161333333333327 -1.8161333333333327 0.18386666666666668 1.2218666666666664 1.2218666666666664 1.2218666666666664 1.2218666666666664 1.2218666666666664 -0.7781333333333332 -0.7781333333333332 -0.7781333333333332 -0.7781333333333332 1.2218666666666664 1.2218666666666664 1.2218666666666664 1.2218666666666664 1.2218666666666664 -0.7781333333333332
-3.124233333333333 -1.1242333333333332 -1.1242333333333332 -1.1242333333333332 -3.124233333333333 -3.124233333333333 -3.124233333333333 -3.124233333333333 -1.1242333333333332 -3.124233333333333 -3.124233333333333 -3.124233333333333 -1.1242333333333332 -1.1242333333333332 -3.124233333333333 1.0103666666666666 3.0103666666666666 3.0103666666666666 3.0103666666666666 3.0103666666666666 1.0103666666666666 1.0103666666666666 1.0103666666666666 3.0103666666666666 3.0103666666666666 1.0103666666666666 1.0103666666666666 1.0103666666666666 1.0103666666666666 1.0103666666666666 0.8448000000000001 0.8448000000000001 0.8448000000000001 0.8448000000000001 0.8448000000000001 2.8447999999999998 0.8448000000000001 0.8448000000000001 0.8448000000000001 2.8447999999999998 2.8447999999999998 2.8447999999999998 2.8447999999999998 0.8448000000000001 0.8448000000000001 -1.7914999999999999 -3.7915 -3.7915 -3.7915 -1.7914999999999999 -1.7914999999999999 -1.7914999999999999 -3.7915 -3.7915 -3.7915 -3.7915 -1.7914999999999999 -3.7915 -3.7915 -1.7914999999999999 2.0742333333333334 0.07423333333333337 0.07423333333333337 0.07423333333333337 2.0742333333333334 2.0742333333333334 0.07423333333333337 2.0742333333333334 0.07423333333333337 0.07423333333333337 0.07423333333333337 2.0742333333333334 2.0742333333333334 0.07423333333333337 0.07423333333333337 -2.2504666666666666 -2.2504666666666666 -0.25046666666666684 -0.25046666666666684 -0.25046666666666684 -0.25046666666666684 -0.25046666666666684 -0.25046666666666684 -0.25046666666666684 -0.25046666666666684 -0.25046666666666684 -2.2504666666666666 -0.25046666666666684 -2.2504666666666666 -0.25046666666666684 1.8361333333333338 -0.16386666666666658 1.8361333333333338 -0.16386666666666658 1.8361333333333338 -0.16386666666666658 1.8361333333333338 1.8361333333333338 -0.16386666666666658 -0.16386666666666658 1.8361333333333338 1.8361333333333338 -0.16386666666666658 1.8361333333333338 1.8361333333333338 -0.6340000000000002 -0.6340000000000002 1.366 1.366 -0.6340000000000002 -0.6340000000000002 -0.6340000000000002 1.366 -0.6340000000000002 -0.6340000000000002 1.366 1.366 -0.6340000000000002 -0.6340000000000002 -0.6340000000000002 2.1699333333333337 0.16993333333333335 0.16993333333333335 2.1699333333333337 2.1699333333333337 0.16993333333333335 0.16993333333333335 2.1699333333333337 0.16993333333333335 0.16993333333333335 2.1699333333333337 0.16993333333333335 2.1699333333333337 2.1699333333333337 0.16993333333333335 -0.13526666666666673 -2.135266666666667 -2.135266666666667 -2.135266666666667 -0.13526666666666673 -2.135266666666667 -0.13526666666666673 -0.13526666666666673 -0.13526666666666673 -2.135266666666667 -0.13526666666666673 -0.13526666666666673 -0.13526666666666673 -0.13526666666666673 -0.13526666666666673
-3.9441666666666664 -3.9441666666666664 -1.9441666666666668 -1.9441666666666668 -1.9441666666666668 -1.9441666666666668 -1.9441666666666668 -1.9441666666666668 -1.9441666666666668 -3.9441666666666664 -3.9441666666666664 -3.9441666666666664 -1.9441666666666668 -3.9441666666666664 -3.9441666666666664 -0.49883333333333324 -2.4988333333333332 -0.49883333333333324 -0.49883333333333324 -0.49883333333333324 -0.49883333333333324 -0.49883333333333324 -0.49883333333333324 -2.4988333333333332 -0.49883333333333324 -2.4988333333333332 -0.49883333333333324 -2.4988333333333332 -2.4988333333333332 -2.4988333333333332 1.8918666666666666 1.8918666666666666 -0.10813333333333316 -0.10813333333333316 1.8918666666666666 -0.10813333333333316 -0.10813333333333316 1.8918666666666666 1.8918666666666666 -0.10813333333333316 1.8918666666666666 1.8918666666666666 -0.10813333333333316 -0.10813333333333316 1.8918666666666666 0.26070000000000004 -1.7393 -1.7393 -1.7393 0.26070000000000004 -1.7393 -1.7393 0.26070000000000004 -1.7393 -1.7393 0.26070000000000004 0.26070000000000004 -1.7393 -1.7393 0.26070000000000004 2.5811666666666673 2.5811666666666673 0.5811666666666666 0.5811666666666666 0.5811666666666666 0.5811666666666666 0.5811666666666666 2.5811666666666673 0.5811666666666666 0.5811666666666666 0.5811666666666666 2.5811666666666673 0.5811666666666666 0.5811666666666666 0.5811666666666666 -1.6488000000000003 0.35119999999999996 0.35119999999999996 -1.6488000000000003 -1.6488000000000003 -1.6488000000000003 -1.6488000000000003 0.35119999999999996 -1.6488000000000003 0.35119999999999996 -1.6488000000000003 0.35119999999999996 0.35119999999999996 -1.6488000000000003 0.35119999999999996 0.5458666666666664 -1.4541333333333337 0.5458666666666664 0.5458666666666664 -1.4541333333333337 -1.4541333333333337 -1.4541333333333337 -1.4541333333333337 -1.4541333333333337 -1.4541333333333337 -1.4541333333333337 -1.4541333333333337 0.5458666666666664 0.5458666666666664 0.5458666666666664 -0.09439999999999996 -0.09439999999999996 -0.09439999999999996 -0.09439999999999996 1.9056 1.9056 1.9056 1.9056 1.9056 1.9056 -0.09439999999999996 1.9056 1.9056 -0.09439999999999996 1.9056 -0.18940000000000007 -0.18940000000000007 1.8106000000000002 1.8106000000000002 1.8106000000000002 -0.18940000000000007 -0.18940000000000007 1.8106000000000002 1.8106000000000002 1.8106000000000002 1.8106000000000002 -0.18940000000000007 1.8106000000000002 -0.18940000000000007 -0.18940000000000007 1.0959999999999996 3.096 3.096 1.0959999999999996 3.096 1.0959999999999996 1.0959999999999996 1.0959999999999996 1.0959999999999996 1.0959999999999996 3.096 1.0959999999999996 3.096 1.0959999999999996 1.0959999999999996
-1.4415666666666667 -1.4415666666666667 0.5584333333333333 0.5584333333333333 -1.4415666666666667 -1.4415666666666667 -1.4415666666666667 -1.4415666666666667 -1.4415666666666667 -1.4415666666666667 0.5584333333333333 0.5584333333333333 0.5584333333333333 -1.4415666666666667 0.5584333333333333 -1.1577666666666668 0.8422333333333336 0.8422333333333336 -1.1577666666666668 0.8422333333333336 0.8422333333333336 -1.1577666666666668 0.8422333333333336 -1.1577666666666668 0.8422333333333336 0.8422333333333336 0.8422333333333336 0.8422333333333336 0.8422333333333336 0.8422333333333336 -1.1407333333333332 -1.1407333333333332 -1.1407333333333332 0.859266666666667 0.859266666666667 -1.1407333333333332 -1.1407333333333332 0.859266666666667 -1.1407333333333332 0.859266666666667 0.859266666666667 0.859266666666667 0.859266666666667 -1.1407333333333332 0.859266666666667 -0.11463333333333336 -0.11463333333333336 -0.11463333333333336 -0.11463333333333336 1.885366666666667 -0.11463333333333336 -0.11463333333333336 -0.11463333333333336 1.885366666666667 -0.11463333333333336 1.885366666666667 1.885366666666667 1.885366666666667 -0.11463333333333336 1.885366666666667 -0.5461666666666669 -0.5461666666666669 1.4538333333333333 -0.5461666666666669 -0.5461666666666669 -0.5461666666666669 1.4538333333333333 -0.5461666666666669 -0.5461666666666669 1.4538333333333333 1.4538333333333333 1.4538333333333333 1.4538333333333333 -0.5461666666666669 -0.5461666666666669 0.9583333333333336 -1.041666666666667 -1.041666666666667 0.9583333333333336 0.9583333333333336 -1.041666666666667 -1.041666666666667 0.9583333333333336 0.9583333333333336 -1.041666666666667 0.9583333333333336 -1.041666666666667 0.9583333333333336 -1.041666666666667 0.9583333333333336 0.4516000000000003 0.4516000000000003 -1.5483999999999998 0.4516000000000003 0.4516000000000003 0.4516000000000003 -1.5483999999999998 0.4516000000000003 0.4516000000000003 -1.5483999999999998 0.4516000000000003 -1.5483999999999998 -1.5483999999999998 -1.5483999999999998 0.4516000000000003 -1.489866666666667 0.5101333333333333 0.5101333333333333 -1.489866666666667 0.5101333333333333 -1.489866666666667 0.5101333333333333 0.5101333333333333 0.5101333333333333 0.5101333333333333 0.5101333333333333 -1.489866666666667 -1.489866666666667 0.5101333333333333 0.5101333333333333 -1.1501999999999997 0.8497999999999999 0.8497999999999999 -1.1501999999999997 0.8497999999999999 0.8497999999999999 -1.1501999999999997 0.8497999999999999 0.8497999999999999 -1.1501999999999997 0.8497999999999999 -1.1501999999999997 0.8497999999999999 0.8497999999999999 -1.1501999999999997 -0.3689999999999999 -0.3689999999999999 1.631 -0.3689999999999999 -0.3689999999999999 -0.3689999999999999 -0.3689999999999999 1.631 1.631 1.631 -0.3689999999999999 1.631 -0.3689999999999999 1.631 -0.3689999999999999
-1.496433333333333 -1.496433333333333 -1.496433333333333 0.5035666666666668 -1.496433333333333 -1.496433333333333 0.5035666666666668 0.5035666666666668 0.5035666666666668 0.5035666666666668 0.5035666666666668 0.5035666666666668 0.5035666666666668 0.5035666666666668 -1.496433333333333 -0.051233333333333644 1.9487666666666663 1.9487666666666663 -0.051233333333333644 -0.051233333333333644 1.9487666666666663 -0.051233333333333644 1.9487666666666663 1.9487666666666663 -0.051233333333333644 1.9487666666666663 1.9487666666666663 -0.051233333333333644 -0.051233333333333644 -0.051233333333333644 0.9079333333333331 0.9079333333333331 0.9079333333333331 0.9079333333333331 -1.0920666666666667 -1.0920666666666667 -1.0920666666666667 0.9079333333333331 0.9079333333333331 -1.0920666666666667 0.9079333333333331 0.9079333333333331 0.9079333333333331 -1.0920666666666667 0.9079333333333331 1.3353666666666668 1.3353666666666668 -0.6646333333333331 1.3353666666666668 -0.6646333333333331 1.3353666666666668 -0.6646333333333331 1.3353666666666668 1.3353666666666668 -0.6646333333333331 -0.6646333333333331 1.3353666666666668 1.3353666666666668 -0.6646333333333331 1.3353666666666668 1.3217666666666663 -0.6782333333333336 1.3217666666666663 -0.6782333333333336 -0.6782333333333336 -0.6782333333333336 -0.6782333333333336 1.3217666666666663 -0.6782333333333336 -0.6782333333333336 1.3217666666666663 -0.6782333333333336 1.3217666666666663 1.3217666666666663 -0.6782333333333336 0.4293333333333332 -1.570666666666667 0.4293333333333332 0.4293333333333332 0.4293333333333332 0.4293333333333332 0.4293333333333332 -1.570666666666667 0.4293333333333332 -1.570666666666667 0.4293333333333332 -1.570666666666667 -1.570666666666667 0.4293333333333332 -1.570666666666667 1.3891999999999995 -0.6108000000000002 1.3891999999999995 -0.6108000000000002 -0.6108000000000002 1.3891999999999995 -0.6108000000000002 -0.6108000000000002 1.3891999999999995 1.3891999999999995 1.3891999999999995 1.3891999999999995 1.3891999999999995 -0.6108000000000002 1.3891999999999995 1.2403333333333335 1.2403333333333335 -0.7596666666666665 -0.7596666666666665 -0.7596666666666665 1.2403333333333335 -0.7596666666666665 1.2403333333333335 -0.7596666666666665 -0.7596666666666665 -0.7596666666666665 -0.7596666666666665 -0.7596666666666665 -0.7596666666666665 1.2403333333333335 0.03866666666666665 -1.9613333333333338 0.03866666666666665 0.03866666666666665 -1.9613333333333338 -1.9613333333333338 -1.9613333333333338 0.03866666666666665 0.03866666666666665 0.03866666666666665 -1.9613333333333338 0.03866666666666665 0.03866666666666665 0.03866666666666665 0.03866666666666665 -1.1149333333333336 0.8850666666666667 0.8850666666666667 -1.1149333333333336 -1.1149333333333336 -1.1149333333333336 0.8850666666666667 0.8850666666666667 -1.1149333333333336 0.8850666666666667 0.8850666666666667 -1.1149333333333336 -1.1149333333333336 -1.1149333333333336 -1.1149333333333336
0.019033333333333385 2.0190333333333332 0.019033333333333385 0.019033333333333385 2.0190333333333332 0.019033333333333385 2.0190333333333332 0.019033333333333385 0.019033333333333385 2.0190333333333332 2.0190333333333332 2.0190333333333332 2.0190333333333332 2.0190333333333332 0.019033333333333385 -0.47516666666666674 -0.47516666666666674 1.5248333333333335 -0.47516666666666674 -0.47516666666666674 -0.47516666666666674 -0.47516666666666674 -0.47516666666666674 1.5248333333333335 1.5248333333333335 -0.47516666666666674 1.5248333333333335 -0.47516666666666674 -0.47516666666666674 -0.47516666666666674 -0.2629999999999999 1.737 1.737 -0.2629999999999999 -0.2629999999999999 1.737 -0.2629999999999999 1.737 -0.2629999999999999 1.737 1.737 1.737 1.737 -0.2629999999999999 1.737 1.962633333333334 -0.03736666666666674 1.962633333333334 1.962633333333334 -0.03736666666666674 -0.03736666666666674 1.962633333333334 1.962633333333334 -0.03736666666666674 1.962633333333334 -0.03736666666666674 -0.03736666666666674 1.962633333333334 1.962633333333334 -0.03736666666666674 -0.5620999999999999 -2.5621 -2.5621 -0.5620999999999999 -2.5621 -0.5620999999999999 -0.5620999999999999 -0.5620999999999999 -2.5621 -2.5621 -0.5620999999999999 -0.5620999999999999 -0.5620999999999999 -0.5620999999999999 -2.5621 -1.1787333333333334 0.8212666666666669 0.8212666666666669 -1.1787333333333334 0.8212666666666669 -1.1787333333333334 0.8212666666666669 0.8212666666666669 0.8212666666666669 -1.1787333333333334 0.8212666666666669 0.8212666666666669 -1.1787333333333334 -1.1787333333333334 0.8212666666666669 0.29019999999999974 -1.7098 -1.7098 -1.7098 -1.7098 0.29019999999999974 0.29019999999999974 0.29019999999999974 0.29019999999999974 0.29019999999999974 -1.7098 -1.7098 0.29019999999999974 -1.7098 -1.7098 -0.2954 -2.2954000000000003 -0.2954 -2.2954000000000003 -0.2954 -2.2954000000000003 -0.2954 -0.2954 -0.2954 -2.2954000000000003 -2.2954000000000003 -2.2954000000000003 -0.2954 -2.2954000000000003 -2.2954000000000003 -0.3605999999999999 -0.3605999999999999 1.6394000000000002 1.6394000000000002 1.6394000000000002 1.6394000000000002 1.6394000000000002 -0.3605999999999999 1.6394000000000002 1.6394000000000002 1.6394000000000002 1.6394000000000002 1.6394000000000002 1.6394000000000002 1.6394000000000002 0.8631333333333333 -1.1368666666666662 0.8631333333333333 -1.1368666666666662 0.8631333333333333 -1.1368666666666662 0.8631333333333333 0.8631333333333333 0.8631333333333333 0.8631333333333333 -1.1368666666666662 -1.1368666666666662 0.8631333333333333 0.8631333333333333 0.8631333333333333
0.39976666666666666 -1.6002333333333334 -1.6002333333333334 0.39976666666666666 -1.6002333333333334 -1.6002333333333334 0.39976666666666666 0.39976666666666666 -1.6002333333333334 -1.6002333333333334 0.39976666666666666 0.39976666666666666 0.39976666666666666 0.39976666666666666 0.39976666666666666 -0.010433333333333374 -2.0104333333333337 -0.010433333333333374 -2.0104333333333337 -0.010433333333333374 -0.010433333333333374 -0.010433333333333374 -2.0104333333333337 -0.010433333333333374 -2.0104333333333337 -0.010433333333333374 -0.010433333333333374 -0.010433333333333374 -0.010433333333333374 -0.010433333333333374 0.46533333333333315 -1.5346666666666668 -1.5346666666666668 0.46533333333333315 0.46533333333333315 0.46533333333333315 -1.5346666666666668 0.46533333333333315 -1.5346666666666668 -1.5346666666666668 0.46533333333333315 0.46533333333333315 -1.5346666666666668 0.46533333333333315 -1.5346666666666668 0.9128999999999999 0.9128999999999999 0.9128999999999999 0.9128999999999999 0.9128999999999999 -1.0871000000000002 -1.0871000000000002 -1.0871000000000002 -1.0871000000000002 -1.0871000000000002 -1.0871000000000002 -1.0871000000000002 0.9128999999999999 0.9128999999999999 -1.0871000000000002 -1.8000333333333332 0.19996666666666676 -1.8000333333333332 -1.8000333333333332 -1.8000333333333332 0.19996666666666676 -1.8000333333333332 -1.8000333333333332 0.19996666666666676 0.19996666666666676 -1.8000333333333332 -1.8000333333333332 0.19996666666666676 0.19996666666666676 -1.8000333333333332 -1.1141333333333334 0.8858666666666667 0.8858666666666667 0.8858666666666667 0.8858666666666667 -1.1141333333333334 0.8858666666666667 -1.1141333333333334 -1.1141333333333334 -1.1141333333333334 -1.1141333333333334 -1.1141333333333334 0.8858666666666667 -1.1141333333333334 -1.1141333333333334 3.0214 3.0214 3.0214 1.0214 3.0214 1.0214 3.0214 3.0214 3.0214 1.0214 3.0214 1.0214 3.0214 1.0214 1.0214 -0.5633999999999999 1.4366000000000005 -0.5633999999999999 -0.5633999999999999 -0.5633999999999999 -0.5633999999999999 1.4366000000000005 1.4366000000000005 1.4366000000000005 -0.5633999999999999 1.4366000000000005 1.4366000000000005 -0.5633999999999999 1.4366000000000005 1.4366000000000005 0.7305333333333333 -1.2694666666666667 -1.2694666666666667 -1.2694666666666667 -1.2694666666666667 0.7305333333333333 -1.2694666666666667 -1.2694666666666667 -1.2694666666666667 0.7305333333333333 -1.2694666666666667 0.7305333333333333 0.7305333333333333 0.7305333333333333 0.7305333333333333 -0.04193333333333347 1.9580666666666666 -0.04193333333333347 -0.04193333333333347 -0.04193333333333347 -0.04193333333333347 -0.04193333333333347 1.9580666666666666 -0.04193333333333347 -0.04193333333333347 -0.04193333333333347 -0.04193333333333347 -0.04193333333333347 1.9580666666666666 1.9580666666666666
-0.9707000000000001 1.0293000000000003 1.0293000000000003 1.0293000000000003 -0.9707000000000001 1.0293000000000003 1.0293000000000003 -0.9707000000000001 -0.9707000000000001 -0.9707000000000001 1.0293000000000003 -0.9707000000000001 1.0293000000000003 1.0293000000000003 -0.9707000000000001 0.36823333333333336 0.36823333333333336 0.36823333333333336 0.36823333333333336 0.36823333333333336 -1.6317666666666668 -1.6317666666666668 0.36823333333333336 -1.6317666666666668 0.36823333333333336 0.36823333333333336 0.36823333333333336 0.36823333333333336 0.36823333333333336 -1.6317666666666668 1.6162666666666663 3.616266666666667 3.616266666666667 3.616266666666667 1.6162666666666663 1.6162666666666663 1.6162666666666663 1.6162666666666663 3.616266666666667 3.616266666666667 1.6162666666666663 3.616266666666667 1.6162666666666663 1.6162666666666663 3.616266666666667 -2.2900333333333336 -0.2900333333333333 -2.2900333333333336 -0.2900333333333333 -2.2900333333333336 -0.2900333333333333 -2.2900333333333336 -0.2900333333333333 -2.2900333333333336 -0.2900333333333333 -2.2900333333333336 -0.2900333333333333 -2.2900333333333336 -0.2900333333333333 -0.2900333333333333 -0.6758333333333334 -0.6758333333333334 -2.675833333333333 -2.675833333333333 -2.675833333333333 -2.675833333333333 -0.6758333333333334 -2.675833333333333 -0.6758333333333334 -0.6758333333333334 -2.675833333333333 -2.675833333333333 -0.6758333333333334 -2.675833333333333 -0.6758333333333334 -0.09373333333333335 -0.09373333333333335 -0.09373333333333335 -2.0937333333333332 -2.0937333333333332 -0.09373333333333335 -0.09373333333333335 -2.0937333333333332 -0.09373333333333335 -0.09373333333333335 -0.09373333333333335 -0.09373333333333335 -2.0937333333333332 -2.0937333333333332 -0.09373333333333335 5.246199999999999 3.2462000000000004 5.246199999999999 5.246199999999999 3.2462000000000004 3.2462000000000004 3.2462000000000004 5.246199999999999 5.246199999999999 5.246199999999999 5.246199999999999 5.246199999999999 5.246199999999999 3.2462000000000004 3.2462000000000004 0.05100000000000003 0.05100000000000003 -1.9490000000000003 -1.9490000000000003 0.05100000000000003 -1.9490000000000003 -1.9490000000000003 0.05100000000000003 -1.9490000000000003 -1.9490000000000003 0.05100000000000003 -1.9490000000000003 -1.9490000000000003 0.05100000000000003 0.05100000000000003 0.43646666666666656 0.43646666666666656 0.43646666666666656 2.4364666666666666 0.43646666666666656 2.4364666666666666 2.4364666666666666 2.4364666666666666 2.4364666666666666 2.4364666666666666 2.4364666666666666 2.4364666666666666 2.4364666666666666 0.43646666666666656 0.43646666666666656 -3.687866666666666 -1.6878666666666666 -3.687866666666666 -1.6878666666666666 -3.687866666666666 -3.687866666666666 -1.6878666666666666 -3.687866666666666 -1.6878666666666666 -1.6878666666666666 -1.6878666666666666 -1.6878666666666666 -3.687866666666666 -1.6878666666666666 -3.687866666666666
-0.13723333333333326 -2.1372333333333335 -0.13723333333333326 -0.13723333333333326 -2.1372333333333335 -0.13723333333333326 -0.13723333333333326 -0.13723333333333326 -2.1372333333333335 -0.13723333333333326 -0.13723333333333326 -2.1372333333333335 -0.13723333333333326 -0.13723333333333326 -2.1372333333333335 -1.1893000000000002 -3.1892999999999994 -1.1893000000000002 -1.1893000000000002 -3.1892999999999994 -1.1893000000000002 -1.1893000000000002 -3.1892999999999994 -3.1892999999999994 -3.1892999999999994 -1.1893000000000002 -1.1893000000000002 -3.1892999999999994 -1.1893000000000002 -3.1892999999999994 -0.3086000000000001 1.6913999999999998 -0.3086000000000001 1.6913999999999998 1.6913999999999998 1.6913999999999998 1.6913999999999998 -0.3086000000000001 -0.3086000000000001 -0.3086000000000001 -0.3086000000000001 1.6913999999999998 -0.3086000000000001 1.6913999999999998 -0.3086000000000001 2.2544333333333326 2.2544333333333326 2.2544333333333326 2.2544333333333326 2.2544333333333326 2.2544333333333326 0.2544333333333332 2.2544333333333326 2.2544333333333326 2.2544333333333326 2.2544333333333326 2.2544333333333326 0.2544333333333332 2.2544333333333326 2.2544333333333326 0.03496666666666676 0.03496666666666676 0.03496666666666676 2.034966666666666 0.03496666666666676 2.034966666666666 0.03496666666666676 2.034966666666666 2.034966666666666 2.034966666666666 0.03496666666666676 0.03496666666666676 0.03496666666666676 2.034966666666666 2.034966666666666 -1.0538666666666665 -1.0538666666666665 0.9461333333333334 0.9461333333333334 -1.0538666666666665 -1.0538666666666665 0.9461333333333334 -1.0538666666666665 -1.0538666666666665 -1.0538666666666665 0.9461333333333334 0.9461333333333334 -1.0538666666666665 -1.0538666666666665 -1.0538666666666665 -0.2914 -0.2914 -0.2914 1.7086000000000003 1.7086000000000003 1.7086000000000003 1.7086000000000003 -0.2914 -0.2914 1.7086000000000003 1.7086000000000003 -0.2914 -0.2914 1.7086000000000003 1.7086000000000003 -0.19666666666666677 -0.19666666666666677 -0.19666666666666677 1.8033333333333332 -0.19666666666666677 1.8033333333333332 -0.19666666666666677 1.8033333333333332 1.8033333333333332 -0.19666666666666677 -0.19666666666666677 1.8033333333333332 -0.19666666666666677 -0.19666666666666677 1.8033333333333332 -0.31753333333333333 -2.317533333333334 -2.317533333333334 -0.31753333333333333 -0.31753333333333333 -0.31753333333333333 -0.31753333333333333 -0.31753333333333333 -2.317533333333334 -2.317533333333334 -0.31753333333333333 -2.317533333333334 -0.31753333333333333 -0.31753333333333333 -0.31753333333333333 -0.7948000000000001 1.2052 1.2052 1.2052 -0.7948000000000001 1.2052 1.2052 1.2052 1.2052 1.2052 1.2052 -0.7948000000000001 -0.7948000000000001 1.2052 1.2052
1.7650333333333335 -0.2349666666666667 1.7650333333333335 -0.2349666666666667 -0.2349666666666667 -0.2349666666666667 -0.2349666666666667 1.7650333333333335 -0.2349666666666667 -0.2349666666666667 -0.2349666666666667 -0.2349666666666667 1.7650333333333335 1.7650333333333335 1.7650333333333335 -0.1159666666666667 -2.115966666666666 -0.1159666666666667 -0.1159666666666667 -0.1159666666666667 -0.1159666666666667 -2.115966666666666 -0.1159666666666667 -0.1159666666666667 -0.1159666666666667 -0.1159666666666667 -2.115966666666666 -0.1159666666666667 -0.1159666666666667 -2.115966666666666 -0.5454666666666665 -0.5454666666666665 1.454533333333333 1.454533333333333 1.454533333333333 -0.5454666666666665 1.454533333333333 1.454533333333333 1.454533333333333 -0.5454666666666665 1.454533333333333 -0.5454666666666665 -0.5454666666666665 -0.5454666666666665 1.454533333333333 0.9456333333333334 0.9456333333333334 2.9456333333333333 2.9456333333333333 0.9456333333333334 0.9456333333333334 2.9456333333333333 2.9456333333333333 2.9456333333333333 0.9456333333333334 2.9456333333333333 2.9456333333333333 0.9456333333333334 0.9456333333333334 0.9456333333333334 -1.2779 -1.2779 0.7221000000000002 0.7221000000000002 -1.2779 -1.2779 0.7221000000000002 -1.2779 -1.2779 0.7221000000000002 0.7221000000000002 -1.2779 -1.2779 -1.2779 0.7221000000000002 0.5867333333333332 -1.4132666666666667 -1.4132666666666667 -1.4132666666666667 0.5867333333333332 -1.4132666666666667 -1.4132666666666667 0.5867333333333332 0.5867333333333332 0.5867333333333332 0.5867333333333332 -1.4132666666666667 -1.4132666666666667 0.5867333333333332 0.5867333333333332 1.756666666666667 -0.2433333333333333 1.756666666666667 1.756666666666667 1.756666666666667 1.756666666666667 1.756666666666667 1.756666666666667 1.756666666666667 -0.2433333333333333 1.756666666666667 -0.2433333333333333 -0.2433333333333333 -0.2433333333333333 1.756666666666667 -2.179266666666667 -2.179266666666667 -0.17926666666666677 -0.17926666666666677 -0.17926666666666677 -2.179266666666667 -2.179266666666667 -0.17926666666666677 -0.17926666666666677 -0.17926666666666677 -0.17926666666666677 -2.179266666666667 -2.179266666666667 -2.179266666666667 -0.17926666666666677 -1.1567333333333334 -1.1567333333333334 -1.1567333333333334 -1.1567333333333334 -1.1567333333333334 -1.1567333333333334 0.8432666666666668 -1.1567333333333334 0.8432666666666668 0.8432666666666668 0.8432666666666668 0.8432666666666668 -1.1567333333333334 0.8432666666666668 -1.1567333333333334 -1.7787333333333337 -1.7787333333333337 -1.7787333333333337 -1.7787333333333337 0.2212666666666667 -1.7787333333333337 0.2212666666666667 0.2212666666666667 -1.7787333333333337 -1.7787333333333337 -1.7787333333333337 -1.7787333333333337 0.2212666666666667 0.2212666666666667 0.2212666666666667
0.9512999999999999 0.9512999999999999 -1.0487000000000002 0.9512999999999999 0.9512999999999999 -1.0487000000000002 -1.0487000000000002 -1.0487000000000002 0.9512999999999999 -1.0487000000000002 0.9512999999999999 -1.0487000000000002 -1.0487000000000002 0.9512999999999999 -1.0487000000000002 0.06023333333333335 -1.9397666666666664 -1.9397666666666664 0.06023333333333335 0.06023333333333335 0.06023333333333335 -1.9397666666666664 0.06023333333333335 0.06023333333333335 -1.9397666666666664 0.06023333333333335 -1.9397666666666664 -1.9397666666666664 -1.9397666666666664 -1.9397666666666664 2.7601999999999998 2.7601999999999998 0.7602 0.7602 2.7601999999999998 2.7601999999999998 2.7601999999999998 2.7601999999999998 0.7602 2.7601999999999998 0.7602 0.7602 0.7602 0.7602 2.7601999999999998 1.7334333333333334 3.7334333333333336 1.7334333333333334 3.7334333333333336 1.7334333333333334 1.7334333333333334 3.7334333333333336 1.7334333333333334 1.7334333333333334 3.7334333333333336 3.7334333333333336 3.7334333333333336 1.7334333333333334 1.7334333333333334 1.7334333333333334 -1.9623666666666666 0.03763333333333317 0.03763333333333317 0.03763333333333317 -1.9623666666666666 -1.9623666666666666 -1.9623666666666666 0.03763333333333317 -1.9623666666666666 -1.9623666666666666 0.03763333333333317 0.03763333333333317 -1.9623666666666666 -1.9623666666666666 -1.9623666666666666 -1.5481333333333331 -1.5481333333333331 0.45186666666666647 -1.5481333333333331 0.45186666666666647 -1.5481333333333331 -1.5481333333333331 -1.5481333333333331 0.45186666666666647 0.45186666666666647 -1.5481333333333331 0.45186666666666647 -1.5481333333333331 -1.5481333333333331 -1.5481333333333331 -0.11179999999999998 -0.11179999999999998 1.8882000000000003 -0.11179999999999998 1.8882000000000003 -0.11179999999999998 -0.11179999999999998 1.8882000000000003 1.8882000000000003 1.8882000000000003 -0.11179999999999998 1.8882000000000003 1.8882000000000003 1.8882000000000003 -0.11179999999999998 -0.6144666666666666 -0.6144666666666666 -0.6144666666666666 -0.6144666666666666 -0.6144666666666666 -0.6144666666666666 -2.614466666666667 -2.614466666666667 -2.614466666666667 -2.614466666666667 -0.6144666666666666 -2.614466666666667 -0.6144666666666666 -2.614466666666667 -2.614466666666667 -0.00746666666666667 1.9925333333333333 1.9925333333333333 -0.00746666666666667 -0.00746666666666667 1.9925333333333333 -0.00746666666666667 -0.00746666666666667 1.9925333333333333 -0.00746666666666667 1.9925333333333333 -0.00746666666666667 1.9925333333333333 1.9925333333333333 1.9925333333333333 -1.2609333333333332 -3.2609333333333335 -1.2609333333333332 -3.2609333333333335 -1.2609333333333332 -3.2609333333333335 -3.2609333333333335 -1.2609333333333332 -1.2609333333333332 -3.2609333333333335 -1.2609333333333332 -3.2609333333333335 -3.2609333333333335 -1.2609333333333332 -1.2609333333333332
-0.16816666666666671 -2.168166666666666 -0.16816666666666671 -2.168166666666666 -2.168166666666666 -0.16816666666666671 -2.168166666666666 -0.16816666666666671 -0.16816666666666671 -2.168166666666666 -0.16816666666666671 -2.168166666666666 -0.16816666666666671 -2.168166666666666 -0.16816666666666671 -1.3267666666666666 -3.3267666666666664 -3.3267666666666664 -3.3267666666666664 -3.3267666666666664 -3.3267666666666664 -1.3267666666666666 -1.3267666666666666 -1.3267666666666666 -3.3267666666666664 -1.3267666666666666 -1.3267666666666666 -3.3267666666666664 -1.3267666666666666 -3.3267666666666664 0.4301333333333334 0.4301333333333334 -1.5698666666666667 -1.5698666666666667 0.4301333333333334 0.4301333333333334 -1.5698666666666667 0.4301333333333334 -1.5698666666666667 -1.5698666666666667 0.4301333333333334 -1.5698666666666667 0.4301333333333334 0.4301333333333334 -1.5698666666666667 0.16396666666666665 2.163966666666666 2.163966666666666 0.16396666666666665 0.16396666666666665 2.163966666666666 0.16396666666666665 0.16396666666666665 0.16396666666666665 0.16396666666666665 0.16396666666666665 0.16396666666666665 2.163966666666666 2.163966666666666 0.16396666666666665 2.938033333333333 0.9380333333333334 0.9380333333333334 2.938033333333333 0.9380333333333334 2.938033333333333 0.9380333333333334 0.9380333333333334 0.9380333333333334 0.9380333333333334 2.938033333333333 2.938033333333333 0.9380333333333334 0.9380333333333334 0.9380333333333334 0.0012666666666666382 2.0012666666666665 0.0012666666666666382 0.0012666666666666382 2.0012666666666665 2.0012666666666665 2.0012666666666665 0.0012666666666666382 2.0012666666666665 0.0012666666666666382 0.0012666666666666382 2.0012666666666665 2.0012666666666665 2.0012666666666665 2.0012666666666665 0.3018 0.3018 2.3017999999999996 2.3017999999999996 2.3017999999999996 2.3017999999999996 0.3018 2.3017999999999996 2.3017999999999996 2.3017999999999996 2.3017999999999996 0.3018 2.3017999999999996 0.3018 0.3018 -1.2168666666666668 -3.2168666666666663 -1.2168666666666668 -1.2168666666666668 -3.2168666666666663 -1.2168666666666668 -1.2168666666666668 -1.2168666666666668 -3.2168666666666663 -3.2168666666666663 -1.2168666666666668 -3.2168666666666663 -3.2168666666666663 -1.2168666666666668 -3.2168666666666663 -0.9338666666666666 -0.9338666666666666 1.0661333333333338 1.0661333333333338 1.0661333333333338 -0.9338666666666666 -0.9338666666666666 -0.9338666666666666 -0.9338666666666666 1.0661333333333338 1.0661333333333338 1.0661333333333338 -0.9338666666666666 1.0661333333333338 -0.9338666666666666 -0.18953333333333341 -0.18953333333333341 1.810466666666667 1.810466666666667 1.810466666666667 -0.18953333333333341 -0.18953333333333341 1.810466666666667 -0.18953333333333341 -0.18953333333333341 1.810466666666667 -0.18953333333333341 1.810466666666667 -0.18953333333333341 -0.18953333333333341
-0.8065666666666668 -0.8065666666666668 1.1934333333333333 -0.8065666666666668 1.1934333333333333 1.1934333333333333 -0.8065666666666668 -0.8065666666666668 1.1934333333333333 -0.8065666666666668 1.1934333333333333 -0.8065666666666668 -0.8065666666666668 -0.8065666666666668 1.1934333333333333 -0.006033333333333245 -0.006033333333333245 -2.0060333333333333 -2.0060333333333333 -0.006033333333333245 -0.006033333333333245 -0.006033333333333245 -0.006033333333333245 -0.006033333333333245 -0.006033333333333245 -2.0060333333333333 -0.006033333333333245 -0.006033333333333245 -0.006033333333333245 -2.0060333333333333 -0.22073333333333323 -0.22073333333333323 -0.22073333333333323 -0.22073333333333323 -0.22073333333333323 -2.220733333333333 -2.220733333333333 -2.220733333333333 -2.220733333333333 -2.220733333333333 -2.220733333333333 -2.220733333333333 -2.220733333333333 -2.220733333333333 -0.22073333333333323 1.1029666666666664 1.1029666666666664 1.1029666666666664 1.1029666666666664 1.1029666666666664 -0.8970333333333331 1.1029666666666664 1.1029666666666664 1.1029666666666664 1.1029666666666664 -0.8970333333333331 1.1029666666666664 -0.8970333333333331 -0.8970333333333331 1.1029666666666664 -1.9269666666666665 0.07303333333333331 -1.9269666666666665 0.07303333333333331 -1.9269666666666665 0.07303333333333331 0.07303333333333331 0.07303333333333331 -1.9269666666666665 -1.9269666666666665 0.07303333333333331 0.07303333333333331 0.07303333333333331 0.07303333333333331 0.07303333333333331 0.655 2.6550000000000002 2.6550000000000002 0.655 0.655 0.655 2.6550000000000002 2.6550000000000002 2.6550000000000002 0.655 2.6550000000000002 0.655 0.655 2.6550000000000002 2.6550000000000002 2.404866666666667 2.404866666666667 0.4048666666666667 2.404866666666667 2.404866666666667 0.4048666666666667 2.404866666666667 2.404866666666667 2.404866666666667 0.4048666666666667 0.4048666666666667 2.404866666666667 0.4048666666666667 2.404866666666667 2.404866666666667 -0.8263999999999998 1.1736 1.1736 -0.8263999999999998 -0.8263999999999998 -0.8263999999999998 1.1736 1.1736 -0.8263999999999998 1.1736 -0.8263999999999998 1.1736 1.1736 -0.8263999999999998 -0.8263999999999998 1.8980000000000001 1.8980000000000001 -0.102 -0.102 1.8980000000000001 1.8980000000000001 1.8980000000000001 1.8980000000000001 1.8980000000000001 1.8980000000000001 1.8980000000000001 -0.102 1.8980000000000001 1.8980000000000001 1.8980000000000001 -0.27413333333333323 -2.2741333333333333 -0.27413333333333323 -0.27413333333333323 -0.27413333333333323 -0.27413333333333323 -0.27413333333333323 -2.2741333333333333 -0.27413333333333323 -0.27413333333333323 -0.27413333333333323 -0.27413333333333323 -2.2741333333333333 -2.2741333333333333 -0.27413333333333323
-2.124833333333333 -2.124833333333333 -2.124833333333333 -0.12483333333333334 -0.12483333333333334 -0.12483333333333334 -0.12483333333333334 -0.12483333333333334 -2.124833333333333 -2.124833333333333 -0.12483333333333334 -2.124833333333333 -0.12483333333333334 -2.124833333333333 -2.124833333333333 -1.8664999999999998 -1.8664999999999998 -1.8664999999999998 0.13350000000000006 -1.8664999999999998 0.13350000000000006 -1.8664999999999998 -1.8664999999999998 -1.8664999999999998 0.13350000000000006 -1.8664999999999998 0.13350000000000006 0.13350000000000006 -1.8664999999999998 -1.8664999999999998 0.5207333333333334 0.5207333333333334 2.5207333333333333 0.5207333333333334 2.5207333333333333 0.5207333333333334 0.5207333333333334 2.5207333333333333 0.5207333333333334 2.5207333333333333 2.5207333333333333 0.5207333333333334 0.5207333333333334 0.5207333333333334 2.5207333333333333 -2.1781666666666664 -2.1781666666666664 -0.17816666666666678 -0.17816666666666678 -2.1781666666666664 -0.17816666666666678 -0.17816666666666678 -0.17816666666666678 -2.1781666666666664 -0.17816666666666678 -2.1781666666666664 -0.17816666666666678 -0.17816666666666678 -0.17816666666666678 -2.1781666666666664 2.7431666666666663 0.7431666666666665 2.7431666666666663 2.7431666666666663 2.7431666666666663 0.7431666666666665 2.7431666666666663 0.7431666666666665 2.7431666666666663 0.7431666666666665 2.7431666666666663 2.7431666666666663 0.7431666666666665 0.7431666666666665 0.7431666666666665 -0.0927333333333333 -2.0927333333333333 -2.0927333333333333 -0.0927333333333333 -2.0927333333333333 -0.0927333333333333 -0.0927333333333333 -0.0927333333333333 -0.0927333333333333 -2.0927333333333333 -2.0927333333333333 -0.0927333333333333 -2.0927333333333333 -2.0927333333333333 -2.0927333333333333 2.923666666666666 0.9236666666666669 0.9236666666666669 2.923666666666666 0.9236666666666669 2.923666666666666 2.923666666666666 0.9236666666666669 2.923666666666666 0.9236666666666669 2.923666666666666 2.923666666666666 0.9236666666666669 0.9236666666666669 0.9236666666666669 -3.020200000000001 -1.0201999999999998 -3.020200000000001 -3.020200000000001 -1.0201999999999998 -1.0201999999999998 -1.0201999999999998 -1.0201999999999998 -1.0201999999999998 -3.020200000000001 -1.0201999999999998 -3.020200000000001 -1.0201999999999998 -3.020200000000001 -3.020200000000001 0.17646666666666663 0.17646666666666663 0.17646666666666663 0.17646666666666663 0.17646666666666663 0.17646666666666663 2.1764666666666668 2.1764666666666668 2.1764666666666668 2.1764666666666668 2.1764666666666668 2.1764666666666668 0.17646666666666663 2.1764666666666668 0.17646666666666663 0.9184000000000002 -1.0816 0.9184000000000002 -1.0816 -1.0816 0.9184000000000002 0.9184000000000002 0.9184000000000002 -1.0816 -1.0816 0.9184000000000002 -1.0816 0.9184000000000002 0.9184000000000002 0.9184000000000002
-1.3773000000000002 0.6227000000000001 0.6227000000000001 -1.3773000000000002 0.6227000000000001 -1.3773000000000002 -1.3773000000000002 0.6227000000000001 -1.3773000000000002 0.6227000000000001 0.6227000000000001 0.6227000000000001 0.6227000000000001 -1.3773000000000002 0.6227000000000001 -0.04490000000000008 1.9551000000000003 -0.04490000000000008 -0.04490000000000008 1.9551000000000003 -0.04490000000000008 -0.04490000000000008 -0.04490000000000008 -0.04490000000000008 1.9551000000000003 -0.04490000000000008 1.9551000000000003 -0.04490000000000008 1.9551000000000003 1.9551000000000003 1.1046666666666667 -0.8953333333333335 1.1046666666666667 -0.8953333333333335 -0.8953333333333335 -0.8953333333333335 1.1046666666666667 1.1046666666666667 1.1046666666666667 -0.8953333333333335 -0.8953333333333335 1.1046666666666667 1.1046666666666667 -0.8953333333333335 -0.8953333333333335 -0.6889000000000004 1.3110999999999997 1.3110999999999997 1.3110999999999997 -0.6889000000000004 1.3110999999999997 -0.6889000000000004 -0.6889000000000004 1.3110999999999997 1.3110999999999997 1.3110999999999997 -0.6889000000000004 1.3110999999999997 1.3110999999999997 1.3110999999999997 1.3306999999999998 -0.6693 1.3306999999999998 -0.6693 1.3306999999999998 -0.6693 -0.6693 -0.6693 1.3306999999999998 -0.6693 1.3306999999999998 1.3306999999999998 1.3306999999999998 1.3306999999999998 1.3306999999999998 0.4444000000000003 0.4444000000000003 -1.555599999999999 0.4444000000000003 -1.555599999999999 -1.555599999999999 0.4444000000000003 -1.555599999999999 -1.555599999999999 -1.555599999999999 0.4444000000000003 -1.555599999999999 -1.555599999999999 0.4444000000000003 0.4444000000000003 1.0641333333333336 1.0641333333333336 1.0641333333333336 -0.935866666666667 1.0641333333333336 1.0641333333333336 1.0641333333333336 1.0641333333333336 -0.935866666666667 -0.935866666666667 1.0641333333333336 1.0641333333333336 1.0641333333333336 -0.935866666666667 1.0641333333333336 1.188666666666667 -0.811333333333333 -0.811333333333333 1.188666666666667 -0.811333333333333 -0.811333333333333 -0.811333333333333 -0.811333333333333 1.188666666666667 -0.811333333333333 1.188666666666667 1.188666666666667 1.188666666666667 -0.811333333333333 1.188666666666667 0.09900000000000012 -1.901 -1.901 -1.901 -1.901 0.09900000000000012 -1.901 -1.901 0.09900000000000012 -1.901 -1.901 0.09900000000000012 0.09900000000000012 0.09900000000000012 0.09900000000000012 0.8795333333333334 0.8795333333333334 -1.1204666666666665 0.8795333333333334 0.8795333333333334 0.8795333333333334 -1.1204666666666665 -1.1204666666666665 -1.1204666666666665 0.8795333333333334 -1.1204666666666665 0.8795333333333334 -1.1204666666666665 -1.1204666666666665 0.8795333333333334
0.18610000000000007 0.18610000000000007 0.18610000000000007 0.18610000000000007 -1.8138999999999996 0.18610000000000007 -1.8138999999999996 -1.8138999999999996 0.18610000000000007 -1.8138999999999996 0.18610000000000007 -1.8138999999999996 -1.8138999999999996 -1.8138999999999996 -1.8138999999999996 -1.4813666666666663 0.5186333333333335 -1.4813666666666663 0.5186333333333335 -1.4813666666666663 0.5186333333333335 0.5186333333333335 0.5186333333333335 -1.4813666666666663 0.5186333333333335 0.5186333333333335 -1.4813666666666663 -1.4813666666666663 0.5186333333333335 -1.4813666666666663 0.053733333333333466 2.0537333333333336 0.053733333333333466 0.053733333333333466 2.0537333333333336 2.0537333333333336 0.053733333333333466 0.053733333333333466 2.0537333333333336 0.053733333333333466 2.0537333333333336 2.0537333333333336 0.053733333333333466 0.053733333333333466 2.0537333333333336 1.4406999999999999 3.440700000000001 1.4406999999999999 3.440700000000001 1.4406999999999999 1.4406999999999999 3.440700000000001 1.4406999999999999 3.440700000000001 3.440700000000001 1.4406999999999999 3.440700000000001 1.4406999999999999 1.4406999999999999 3.440700000000001 1.1415666666666668 1.1415666666666668 -0.8584333333333335 1.1415666666666668 1.1415666666666668 1.1415666666666668 1.1415666666666668 -0.8584333333333335 -0.8584333333333335 1.1415666666666668 -0.8584333333333335 1.1415666666666668 -0.8584333333333335 1.1415666666666668 -0.8584333333333335 0.25646666666666673 0.25646666666666673 -1.7435333333333332 -1.7435333333333332 0.25646666666666673 -1.7435333333333332 -1.7435333333333332 -1.7435333333333332 -1.7435333333333332 -1.7435333333333332 -1.7435333333333332 0.25646666666666673 0.25646666666666673 -1.7435333333333332 0.25646666666666673 1.1665333333333328 1.1665333333333328 -0.8334666666666668 1.1665333333333328 1.1665333333333328 1.1665333333333328 -0.8334666666666668 -0.8334666666666668 1.1665333333333328 1.1665333333333328 1.1665333333333328 1.1665333333333328 1.1665333333333328 1.1665333333333328 -0.8334666666666668 0.6833333333333333 -1.3166666666666664 0.6833333333333333 0.6833333333333333 -1.3166666666666664 0.6833333333333333 0.6833333333333333 0.6833333333333333 -1.3166666666666664 -1.3166666666666664 -1.3166666666666664 -1.3166666666666664 0.6833333333333333 0.6833333333333333 0.6833333333333333 -1.7417333333333331 -1.7417333333333331 -1.7417333333333331 0.25826666666666676 0.25826666666666676 -1.7417333333333331 -1.7417333333333331 0.25826666666666676 -1.7417333333333331 -1.7417333333333331 -1.7417333333333331 -1.7417333333333331 0.25826666666666676 0.25826666666666676 -1.7417333333333331 0.2946666666666667 0.2946666666666667 0.2946666666666667 -1.7053333333333334 0.2946666666666667 0.2946666666666667 -1.7053333333333334 0.2946666666666667 -1.7053333333333334 -1.7053333333333334 0.2946666666666667 0.2946666666666667 -1.7053333333333334 -1.7053333333333334 -1.7053333333333334
-0.9143666666666665 1.0856333333333335 -0.9143666666666665 -0.9143666666666665 1.0856333333333335 -0.9143666666666665 1.0856333333333335 1.0856333333333335 1.0856333333333335 1.0856333333333335 1.0856333333333335 -0.9143666666666665 1.0856333333333335 -0.9143666666666665 -0.9143666666666665 -0.7157 -0.7157 -0.7157 1.2842999999999998 1.2842999999999998 1.2842999999999998 1.2842999999999998 1.2842999999999998 -0.7157 -0.7157 1.2842999999999998 1.2842999999999998 1.2842999999999998 -0.7157 -0.7157 -2.645133333333334 -0.6451333333333334 -2.645133333333334 -0.6451333333333334 -2.645133333333334 -0.6451333333333334 -2.645133333333334 -2.645133333333334 -0.6451333333333334 -0.6451333333333334 -0.6451333333333334 -2.645133333333334 -0.6451333333333334 -0.6451333333333334 -0.6451333333333334 1.9015 1.9015 1.9015 -0.09850000000000009 -0.09850000000000009 1.9015 -0.09850000000000009 -0.09850000000000009 1.9015 1.9015 1.9015 1.9015 -0.09850000000000009 -0.09850000000000009 -0.09850000000000009 0.2201 -1.7798999999999998 0.2201 -1.7798999999999998 -1.7798999999999998 0.2201 0.2201 0.2201 0.2201 0.2201 0.2201 -1.7798999999999998 -1.7798999999999998 0.2201 -1.7798999999999998 -0.006333333333333392 -0.006333333333333392 1.9936666666666667 -0.006333333333333392 -0.006333333333333392 1.9936666666666667 1.9936666666666667 1.9936666666666667 1.9936666666666667 -0.006333333333333392 -0.006333333333333392 -0.006333333333333392 1.9936666666666667 -0.006333333333333392 -0.006333333333333392 -3.1931999999999996 -3.1931999999999996 -3.1931999999999996 -3.1931999999999996 -1.1931999999999998 -1.1931999999999998 -3.1931999999999996 -1.1931999999999998 -3.1931999999999996 -1.1931999999999998 -3.1931999999999996 -1.1931999999999998 -1.1931999999999998 -3.1931999999999996 -3.1931999999999996 1.6900000000000002 -0.3099999999999999 -0.3099999999999999 -0.3099999999999999 1.6900000000000002 1.6900000000000002 1.6900000000000002 -0.3099999999999999 -0.3099999999999999 -0.3099999999999999 -0.3099999999999999 1.6900000000000002 -0.3099999999999999 -0.3099999999999999 1.6900000000000002 0.6506 0.6506 2.6506000000000007 0.6506 0.6506 0.6506 0.6506 0.6506 2.6506000000000007 2.6506000000000007 0.6506 0.6506 0.6506 2.6506000000000007 2.6506000000000007 1.012533333333333 1.012533333333333 -0.9874666666666667 1.012533333333333 -0.9874666666666667 1.012533333333333 -0.9874666666666667 -0.9874666666666667 -0.9874666666666667 1.012533333333333 -0.9874666666666667 1.012533333333333 1.012533333333333 1.012533333333333 1.012533333333333
1.1669666666666665 -0.8330333333333333 1.1669666666666665 -0.8330333333333333 1.1669666666666665 1.1669666666666665 -0.8330333333333333 1.1669666666666665 1.1669666666666665 1.1669666666666665 1.1669666666666665 1.1669666666666665 -0.8330333333333333 1.1669666666666665 -0.8330333333333333 -1.3612999999999997 -1.3612999999999997 0.6386999999999999 -1.3612999999999997 -1.3612999999999997 0.6386999999999999 0.6386999999999999 -1.3612999999999997 -1.3612999999999997 0.6386999999999999 0.6386999999999999 0.6386999999999999 0.6386999999999999 -1.3612999999999997 -1.3612999999999997 -0.07546666666666682 -0.07546666666666682 1.9245333333333337 -0.07546666666666682 1.9245333333333337 -0.07546666666666682 -0.07546666666666682 -0.07546666666666682 1.9245333333333337 -0.07546666666666682 -0.07546666666666682 -0.07546666666666682 1.9245333333333337 -0.07546666666666682 1.9245333333333337 -0.10870000000000003 -0.10870000000000003 -0.10870000000000003 1.8912999999999995 -0.10870000000000003 -0.10870000000000003 1.8912999999999995 1.8912999999999995 -0.10870000000000003 1.8912999999999995 -0.10870000000000003 -0.10870000000000003 -0.10870000000000003 1.8912999999999995 -0.10870000000000003 -2.5566999999999998 -4.5567 -4.5567 -4.5567 -4.5567 -2.5566999999999998 -2.5566999999999998 -2.5566999999999998 -4.5567 -2.5566999999999998 -2.5566999999999998 -2.5566999999999998 -4.5567 -4.5567 -4.5567 0.6457999999999998 -1.3541999999999998 0.6457999999999998 0.6457999999999998 0.6457999999999998 0.6457999999999998 -1.3541999999999998 -1.3541999999999998 -1.3541999999999998 0.6457999999999998 -1.3541999999999998 0.6457999999999998 0.6457999999999998 -1.3541999999999998 0.6457999999999998 1.1603333333333334 -0.8396666666666666 1.1603333333333334 -0.8396666666666666 1.1603333333333334 -0.8396666666666666 -0.8396666666666666 -0.8396666666666666 1.1603333333333334 -0.8396666666666666 1.1603333333333334 -0.8396666666666666 -0.8396666666666666 -0.8396666666666666 -0.8396666666666666 -2.025333333333333 -0.025333333333333322 -0.025333333333333322 -2.025333333333333 -2.025333333333333 -2.025333333333333 -2.025333333333333 -0.025333333333333322 -0.025333333333333322 -2.025333333333333 -2.025333333333333 -0.025333333333333322 -2.025333333333333 -0.025333333333333322 -0.025333333333333322 1.9947333333333335 -0.005266666666666637 1.9947333333333335 1.9947333333333335 -0.005266666666666637 -0.005266666666666637 -0.005266666666666637 1.9947333333333335 1.9947333333333335 -0.005266666666666637 -0.005266666666666637 1.9947333333333335 -0.005266666666666637 -0.005266666666666637 -0.005266666666666637 1.1596666666666666 3.1596666666666664 3.1596666666666664 1.1596666666666666 1.1596666666666666 1.1596666666666666 1.1596666666666666 1.1596666666666666 3.1596666666666664 1.1596666666666666 1.1596666666666666 1.1596666666666666 1.1596666666666666 1.1596666666666666 1.1596666666666666
-1.3578999999999999 -1.3578999999999999 0.6421 0.6421 -1.3578999999999999 0.6421 0.6421 0.6421 -1.3578999999999999 -1.3578999999999999 -1.3578999999999999 -1.3578999999999999 -1.3578999999999999 -1.3578999999999999 -1.3578999999999999 2.985166666666667 0.9851666666666667 0.9851666666666667 2.985166666666667 2.985166666666667 2.985166666666667 2.985166666666667 0.9851666666666667 2.985166666666667 0.9851666666666667 0.9851666666666667 2.985166666666667 0.9851666666666667 0.9851666666666667 0.9851666666666667 0.024800000000000013 -1.9752000000000003 0.024800000000000013 0.024800000000000013 -1.9752000000000003 0.024800000000000013 -1.9752000000000003 0.024800000000000013 -1.9752000000000003 0.024800000000000013 -1.9752000000000003 0.024800000000000013 -1.9752000000000003 -1.9752000000000003 0.024800000000000013 0.33396666666666674 0.33396666666666674 2.3339666666666665 2.3339666666666665 2.3339666666666665 0.33396666666666674 0.33396666666666674 2.3339666666666665 0.33396666666666674 2.3339666666666665 0.33396666666666674 2.3339666666666665 0.33396666666666674 0.33396666666666674 2.3339666666666665 -2.0079 -2.0079 -2.0079 -0.007900000000000108 -2.0079 -0.007900000000000108 -2.0079 -2.0079 -2.0079 -0.007900000000000108 -2.0079 -0.007900000000000108 -0.007900000000000108 -2.0079 -2.0079 -0.7594000000000002 -0.7594000000000002 -0.7594000000000002 1.2405999999999997 -0.7594000000000002 -0.7594000000000002 -0.7594000000000002 -0.7594000000000002 -0.7594000000000002 -0.7594000000000002 1.2405999999999997 1.2405999999999997 -0.7594000000000002 -0.7594000000000002 1.2405999999999997 0.615733333333333 -1.3842666666666668 0.615733333333333 0.615733333333333 -1.3842666666666668 -1.3842666666666668 -1.3842666666666668 -1.3842666666666668 -1.3842666666666668 0.615733333333333 -1.3842666666666668 -1.3842666666666668 -1.3842666666666668 -1.3842666666666668 -1.3842666666666668 1.7283999999999997 -0.27160000000000006 -0.27160000000000006 -0.27160000000000006 1.7283999999999997 -0.27160000000000006 1.7283999999999997 -0.27160000000000006 -0.27160000000000006 1.7283999999999997 -0.27160000000000006 1.7283999999999997 1.7283999999999997 -0.27160000000000006 -0.27160000000000006 0.2401333333333333 0.2401333333333333 0.2401333333333333 0.2401333333333333 -1.759866666666667 -1.759866666666667 0.2401333333333333 0.2401333333333333 -1.759866666666667 0.2401333333333333 0.2401333333333333 -1.759866666666667 0.2401333333333333 0.2401333333333333 -1.759866666666667 -1.803 -1.803 0.19700000000000006 0.19700000000000006 -1.803 0.19700000000000006 -1.803 -1.803 0.19700000000000006 0.19700000000000006 0.19700000000000006 -1.803 -1.803 -1.803 -1.803
0.7092999999999998 0.7092999999999998 0.7092999999999998 -1.2906999999999997 -1.2906999999999997 -1.2906999999999997 0.7092999999999998 -1.2906999999999997 0.7092999999999998 0.7092999999999998 -1.2906999999999997 0.7092999999999998 0.7092999999999998 -1.2906999999999997 0.7092999999999998 1.371166666666667 -0.6288333333333334 1.371166666666667 -0.6288333333333334 1.371166666666667 -0.6288333333333334 1.371166666666667 1.371166666666667 1.371166666666667 -0.6288333333333334 -0.6288333333333334 1.371166666666667 1.371166666666667 1.371166666666667 -0.6288333333333334 -0.4121999999999999 -0.4121999999999999 -0.4121999999999999 1.5878 -0.4121999999999999 1.5878 1.5878 -0.4121999999999999 1.5878 1.5878 -0.4121999999999999 -0.4121999999999999 -0.4121999999999999 1.5878 -0.4121999999999999 2.9745 2.9745 0.9744999999999996 2.9745 0.9744999999999996 2.9745 2.9745 2.9745 0.9744999999999996 2.9745 0.9744999999999996 0.9744999999999996 2.9745 0.9744999999999996 0.9744999999999996 -1.1214333333333333 0.8785666666666667 -1.1214333333333333 -1.1214333333333333 -1.1214333333333333 -1.1214333333333333 0.8785666666666667 -1.1214333333333333 -1.1214333333333333 0.8785666666666667 -1.1214333333333333 0.8785666666666667 -1.1214333333333333 0.8785666666666667 0.8785666666666667 0.7728666666666666 0.7728666666666666 -1.2271333333333336 -1.2271333333333336 -1.2271333333333336 -1.2271333333333336 -1.2271333333333336 0.7728666666666666 0.7728666666666666 -1.2271333333333336 0.7728666666666666 -1.2271333333333336 0.7728666666666666 -1.2271333333333336 -1.2271333333333336 -1.4438666666666666 -1.4438666666666666 -1.4438666666666666 -1.4438666666666666 -1.4438666666666666 0.5561333333333335 0.5561333333333335 0.5561333333333335 -1.4438666666666666 0.5561333333333335 0.5561333333333335 -1.4438666666666666 0.5561333333333335 0.5561333333333335 0.5561333333333335 -1.384666666666667 0.6153333333333333 -1.384666666666667 -1.384666666666667 0.6153333333333333 -1.384666666666667 -1.384666666666667 0.6153333333333333 -1.384666666666667 0.6153333333333333 -1.384666666666667 0.6153333333333333 0.6153333333333333 0.6153333333333333 0.6153333333333333 -1.6623333333333337 -1.6623333333333337 0.3376666666666666 0.3376666666666666 0.3376666666666666 0.3376666666666666 -1.6623333333333337 -1.6623333333333337 -1.6623333333333337 0.3376666666666666 -1.6623333333333337 -1.6623333333333337 0.3376666666666666 0.3376666666666666 -1.6623333333333337 -1.8033333333333335 -1.8033333333333335 -1.8033333333333335 0.19666666666666666 0.19666666666666666 0.19666666666666666 0.19666666666666666 0.19666666666666666 -1.8033333333333335 -1.8033333333333335 0.19666666666666666 0.19666666666666666 0.19666666666666666 -1.8033333333333335 0.19666666666666666
-1.7224333333333335 -1.7224333333333335 -1.7224333333333335 -1.7224333333333335 0.2775666666666666 0.2775666666666666 0.2775666666666666 0.2775666666666666 -1.7224333333333335 -1.7224333333333335 -1.7224333333333335 -1.7224333333333335 0.2775666666666666 0.2775666666666666 0.2775666666666666 0.023100000000000134 0.023100000000000134 2.0231 0.023100000000000134 2.0231 2.0231 2.0231 2.0231 0.023100000000000134 2.0231 0.023100000000000134 0.023100000000000134 0.023100000000000134 0.023100000000000134 0.023100000000000134 -0.9467333333333334 -0.9467333333333334 -0.9467333333333334 1.0532666666666661 -0.9467333333333334 1.0532666666666661 -0.9467333333333334 -0.9467333333333334 -0.9467333333333334 1.0532666666666661 1.0532666666666661 -0.9467333333333334 -0.9467333333333334 -0.9467333333333334 -0.9467333333333334 -0.6149000000000004 1.3851 1.3851 -0.6149000000000004 -0.6149000000000004 1.3851 1.3851 -0.6149000000000004 1.3851 1.3851 1.3851 -0.6149000000000004 -0.6149000000000004 1.3851 -0.6149000000000004 -0.6148333333333331 -0.6148333333333331 1.3851666666666664 1.3851666666666664 1.3851666666666664 1.3851666666666664 -0.6148333333333331 1.3851666666666664 -0.6148333333333331 1.3851666666666664 1.3851666666666664 -0.6148333333333331 1.3851666666666664 -0.6148333333333331 1.3851666666666664 -1.5102 0.4897999999999999 0.4897999999999999 0.4897999999999999 0.4897999999999999 0.4897999999999999 0.4897999999999999 0.4897999999999999 -1.5102 0.4897999999999999 0.4897999999999999 -1.5102 0.4897999999999999 0.4897999999999999 -1.5102 1.1531999999999996 1.1531999999999996 1.1531999999999996 -0.8468000000000002 1.1531999999999996 1.1531999999999996 -0.8468000000000002 1.1531999999999996 -0.8468000000000002 1.1531999999999996 1.1531999999999996 1.1531999999999996 1.1531999999999996 -0.8468000000000002 -0.8468000000000002 1.2802 -0.7197999999999999 -0.7197999999999999 1.2802 -0.7197999999999999 -0.7197999999999999 1.2802 -0.7197999999999999 1.2802 1.2802 1.2802 1.2802 -0.7197999999999999 -0.7197999999999999 1.2802 0.03719999999999999 -1.9628000000000003 0.03719999999999999 -1.9628000000000003 -1.9628000000000003 0.03719999999999999 0.03719999999999999 0.03719999999999999 -1.9628000000000003 0.03719999999999999 0.03719999999999999 0.03719999999999999 0.03719999999999999 0.03719999999999999 0.03719999999999999 0.9154 0.9154 0.9154 0.9154 0.9154 -1.0846000000000002 0.9154 -1.0846000000000002 0.9154 -1.0846000000000002 0.9154 -1.0846000000000002 0.9154 0.9154 -1.0846000000000002
2.4879666666666664 0.48796666666666677 2.4879666666666664 0.48796666666666677 0.48796666666666677 0.48796666666666677 2.4879666666666664 0.48796666666666677 2.4879666666666664 0.48796666666666677 0.48796666666666677 2.4879666666666664 0.48796666666666677 2.4879666666666664 2.4879666666666664 -1.9015666666666666 -1.9015666666666666 -1.9015666666666666 -1.9015666666666666 0.09843333333333329 0.09843333333333329 -1.9015666666666666 -1.9015666666666666 -1.9015666666666666 0.09843333333333329 0.09843333333333329 0.09843333333333329 -1.9015666666666666 0.09843333333333329 0.09843333333333329 -0.914 -2.9139999999999997 -2.9139999999999997 -0.914 -0.914 -0.914 -2.9139999999999997 -2.9139999999999997 -2.9139999999999997 -0.914 -2.9139999999999997 -0.914 -2.9139999999999997 -0.914 -2.9139999999999997 -1.4797666666666667 -1.4797666666666667 0.5202333333333335 -1.4797666666666667 0.5202333333333335 0.5202333333333335 -1.4797666666666667 -1.4797666666666667 -1.4797666666666667 -1.4797666666666667 0.5202333333333335 0.5202333333333335 0.5202333333333335 0.5202333333333335 0.5202333333333335 3.524766666666667 1.5247666666666664 1.5247666666666664 1.5247666666666664 3.524766666666667 1.5247666666666664 1.5247666666666664 1.5247666666666664 3.524766666666667 1.5247666666666664 3.524766666666667 1.5247666666666664 1.5247666666666664 1.5247666666666664 1.5247666666666664 0.7035999999999999 0.7035999999999999 -1.2964000000000002 0.7035999999999999 0.7035999999999999 0.7035999999999999 0.7035999999999999 -1.2964000000000002 -1.2964000000000002 0.7035999999999999 0.7035999999999999 0.7035999999999999 0.7035999999999999 -1.2964000000000002 0.7035999999999999 2.0054 2.0054 2.0054 2.0054 0.005399999999999874 2.0054 2.0054 0.005399999999999874 0.005399999999999874 0.005399999999999874 0.005399999999999874 2.0054 2.0054 2.0054 2.0054 -0.30666666666666664 -2.3066666666666666 -0.30666666666666664 -0.30666666666666664 -2.3066666666666666 -2.3066666666666666 -0.30666666666666664 -0.30666666666666664 -2.3066666666666666 -0.30666666666666664 -2.3066666666666666 -2.3066666666666666 -0.30666666666666664 -0.30666666666666664 -2.3066666666666666 -0.17113333333333325 -0.17113333333333325 -0.17113333333333325 -2.171133333333333 -2.171133333333333 -2.171133333333333 -0.17113333333333325 -0.17113333333333325 -0.17113333333333325 -2.171133333333333 -0.17113333333333325 -2.171133333333333 -0.17113333333333325 -2.171133333333333 -0.17113333333333325 0.05139999999999994 2.0513999999999992 0.05139999999999994 0.05139999999999994 2.0513999999999992 0.05139999999999994 2.0513999999999992 0.05139999999999994 2.0513999999999992 2.0513999999999992 0.05139999999999994 2.0513999999999992 2.0513999999999992 2.0513999999999992 2.0513999999999992
1.939033333333333 -0.060966666666666704 -0.060966666666666704 -0.060966666666666704 1.939033333333333 -0.060966666666666704 1.939033333333333 1.939033333333333 1.939033333333333 -0.060966666666666704 -0.060966666666666704 -0.060966666666666704 -0.060966666666666704 -0.060966666666666704 1.939033333333333 0.36996666666666644 0.36996666666666644 -1.6300333333333334 -1.6300333333333334 0.36996666666666644 -1.6300333333333334 0.36996666666666644 0.36996666666666644 -1.6300333333333334 -1.6300333333333334 -1.6300333333333334 0.36996666666666644 0.36996666666666644 -1.6300333333333334 -1.6300333333333334 0.11433333333333326 -1.8856666666666666 0.11433333333333326 -1.8856666666666666 -1.8856666666666666 0.11433333333333326 0.11433333333333326 0.11433333333333326 -1.8856666666666666 0.11433333333333326 0.11433333333333326 0.11433333333333326 0.11433333333333326 -1.8856666666666666 -1.8856666666666666 -0.10816666666666676 1.8918333333333333 1.8918333333333333 -0.10816666666666676 1.8918333333333333 1.8918333333333333 -0.10816666666666676 -0.10816666666666676 -0.10816666666666676 1.8918333333333333 -0.10816666666666676 -0.10816666666666676 -0.10816666666666676 -0.10816666666666676 -0.10816666666666676 -0.1147 1.8852999999999998 -0.1147 -0.1147 1.8852999999999998 -0.1147 1.8852999999999998 1.8852999999999998 1.8852999999999998 -0.1147 -0.1147 1.8852999999999998 -0.1147 -0.1147 -0.1147 -2.358066666666667 -0.3580666666666668 -2.358066666666667 -0.3580666666666668 -0.3580666666666668 -2.358066666666667 -2.358066666666667 -0.3580666666666668 -0.3580666666666668 -0.3580666666666668 -0.3580666666666668 -0.3580666666666668 -0.3580666666666668 -0.3580666666666668 -2.358066666666667 1.328 1.328 1.328 3.3280000000000007 1.328 3.3280000000000007 3.3280000000000007 3.3280000000000007 1.328 1.328 3.3280000000000007 1.328 1.328 3.3280000000000007 1.328 -0.9936000000000003 1.0064 1.0064 -0.9936000000000003 1.0064 -0.9936000000000003 -0.9936000000000003 -0.9936000000000003 1.0064 1.0064 -0.9936000000000003 1.0064 1.0064 -0.9936000000000003 1.0064 -0.25100000000000006 -2.2510000000000003 -0.25100000000000006 -0.25100000000000006 -2.2510000000000003 -2.2510000000000003 -0.25100000000000006 -2.2510000000000003 -0.25100000000000006 -0.25100000000000006 -2.2510000000000003 -0.25100000000000006 -0.25100000000000006 -2.2510000000000003 -2.2510000000000003 -1.9258000000000002 0.07420000000000002 -1.9258000000000002 -1.9258000000000002 -1.9258000000000002 -1.9258000000000002 0.07420000000000002 -1.9258000000000002 -1.9258000000000002 0.07420000000000002 0.07420000000000002 0.07420000000000002 -1.9258000000000002 0.07420000000000002 -1.9258000000000002
0.00289999999999996 0.00289999999999996 2.0029 0.00289999999999996 0.00289999999999996 2.0029 2.0029 2.0029 0.00289999999999996 2.0029 0.00289999999999996 0.00289999999999996 2.0029 0.00289999999999996 2.0029 -0.7991666666666669 -2.7991666666666664 -2.7991666666666664 -0.7991666666666669 -0.7991666666666669 -0.7991666666666669 -0.7991666666666669 -2.7991666666666664 -2.7991666666666664 -0.7991666666666669 -2.7991666666666664 -0.7991666666666669 -0.7991666666666669 -2.7991666666666664 -0.7991666666666669 -2.6348 -2.6348 -2.6348 -2.6348 -0.6347999999999998 -0.6347999999999998 -2.6348 -2.6348 -2.6348 -0.6347999999999998 -0.6347999999999998 -2.6348 -2.6348 -2.6348 -0.6347999999999998 -1.0433666666666666 -3.0433666666666666 -3.0433666666666666 -1.0433666666666666 -1.0433666666666666 -1.0433666666666666 -3.0433666666666666 -3.0433666666666666 -1.0433666666666666 -3.0433666666666666 -3.0433666666666666 -3.0433666666666666 -3.0433666666666666 -3.0433666666666666 -1.0433666666666666 -0.48196666666666677 -0.48196666666666677 -0.48196666666666677 -0.48196666666666677 -0.48196666666666677 1.5180333333333331 1.5180333333333331 -0.48196666666666677 1.5180333333333331 -0.48196666666666677 -0.48196666666666677 1.5180333333333331 1.5180333333333331 -0.48196666666666677 1.5180333333333331 1.949 1.949 -0.05100000000000004 -0.05100000000000004 -0.05100000000000004 -0.05100000000000004 1.949 1.949 -0.05100000000000004 -0.05100000000000004 1.949 -0.05100000000000004 -0.05100000000000004 1.949 -0.05100000000000004 1.5175999999999996 1.5175999999999996 1.5175999999999996 1.5175999999999996 -0.48239999999999994 1.5175999999999996 -0.48239999999999994 1.5175999999999996 -0.48239999999999994 -0.48239999999999994 1.5175999999999996 1.5175999999999996 1.5175999999999996 -0.48239999999999994 -0.48239999999999994 1.9494666666666671 -0.05053333333333323 -0.05053333333333323 1.9494666666666671 1.9494666666666671 -0.05053333333333323 1.9494666666666671 -0.05053333333333323 -0.05053333333333323 1.9494666666666671 1.9494666666666671 -0.05053333333333323 -0.05053333333333323 -0.05053333333333323 -0.05053333333333323 2.031133333333333 2.031133333333333 0.031133333333333322 2.031133333333333 0.031133333333333322 2.031133333333333 2.031133333333333 0.031133333333333322 0.031133333333333322 0.031133333333333322 2.031133333333333 0.031133333333333322 2.031133333333333 0.031133333333333322 0.031133333333333322 1.5091999999999997 1.5091999999999997 -0.49079999999999996 1.5091999999999997 -0.49079999999999996 1.5091999999999997 1.5091999999999997 1.5091999999999997 1.5091999999999997 1.5091999999999997 1.5091999999999997 1.5091999999999997 1.5091999999999997 -0.49079999999999996 1.5091999999999997
-0.4036333333333333 -0.4036333333333333 -0.4036333333333333 -0.4036333333333333 -0.4036333333333333 -2.4036333333333335 -2.4036333333333335 -0.4036333333333333 -2.4036333333333335 -0.4036333333333333 -0.4036333333333333 -2.4036333333333335 -0.4036333333333333 -2.4036333333333335 -2.4036333333333335 -1.354566666666667 0.6454333333333334 -1.354566666666667 0.6454333333333334 0.6454333333333334 0.6454333333333334 0.6454333333333334 -1.354566666666667 -1.354566666666667 -1.354566666666667 0.6454333333333334 -1.354566666666667 -1.354566666666667 0.6454333333333334 -1.354566666666667 -2.3395333333333337 -0.3395333333333332 -2.3395333333333337 -2.3395333333333337 -2.3395333333333337 -0.3395333333333332 -2.3395333333333337 -2.3395333333333337 -0.3395333333333332 -0.3395333333333332 -0.3395333333333332 -2.3395333333333337 -2.3395333333333337 -2.3395333333333337 -2.3395333333333337 0.05136666666666656 2.0513666666666666 0.05136666666666656 0.05136666666666656 0.05136666666666656 2.0513666666666666 2.0513666666666666 0.05136666666666656 0.05136666666666656 0.05136666666666656 2.0513666666666666 2.0513666666666666 0.05136666666666656 0.05136666666666656 2.0513666666666666 -1.4098999999999997 -1.4098999999999997 0.5901000000000002 0.5901000000000002 -1.4098999999999997 -1.4098999999999997 0.5901000000000002 -1.4098999999999997 -1.4098999999999997 -1.4098999999999997 0.5901000000000002 0.5901000000000002 -1.4098999999999997 -1.4098999999999997 0.5901000000000002 -0.14459999999999987 -0.14459999999999987 -0.14459999999999987 -0.14459999999999987 -0.14459999999999987 -0.14459999999999987 1.8553999999999997 -0.14459999999999987 -0.14459999999999987 1.8553999999999997 -0.14459999999999987 -0.14459999999999987 1.8553999999999997 -0.14459999999999987 1.8553999999999997 -0.03966666666666713 -0.03966666666666713 -2.039666666666667 -0.03966666666666713 -2.039666666666667 -2.039666666666667 -0.03966666666666713 -0.03966666666666713 -2.039666666666667 -2.039666666666667 -2.039666666666667 -2.039666666666667 -0.03966666666666713 -2.039666666666667 -0.03966666666666713 0.043599999999999986 0.043599999999999986 0.043599999999999986 0.043599999999999986 2.0436 2.0436 0.043599999999999986 0.043599999999999986 2.0436 2.0436 2.0436 0.043599999999999986 2.0436 0.043599999999999986 2.0436 1.4355999999999998 1.4355999999999998 1.4355999999999998 -0.5644 1.4355999999999998 -0.5644 -0.5644 1.4355999999999998 1.4355999999999998 1.4355999999999998 -0.5644 -0.5644 1.4355999999999998 -0.5644 1.4355999999999998 0.1613333333333334 0.1613333333333334 2.1613333333333333 0.1613333333333334 0.1613333333333334 2.1613333333333333 0.1613333333333334 0.1613333333333334 2.1613333333333333 0.1613333333333334 0.1613333333333334 2.1613333333333333 0.1613333333333334 2.1613333333333333 0.1613333333333334
-3.0067666666666675 -3.0067666666666675 -3.0067666666666675 -3.0067666666666675 -3.0067666666666675 -3.0067666666666675 -3.0067666666666675 -3.0067666666666675 -1.0067666666666666 -1.0067666666666666 -1.0067666666666666 -1.0067666666666666 -1.0067666666666666 -1.0067666666666666 -3.0067666666666675 -2.9814333333333325 -2.9814333333333325 -0.9814333333333334 -2.9814333333333325 -0.9814333333333334 -0.9814333333333334 -0.9814333333333334 -2.9814333333333325 -2.9814333333333325 -2.9814333333333325 -0.9814333333333334 -0.9814333333333334 -0.9814333333333334 -2.9814333333333325 -0.9814333333333334 -0.645133333333333 1.3548666666666669 1.3548666666666669 -0.645133333333333 -0.645133333333333 1.3548666666666669 -0.645133333333333 -0.645133333333333 1.3548666666666669 1.3548666666666669 -0.645133333333333 1.3548666666666669 -0.645133333333333 -0.645133333333333 -0.645133333333333 2.7895666666666665 0.7895666666666666 0.7895666666666666 0.7895666666666666 0.7895666666666666 0.7895666666666666 0.7895666666666666 0.7895666666666666 2.7895666666666665 0.7895666666666666 2.7895666666666665 2.7895666666666665 2.7895666666666665 2.7895666666666665 0.7895666666666666 1.7682333333333335 -0.23176666666666648 1.7682333333333335 1.7682333333333335 1.7682333333333335 -0.23176666666666648 1.7682333333333335 -0.23176666666666648 1.7682333333333335 1.7682333333333335 1.7682333333333335 1.7682333333333335 1.7682333333333335 -0.23176666666666648 1.7682333333333335 -0.9984666666666667 -2.9984666666666664 -0.9984666666666667 -2.9984666666666664 -0.9984666666666667 -2.9984666666666664 -2.9984666666666664 -2.9984666666666664 -0.9984666666666667 -0.9984666666666667 -0.9984666666666667 -0.9984666666666667 -0.9984666666666667 -2.9984666666666664 -2.9984666666666664 -1.7143333333333333 0.2856666666666667 0.2856666666666667 -1.7143333333333333 -1.7143333333333333 -1.7143333333333333 0.2856666666666667 -1.7143333333333333 0.2856666666666667 -1.7143333333333333 -1.7143333333333333 -1.7143333333333333 -1.7143333333333333 0.2856666666666667 -1.7143333333333333 0.25900000000000023 0.25900000000000023 2.259 2.259 0.25900000000000023 2.259 0.25900000000000023 2.259 0.25900000000000023 0.25900000000000023 2.259 0.25900000000000023 0.25900000000000023 0.25900000000000023 2.259 1.3306666666666664 -0.6693333333333332 -0.6693333333333332 1.3306666666666664 -0.6693333333333332 1.3306666666666664 -0.6693333333333332 -0.6693333333333332 1.3306666666666664 1.3306666666666664 1.3306666666666664 1.3306666666666664 -0.6693333333333332 1.3306666666666664 1.3306666666666664 1.1986666666666663 1.1986666666666663 3.198666666666666 3.198666666666666 1.1986666666666663 3.198666666666666 3.198666666666666 3.198666666666666 1.1986666666666663 1.1986666666666663 3.198666666666666 3.198666666666666 3.198666666666666 3.198666666666666 1.1986666666666663
-0.4515666666666666 1.548433333333333 1.548433333333333 1.548433333333333 -0.4515666666666666 -0.4515666666666666 1.548433333333333 1.548433333333333 1.548433333333333 -0.4515666666666666 1.548433333333333 -0.4515666666666666 1.548433333333333 1.548433333333333 -0.4515666666666666 -2.1092333333333326 -0.10923333333333346 -2.1092333333333326 -0.10923333333333346 -0.10923333333333346 -0.10923333333333346 -0.10923333333333346 -0.10923333333333346 -2.1092333333333326 -0.10923333333333346 -0.10923333333333346 -2.1092333333333326 -2.1092333333333326 -0.10923333333333346 -0.10923333333333346 -1.5531333333333337 0.4468666666666669 0.4468666666666669 0.4468666666666669 -1.5531333333333337 0.4468666666666669 -1.5531333333333337 0.4468666666666669 -1.5531333333333337 0.4468666666666669 0.4468666666666669 0.4468666666666669 0.4468666666666669 0.4468666666666669 0.4468666666666669 1.3371666666666668 1.3371666666666668 1.3371666666666668 1.3371666666666668 1.3371666666666668 -0.662833333333333 1.3371666666666668 1.3371666666666668 -0.662833333333333 -0.662833333333333 -0.662833333333333 -0.662833333333333 -0.662833333333333 1.3371666666666668 -0.662833333333333 -0.2725666666666667 -0.2725666666666667 -0.2725666666666667 -0.2725666666666667 -0.2725666666666667 1.7274333333333334 -0.2725666666666667 -0.2725666666666667 1.7274333333333334 -0.2725666666666667 1.7274333333333334 1.7274333333333334 1.7274333333333334 1.7274333333333334 1.7274333333333334 -2.207266666666667 -2.207266666666667 -2.207266666666667 -0.2072666666666666 -0.2072666666666666 -2.207266666666667 -2.207266666666667 -2.207266666666667 -2.207266666666667 -2.207266666666667 -2.207266666666667 -2.207266666666667 -2.207266666666667 -0.2072666666666666 -2.207266666666667 -2.7591333333333328 -2.7591333333333328 -0.7591333333333334 -0.7591333333333334 -0.7591333333333334 -2.7591333333333328 -0.7591333333333334 -2.7591333333333328 -2.7591333333333328 -2.7591333333333328 -0.7591333333333334 -2.7591333333333328 -0.7591333333333334 -0.7591333333333334 -2.7591333333333328 1.9797999999999996 -0.02020000000000005 1.9797999999999996 1.9797999999999996 1.9797999999999996 1.9797999999999996 -0.02020000000000005 -0.02020000000000005 -0.02020000000000005 1.9797999999999996 -0.02020000000000005 1.9797999999999996 1.9797999999999996 -0.02020000000000005 -0.02020000000000005 0.00873333333333337 2.0087333333333333 2.0087333333333333 0.00873333333333337 0.00873333333333337 2.0087333333333333 2.0087333333333333 0.00873333333333337 2.0087333333333333 2.0087333333333333 0.00873333333333337 0.00873333333333337 2.0087333333333333 0.00873333333333337 0.00873333333333337 0.027200000000000023 0.027200000000000023 0.027200000000000023 2.0272 0.027200000000000023 2.0272 2.0272 0.027200000000000023 2.0272 0.027200000000000023 2.0272 0.027200000000000023 0.027200000000000023 0.027200000000000023 0.027200000000000023
1.3318333333333334 1.3318333333333334 -0.6681666666666668 -0.6681666666666668 -0.6681666666666668 -0.6681666666666668 -0.6681666666666668 -0.6681666666666668 1.3318333333333334 1.3318333333333334 1.3318333333333334 -0.6681666666666668 -0.6681666666666668 -0.6681666666666668 1.3318333333333334 -1.7147000000000001 -1.7147000000000001 -1.7147000000000001 -1.7147000000000001 -1.7147000000000001 -1.7147000000000001 -1.7147000000000001 -1.7147000000000001 0.28530000000000005 0.28530000000000005 -1.7147000000000001 -1.7147000000000001 -1.7147000000000001 -1.7147000000000001 0.28530000000000005 -1.9403333333333332 -1.9403333333333332 0.05966666666666668 -1.9403333333333332 -1.9403333333333332 0.05966666666666668 0.05966666666666668 0.05966666666666668 -1.9403333333333332 -1.9403333333333332 0.05966666666666668 -1.9403333333333332 -1.9403333333333332 0.05966666666666668 0.05966666666666668 -2.271833333333333 -0.27183333333333337 -2.271833333333333 -0.27183333333333337 -2.271833333333333 -2.271833333333333 -0.27183333333333337 -2.271833333333333 -2.271833333333333 -0.27183333333333337 -2.271833333333333 -2.271833333333333 -0.27183333333333337 -2.271833333333333 -0.27183333333333337 -1.6519666666666668 0.3480333333333334 -1.6519666666666668 -1.6519666666666668 -1.6519666666666668 0.3480333333333334 0.3480333333333334 -1.6519666666666668 -1.6519666666666668 0.3480333333333334 -1.6519666666666668 0.3480333333333334 -1.6519666666666668 -1.6519666666666668 -1.6519666666666668 -0.4223333333333332 -0.4223333333333332 1.5776666666666668 -0.4223333333333332 -0.4223333333333332 1.5776666666666668 -0.4223333333333332 1.5776666666666668 -0.4223333333333332 1.5776666666666668 1.5776666666666668 -0.4223333333333332 -0.4223333333333332 -0.4223333333333332 1.5776666666666668 -1.4159333333333333 0.5840666666666668 0.5840666666666668 -1.4159333333333333 -1.4159333333333333 0.5840666666666668 0.5840666666666668 -1.4159333333333333 0.5840666666666668 0.5840666666666668 0.5840666666666668 -1.4159333333333333 0.5840666666666668 0.5840666666666668 -1.4159333333333333 2.0215333333333336 2.0215333333333336 2.0215333333333336 2.0215333333333336 2.0215333333333336 0.021533333333333363 2.0215333333333336 0.021533333333333363 0.021533333333333363 2.0215333333333336 0.021533333333333363 2.0215333333333336 0.021533333333333363 0.021533333333333363 0.021533333333333363 -0.3533333333333332 -0.3533333333333332 1.6466666666666665 -0.3533333333333332 1.6466666666666665 1.6466666666666665 1.6466666666666665 1.6466666666666665 1.6466666666666665 -0.3533333333333332 1.6466666666666665 -0.3533333333333332 1.6466666666666665 -0.3533333333333332 -0.3533333333333332 0.41706666666666664 2.417066666666667 0.41706666666666664 0.41706666666666664 0.41706666666666664 2.417066666666667 0.41706666666666664 2.417066666666667 2.417066666666667 0.41706666666666664 2.417066666666667 0.41706666666666664 0.41706666666666664 2.417066666666667 0.41706666666666664
1.6753 -0.3247 1.6753 1.6753 -0.3247 1.6753 1.6753 -0.3247 1.6753 1.6753 1.6753 -0.3247 -0.3247 1.6753 -0.3247 1.9952999999999999 1.9952999999999999 1.9952999999999999 -0.004700000000000014 1.9952999999999999 -0.004700000000000014 1.9952999999999999 1.9952999999999999 1.9952999999999999 -0.004700000000000014 1.9952999999999999 1.9952999999999999 -0.004700000000000014 -0.004700000000000014 -0.004700000000000014 -1.5992666666666664 -1.5992666666666664 -1.5992666666666664 0.40073333333333344 0.40073333333333344 0.40073333333333344 -1.5992666666666664 -1.5992666666666664 0.40073333333333344 0.40073333333333344 0.40073333333333344 0.40073333333333344 0.40073333333333344 -1.5992666666666664 -1.5992666666666664 -1.0415666666666665 0.9584333333333335 0.9584333333333335 0.9584333333333335 0.9584333333333335 -1.0415666666666665 0.9584333333333335 0.9584333333333335 -1.0415666666666665 -1.0415666666666665 -1.0415666666666665 -1.0415666666666665 -1.0415666666666665 0.9584333333333335 0.9584333333333335 -1.8375666666666666 -1.8375666666666666 -1.8375666666666666 -3.837566666666667 -3.837566666666667 -3.837566666666667 -1.8375666666666666 -3.837566666666667 -1.8375666666666666 -1.8375666666666666 -1.8375666666666666 -3.837566666666667 -1.8375666666666666 -1.8375666666666666 -1.8375666666666666 1.648333333333333 1.648333333333333 -0.35166666666666685 1.648333333333333 1.648333333333333 -0.35166666666666685 1.648333333333333 -0.35166666666666685 -0.35166666666666685 -0.35166666666666685 1.648333333333333 1.648333333333333 -0.35166666666666685 -0.35166666666666685 -0.35166666666666685 -0.1521999999999999 -2.1521999999999992 -0.1521999999999999 -2.1521999999999992 -0.1521999999999999 -0.1521999999999999 -0.1521999999999999 -0.1521999999999999 -0.1521999999999999 -0.1521999999999999 -0.1521999999999999 -2.1521999999999992 -0.1521999999999999 -0.1521999999999999 -2.1521999999999992 2.029733333333333 2.029733333333333 0.029733333333333306 0.029733333333333306 2.029733333333333 2.029733333333333 0.029733333333333306 2.029733333333333 2.029733333333333 2.029733333333333 2.029733333333333 2.029733333333333 0.029733333333333306 2.029733333333333 0.029733333333333306 0.5661999999999998 -1.4338 -1.4338 -1.4338 -1.4338 -1.4338 -1.4338 0.5661999999999998 0.5661999999999998 0.5661999999999998 -1.4338 0.5661999999999998 -1.4338 -1.4338 -1.4338 0.7157333333333333 2.715733333333333 2.715733333333333 0.7157333333333333 2.715733333333333 0.7157333333333333 0.7157333333333333 0.7157333333333333 2.715733333333333 2.715733333333333 0.7157333333333333 0.7157333333333333 0.7157333333333333 0.7157333333333333 2.715733333333333
1.9993 -0.0006999999999999281 1.9993 1.9993 1.9993 -0.0006999999999999281 -0.0006999999999999281 1.9993 1.9993 -0.0006999999999999281 -0.0006999999999999281 1.9993 1.9993 -0.0006999999999999281 1.9993 -1.4035 -1.4035 0.5965 0.5965 0.5965 -1.4035 0.5965 0.5965 -1.4035 -1.4035 -1.4035 -1.4035 -1.4035 0.5965 -1.4035 -0.7874666666666668 -0.7874666666666668 -0.7874666666666668 -0.7874666666666668 -0.7874666666666668 -0.7874666666666668 1.2125333333333332 -0.7874666666666668 1.2125333333333332 1.2125333333333332 1.2125333333333332 1.2125333333333332 1.2125333333333332 1.2125333333333332 -0.7874666666666668 1.8476333333333335 1.8476333333333335 -0.1523666666666667 1.8476333333333335 -0.1523666666666667 1.8476333333333335 1.8476333333333335 -0.1523666666666667 -0.1523666666666667 1.8476333333333335 -0.1523666666666667 1.8476333333333335 1.8476333333333335 -0.1523666666666667 1.8476333333333335 -0.4761 1.5239 -0.4761 -0.4761 1.5239 -0.4761 -0.4761 1.5239 1.5239 -0.4761 1.5239 1.5239 1.5239 -0.4761 -0.4761 -0.8212 1.1788 -0.8212 1.1788 1.1788 1.1788 1.1788 1.1788 -0.8212 -0.8212 1.1788 1.1788 -0.8212 -0.8212 -0.8212 -3.7978666666666667 -3.7978666666666667 -1.7978666666666663 -3.7978666666666667 -1.7978666666666663 -1.7978666666666663 -1.7978666666666663 -1.7978666666666663 -1.7978666666666663 -1.7978666666666663 -3.7978666666666667 -1.7978666666666663 -1.7978666666666663 -1.7978666666666663 -1.7978666666666663 -1.3433333333333335 0.6566666666666665 0.6566666666666665 -1.3433333333333335 0.6566666666666665 0.6566666666666665 -1.3433333333333335 0.6566666666666665 0.6566666666666665 -1.3433333333333335 0.6566666666666665 -1.3433333333333335 0.6566666666666665 -1.3433333333333335 0.6566666666666665 -0.6331333333333331 1.3668666666666667 1.3668666666666667 1.3668666666666667 -0.6331333333333331 1.3668666666666667 1.3668666666666667 1.3668666666666667 1.3668666666666667 -0.6331333333333331 -0.6331333333333331 1.3668666666666667 1.3668666666666667 -0.6331333333333331 -0.6331333333333331 -0.5843333333333333 1.4156666666666664 -0.5843333333333333 1.4156666666666664 1.4156666666666664 1.4156666666666664 -0.5843333333333333 1.4156666666666664 1.4156666666666664 -0.5843333333333333 1.4156666666666664 1.4156666666666664 -0.5843333333333333 -0.5843333333333333 -0.5843333333333333
1.9877000000000002 -0.012299999999999995 -0.012299999999999995 -0.012299999999999995 1.9877000000000002 -0.012299999999999995 -0.012299999999999995 -0.012299999999999995 1.9877000000000002 1.9877000000000002 -0.012299999999999995 -0.012299999999999995 1.9877000000000002 1.9877000000000002 -0.012299999999999995 -2.213033333333333 -0.2130333333333332 -2.213033333333333 -0.2130333333333332 -2.213033333333333 -0.2130333333333332 -0.2130333333333332 -2.213033333333333 -0.2130333333333332 -2.213033333333333 -2.213033333333333 -2.213033333333333 -2.213033333333333 -0.2130333333333332 -2.213033333333333 1.4908666666666672 -0.5091333333333332 -0.5091333333333332 1.4908666666666672 1.4908666666666672 1.4908666666666672 -0.5091333333333332 1.4908666666666672 -0.5091333333333332 1.4908666666666672 -0.5091333333333332 1.4908666666666672 -0.5091333333333332 -0.5091333333333332 -0.5091333333333332 1.1082333333333334 1.1082333333333334 1.1082333333333334 3.1082333333333336 1.1082333333333334 1.1082333333333334 3.1082333333333336 3.1082333333333336 1.1082333333333334 3.1082333333333336 1.1082333333333334 1.1082333333333334 1.1082333333333334 3.1082333333333336 3.1082333333333336 -2.0218333333333334 -2.0218333333333334 -0.021833333333333482 -0.021833333333333482 -0.021833333333333482 -2.0218333333333334 -2.0218333333333334 -2.0218333333333334 -0.021833333333333482 -0.021833333333333482 -2.0218333333333334 -0.021833333333333482 -2.0218333333333334 -0.021833333333333482 -0.021833333333333482 -2.0070666666666668 -2.0070666666666668 -2.0070666666666668 -2.0070666666666668 -0.007066666666666631 -2.0070666666666668 -0.007066666666666631 -2.0070666666666668 -0.007066666666666631 -0.007066666666666631 -2.0070666666666668 -0.007066666666666631 -0.007066666666666631 -0.007066666666666631 -0.007066666666666631 4.110000000000001 2.1099999999999994 4.110000000000001 2.1099999999999994 4.110000000000001 4.110000000000001 4.110000000000001 2.1099999999999994 4.110000000000001 2.1099999999999994 4.110000000000001 2.1099999999999994 2.1099999999999994 4.110000000000001 4.110000000000001 -1.9092000000000002 0.09080000000000003 0.09080000000000003 -1.9092000000000002 0.09080000000000003 0.09080000000000003 0.09080000000000003 0.09080000000000003 0.09080000000000003 0.09080000000000003 0.09080000000000003 -1.9092000000000002 -1.9092000000000002 -1.9092000000000002 -1.9092000000000002 -0.07946666666666657 -0.07946666666666657 -0.07946666666666657 -0.07946666666666657 -0.07946666666666657 -0.07946666666666657 -2.0794666666666664 -0.07946666666666657 -2.0794666666666664 -2.0794666666666664 -2.0794666666666664 -0.07946666666666657 -2.0794666666666664 -0.07946666666666657 -2.0794666666666664 -0.4662000000000001 -2.4661999999999997 -0.4662000000000001 -2.4661999999999997 -2.4661999999999997 -2.4661999999999997 -2.4661999999999997 -0.4662000000000001 -0.4662000000000001 -2.4661999999999997 -0.4662000000000001 -2.4661999999999997 -2.4661999999999997 -2.4661999999999997 -0.4662000000000001
-0.9607000000000002 1.0393 -0.9607000000000002 -0.9607000000000002 1.0393 1.0393 1.0393 1.0393 -0.9607000000000002 -0.9607000000000002 1.0393 1.0393 -0.9607000000000002 -0.9607000000000002 1.0393 0.5200333333333332 -1.4799666666666669 -1.4799666666666669 0.5200333333333332 0.5200333333333332 0.5200333333333332 0.5200333333333332 0.5200333333333332 -1.4799666666666669 0.5200333333333332 -1.4799666666666669 0.5200333333333332 0.5200333333333332 -1.4799666666666669 0.5200333333333332 0.9726000000000001 0.9726000000000001 -1.0274 -1.0274 0.9726000000000001 -1.0274 -1.0274 0.9726000000000001 -1.0274 0.9726000000000001 -1.0274 0.9726000000000001 0.9726000000000001 -1.0274 0.9726000000000001 -1.9592333333333332 -1.9592333333333332 -1.9592333333333332 0.04076666666666666 0.04076666666666666 0.04076666666666666 -1.9592333333333332 0.04076666666666666 0.04076666666666666 0.04076666666666666 -1.9592333333333332 -1.9592333333333332 0.04076666666666666 -1.9592333333333332 0.04076666666666666 -0.01156666666666669 -0.01156666666666669 -2.0115666666666665 -2.0115666666666665 -0.01156666666666669 -2.0115666666666665 -0.01156666666666669 -0.01156666666666669 -2.0115666666666665 -0.01156666666666669 -2.0115666666666665 -2.0115666666666665 -0.01156666666666669 -2.0115666666666665 -0.01156666666666669 0.44673333333333326 -1.5532666666666664 -1.5532666666666664 -1.5532666666666664 -1.5532666666666664 -1.5532666666666664 0.44673333333333326 -1.5532666666666664 0.44673333333333326 0.44673333333333326 0.44673333333333326 0.44673333333333326 0.44673333333333326 0.44673333333333326 -1.5532666666666664 3.9330000000000003 3.9330000000000003 3.9330000000000003 1.933 1.933 3.9330000000000003 3.9330000000000003 3.9330000000000003 3.9330000000000003 3.9330000000000003 3.9330000000000003 1.933 3.9330000000000003 3.9330000000000003 1.933 -0.03359999999999999 -0.03359999999999999 -0.03359999999999999 -0.03359999999999999 1.9664 -0.03359999999999999 -0.03359999999999999 1.9664 -0.03359999999999999 1.9664 1.9664 -0.03359999999999999 -0.03359999999999999 1.9664 -0.03359999999999999 -0.9165999999999999 -0.9165999999999999 -0.9165999999999999 1.0833999999999997 -0.9165999999999999 -0.9165999999999999 -0.9165999999999999 1.0833999999999997 -0.9165999999999999 1.0833999999999997 -0.9165999999999999 -0.9165999999999999 1.0833999999999997 -0.9165999999999999 1.0833999999999997 0.0093333333333334 0.0093333333333334 -1.990666666666667 0.0093333333333334 -1.990666666666667 -1.990666666666667 0.0093333333333334 -1.990666666666667 -1.990666666666667 0.0093333333333334 0.0093333333333334 0.0093333333333334 -1.990666666666667 0.0093333333333334 -1.990666666666667
