2.6831666666666663 2.6831666666666663 2.6831666666666663 0.6831666666666665 0.6831666666666665 2.6831666666666663 2.6831666666666663 2.6831666666666663 0.6831666666666665 0.6831666666666665 0.6831666666666665 0.6831666666666665 2.6831666666666663 2.6831666666666663 2.6831666666666663 -0.9717000000000001 1.0283000000000002 -0.9717000000000001 -0.9717000000000001 1.0283000000000002 -0.9717000000000001 -0.9717000000000001 1.0283000000000002 -0.9717000000000001 1.0283000000000002 -0.9717000000000001 1.0283000000000002 -0.9717000000000001 1.0283000000000002 1.0283000000000002 -1.8173333333333332 0.1826666666666665 -1.8173333333333332 0.1826666666666665 0.1826666666666665 -1.8173333333333332 -1.8173333333333332 0.1826666666666665 -1.8173333333333332 -1.8173333333333332 -1.8173333333333332 0.1826666666666665 -1.8173333333333332 -1.8173333333333332 0.1826666666666665 -0.05140000000000011 1.9486 -0.05140000000000011 -0.05140000000000011 -0.05140000000000011 -0.05140000000000011 -0.05140000000000011 -0.05140000000000011 1.9486 1.9486 1.9486 -0.05140000000000011 -0.05140000000000011 1.9486 1.9486 -1.4516666666666669 0.5483333333333332 0.5483333333333332 -1.4516666666666669 -1.4516666666666669 -1.4516666666666669 -1.4516666666666669 0.5483333333333332 0.5483333333333332 -1.4516666666666669 0.5483333333333332 0.5483333333333332 0.5483333333333332 -1.4516666666666669 0.5483333333333332 -0.3747333333333334 -0.3747333333333334 -0.3747333333333334 -0.3747333333333334 -2.374733333333333 -0.3747333333333334 -0.3747333333333334 -0.3747333333333334 -2.374733333333333 -2.374733333333333 -2.374733333333333 -0.3747333333333334 -2.374733333333333 -0.3747333333333334 -0.3747333333333334 3.720833333333333 3.720833333333333 1.7208333333333334 3.720833333333333 3.720833333333333 1.7208333333333334 3.720833333333333 1.7208333333333334 1.7208333333333334 1.7208333333333334 1.7208333333333334 1.7208333333333334 1.7208333333333334 1.7208333333333334 1.7208333333333334 0.3019 0.3019 0.3019 0.3019 -1.6981 -1.6981 -1.6981 0.3019 0.3019 -1.6981 0.3019 -1.6981 0.3019 0.3019 -1.6981 -0.05419999999999998 -2.0542 -0.05419999999999998 -0.05419999999999998 -0.05419999999999998 -0.05419999999999998 -2.0542 -0.05419999999999998 -2.0542 -2.0542 -0.05419999999999998 -2.0542 -2.0542 -0.05419999999999998 -0.05419999999999998 -1.9848666666666666 0.015133333333333387 -1.9848666666666666 0.015133333333333387 -1.9848666666666666 0.015133333333333387 0.015133333333333387 -1.9848666666666666 -1.9848666666666666 0.015133333333333387 0.015133333333333387 -1.9848666666666666 -1.9848666666666666 -1.9848666666666666 -1.9848666666666666
0.5167 -1.4832999999999998 -1.4832999999999998 0.5167 0.5167 0.5167 0.5167 0.5167 -1.4832999999999998 -1.4832999999999998 -1.4832999999999998 -1.4832999999999998 -1.4832999999999998 -1.4832999999999998 0.5167 -0.04316666666666662 -0.04316666666666662 -2.043166666666667 -2.043166666666667 -0.04316666666666662 -0.04316666666666662 -0.04316666666666662 -0.04316666666666662 -2.043166666666667 -2.043166666666667 -0.04316666666666662 -2.043166666666667 -0.04316666666666662 -0.04316666666666662 -2.043166666666667 1.2914666666666668 1.2914666666666668 1.2914666666666668 1.2914666666666668 -0.7085333333333331 1.2914666666666668 -0.7085333333333331 -0.7085333333333331 1.2914666666666668 1.2914666666666668 -0.7085333333333331 1.2914666666666668 -0.7085333333333331 1.2914666666666668 -0.7085333333333331 3.0484000000000004 3.0484000000000004 3.0484000000000004 3.0484000000000004 1.0484 1.0484 1.0484 1.0484 3.0484000000000004 1.0484 1.0484 1.0484 1.0484 3.0484000000000004 3.0484000000000004 1.3611333333333333 -0.6388666666666666 -0.6388666666666666 1.3611333333333333 1.3611333333333333 1.3611333333333333 1.3611333333333333 1.3611333333333333 1.3611333333333333 -0.6388666666666666 1.3611333333333333 -0.6388666666666666 -0.6388666666666666 -0.6388666666666666 -0.6388666666666666 -0.4031999999999999 -0.4031999999999999 -0.4031999999999999 -2.4032000000000004 -2.4032000000000004 -0.4031999999999999 -2.4032000000000004 -2.4032000000000004 -0.4031999999999999 -2.4032000000000004 -2.4032000000000004 -2.4032000000000004 -0.4031999999999999 -2.4032000000000004 -0.4031999999999999 -4.522899999999999 -2.5229 -2.5229 -4.522899999999999 -4.522899999999999 -2.5229 -2.5229 -2.5229 -4.522899999999999 -2.5229 -4.522899999999999 -2.5229 -4.522899999999999 -2.5229 -4.522899999999999 0.8248333333333333 2.8248333333333338 2.8248333333333338 2.8248333333333338 0.8248333333333333 0.8248333333333333 2.8248333333333338 2.8248333333333338 0.8248333333333333 2.8248333333333338 0.8248333333333333 0.8248333333333333 2.8248333333333338 0.8248333333333333 0.8248333333333333 1.3639333333333332 -0.6360666666666668 -0.6360666666666668 -0.6360666666666668 1.3639333333333332 -0.6360666666666668 1.3639333333333332 1.3639333333333332 -0.6360666666666668 1.3639333333333332 -0.6360666666666668 1.3639333333333332 -0.6360666666666668 -0.6360666666666668 1.3639333333333332 0.5628000000000001 2.5628 0.5628000000000001 2.5628 2.5628 2.5628 0.5628000000000001 2.5628 0.5628000000000001 0.5628000000000001 0.5628000000000001 2.5628 2.5628 2.5628 0.5628000000000001
0.31963333333333344 0.31963333333333344 0.31963333333333344 0.31963333333333344 2.319633333333333 0.31963333333333344 0.31963333333333344 2.319633333333333 2.319633333333333 2.319633333333333 0.31963333333333344 2.319633333333333 2.319633333333333 0.31963333333333344 0.31963333333333344 -1.1979666666666666 -1.1979666666666666 0.8020333333333336 0.8020333333333336 0.8020333333333336 -1.1979666666666666 -1.1979666666666666 -1.1979666666666666 -1.1979666666666666 -1.1979666666666666 -1.1979666666666666 -1.1979666666666666 -1.1979666666666666 0.8020333333333336 -1.1979666666666666 1.3484666666666667 -0.6515333333333334 -0.6515333333333334 1.3484666666666667 1.3484666666666667 -0.6515333333333334 1.3484666666666667 1.3484666666666667 1.3484666666666667 1.3484666666666667 -0.6515333333333334 -0.6515333333333334 1.3484666666666667 1.3484666666666667 -0.6515333333333334 1.1178666666666668 1.1178666666666668 1.1178666666666668 3.1178666666666666 1.1178666666666668 1.1178666666666668 1.1178666666666668 3.1178666666666666 3.1178666666666666 1.1178666666666668 1.1178666666666668 1.1178666666666668 3.1178666666666666 1.1178666666666668 3.1178666666666666 -1.9264666666666668 0.07353333333333328 0.07353333333333328 -1.9264666666666668 -1.9264666666666668 0.07353333333333328 -1.9264666666666668 -1.9264666666666668 -1.9264666666666668 -1.9264666666666668 -1.9264666666666668 -1.9264666666666668 -1.9264666666666668 0.07353333333333328 -1.9264666666666668 0.12766666666666665 2.127666666666667 0.12766666666666665 0.12766666666666665 0.12766666666666665 2.127666666666667 2.127666666666667 2.127666666666667 0.12766666666666665 2.127666666666667 2.127666666666667 2.127666666666667 0.12766666666666665 0.12766666666666665 2.127666666666667 -0.3884333333333329 -2.3884333333333334 -0.3884333333333329 -0.3884333333333329 -0.3884333333333329 -2.3884333333333334 -2.3884333333333334 -2.3884333333333334 -2.3884333333333334 -0.3884333333333329 -0.3884333333333329 -2.3884333333333334 -2.3884333333333334 -0.3884333333333329 -2.3884333333333334 -0.01823333333333322 -2.0182333333333333 -0.01823333333333322 -2.0182333333333333 -2.0182333333333333 -0.01823333333333322 -2.0182333333333333 -0.01823333333333322 -2.0182333333333333 -0.01823333333333322 -2.0182333333333333 -2.0182333333333333 -0.01823333333333322 -2.0182333333333333 -0.01823333333333322 -0.4525333333333333 1.5474666666666665 1.5474666666666665 1.5474666666666665 1.5474666666666665 1.5474666666666665 -0.4525333333333333 1.5474666666666665 -0.4525333333333333 -0.4525333333333333 1.5474666666666665 -0.4525333333333333 1.5474666666666665 -0.4525333333333333 -0.4525333333333333 -2.9299999999999997 -2.9299999999999997 -0.9300000000000002 -2.9299999999999997 -2.9299999999999997 -0.9300000000000002 -2.9299999999999997 -2.9299999999999997 -0.9300000000000002 -0.9300000000000002 -2.9299999999999997 -0.9300000000000002 -0.9300000000000002 -2.9299999999999997 -0.9300000000000002
-2.0183666666666666 -4.018366666666666 -4.018366666666666 -4.018366666666666 -2.0183666666666666 -2.0183666666666666 -4.018366666666666 -4.018366666666666 -4.018366666666666 -2.0183666666666666 -4.018366666666666 -4.018366666666666 -2.0183666666666666 -4.018366666666666 -4.018366666666666 0.40136666666666665 2.4013666666666666 0.40136666666666665 2.4013666666666666 2.4013666666666666 2.4013666666666666 2.4013666666666666 0.40136666666666665 0.40136666666666665 0.40136666666666665 2.4013666666666666 0.40136666666666665 2.4013666666666666 2.4013666666666666 2.4013666666666666 0.4084000000000001 -1.5916 -1.5916 -1.5916 0.4084000000000001 0.4084000000000001 0.4084000000000001 0.4084000000000001 0.4084000000000001 -1.5916 0.4084000000000001 0.4084000000000001 0.4084000000000001 0.4084000000000001 0.4084000000000001 -0.8372666666666665 1.1627333333333332 -0.8372666666666665 -0.8372666666666665 -0.8372666666666665 1.1627333333333332 -0.8372666666666665 -0.8372666666666665 1.1627333333333332 1.1627333333333332 1.1627333333333332 1.1627333333333332 -0.8372666666666665 -0.8372666666666665 1.1627333333333332 1.8945999999999998 -0.10540000000000008 1.8945999999999998 -0.10540000000000008 1.8945999999999998 1.8945999999999998 -0.10540000000000008 1.8945999999999998 1.8945999999999998 -0.10540000000000008 1.8945999999999998 -0.10540000000000008 1.8945999999999998 -0.10540000000000008 -0.10540000000000008 0.8636 0.8636 -1.1364 -1.1364 -1.1364 -1.1364 -1.1364 -1.1364 0.8636 -1.1364 -1.1364 -1.1364 -1.1364 0.8636 0.8636 -1.3830333333333331 0.6169666666666666 -1.3830333333333331 0.6169666666666666 0.6169666666666666 0.6169666666666666 -1.3830333333333331 0.6169666666666666 0.6169666666666666 -1.3830333333333331 0.6169666666666666 -1.3830333333333331 0.6169666666666666 -1.3830333333333331 0.6169666666666666 -0.3277666666666667 -2.3277666666666663 -0.3277666666666667 -0.3277666666666667 -2.3277666666666663 -0.3277666666666667 -2.3277666666666663 -0.3277666666666667 -2.3277666666666663 -0.3277666666666667 -2.3277666666666663 -0.3277666666666667 -2.3277666666666663 -2.3277666666666663 -2.3277666666666663 0.7559333333333332 0.7559333333333332 0.7559333333333332 2.755933333333333 2.755933333333333 2.755933333333333 2.755933333333333 0.7559333333333332 2.755933333333333 0.7559333333333332 0.7559333333333332 2.755933333333333 2.755933333333333 0.7559333333333332 2.755933333333333 2.2425333333333337 0.24253333333333338 2.2425333333333337 2.2425333333333337 0.24253333333333338 0.24253333333333338 0.24253333333333338 2.2425333333333337 0.24253333333333338 2.2425333333333337 0.24253333333333338 0.24253333333333338 2.2425333333333337 0.24253333333333338 2.2425333333333337
1.8039666666666663 1.8039666666666663 1.8039666666666663 -0.19603333333333336 1.8039666666666663 -0.19603333333333336 -0.19603333333333336 1.8039666666666663 1.8039666666666663 -0.19603333333333336 -0.19603333333333336 -0.19603333333333336 1.8039666666666663 1.8039666666666663 -0.19603333333333336 -0.6055000000000004 1.3944999999999996 -0.6055000000000004 -0.6055000000000004 1.3944999999999996 -0.6055000000000004 1.3944999999999996 1.3944999999999996 -0.6055000000000004 -0.6055000000000004 -0.6055000000000004 1.3944999999999996 -0.6055000000000004 1.3944999999999996 -0.6055000000000004 0.0009999999999999558 -1.999 -1.999 0.0009999999999999558 0.0009999999999999558 -1.999 -1.999 -1.999 0.0009999999999999558 -1.999 -1.999 0.0009999999999999558 0.0009999999999999558 -1.999 0.0009999999999999558 -0.7294000000000003 1.2705999999999997 1.2705999999999997 -0.7294000000000003 1.2705999999999997 1.2705999999999997 -0.7294000000000003 1.2705999999999997 1.2705999999999997 1.2705999999999997 -0.7294000000000003 -0.7294000000000003 -0.7294000000000003 -0.7294000000000003 1.2705999999999997 -0.22319999999999995 1.7768 1.7768 1.7768 -0.22319999999999995 1.7768 -0.22319999999999995 -0.22319999999999995 1.7768 -0.22319999999999995 -0.22319999999999995 1.7768 -0.22319999999999995 -0.22319999999999995 1.7768 0.42553333333333326 -1.5744666666666665 -1.5744666666666665 0.42553333333333326 0.42553333333333326 -1.5744666666666665 0.42553333333333326 0.42553333333333326 0.42553333333333326 0.42553333333333326 0.42553333333333326 -1.5744666666666665 0.42553333333333326 -1.5744666666666665 -1.5744666666666665 -0.5296999999999994 1.4703000000000002 1.4703000000000002 1.4703000000000002 1.4703000000000002 1.4703000000000002 1.4703000000000002 -0.5296999999999994 -0.5296999999999994 1.4703000000000002 -0.5296999999999994 1.4703000000000002 1.4703000000000002 -0.5296999999999994 -0.5296999999999994 -1.2837666666666665 0.7162333333333332 -1.2837666666666665 -1.2837666666666665 0.7162333333333332 -1.2837666666666665 0.7162333333333332 -1.2837666666666665 0.7162333333333332 0.7162333333333332 -1.2837666666666665 0.7162333333333332 0.7162333333333332 0.7162333333333332 0.7162333333333332 0.15846666666666667 0.15846666666666667 0.15846666666666667 0.15846666666666667 -1.8415333333333326 -1.8415333333333326 -1.8415333333333326 -1.8415333333333326 -1.8415333333333326 -1.8415333333333326 0.15846666666666667 -1.8415333333333326 -1.8415333333333326 -1.8415333333333326 0.15846666666666667 0.9825999999999999 0.9825999999999999 0.9825999999999999 0.9825999999999999 0.9825999999999999 -1.0173999999999999 -1.0173999999999999 -1.0173999999999999 -1.0173999999999999 0.9825999999999999 0.9825999999999999 0.9825999999999999 0.9825999999999999 0.9825999999999999 -1.0173999999999999
-3.0432333333333332 -1.0432333333333332 -1.0432333333333332 -1.0432333333333332 -3.0432333333333332 -3.0432333333333332 -3.0432333333333332 -3.0432333333333332 -1.0432333333333332 -3.0432333333333332 -3.0432333333333332 -3.0432333333333332 -1.0432333333333332 -1.0432333333333332 -3.0432333333333332 0.9978333333333335 2.9978333333333333 2.9978333333333333 2.9978333333333333 2.9978333333333333 0.9978333333333335 0.9978333333333335 0.9978333333333335 2.9978333333333333 2.9978333333333333 0.9978333333333335 0.9978333333333335 0.9978333333333335 0.9978333333333335 0.9978333333333335 0.8295333333333333 0.8295333333333333 0.8295333333333333 0.8295333333333333 0.8295333333333333 2.8295333333333335 0.8295333333333333 0.8295333333333333 0.8295333333333333 2.8295333333333335 2.8295333333333335 2.8295333333333335 2.8295333333333335 0.8295333333333333 0.8295333333333333 -1.4683999999999997 -3.4684 -3.4684 -3.4684 -1.4683999999999997 -1.4683999999999997 -1.4683999999999997 -3.4684 -3.4684 -3.4684 -3.4684 -1.4683999999999997 -3.4684 -3.4684 -1.4683999999999997 2.1251333333333333 0.12513333333333337 0.12513333333333337 0.12513333333333337 2.1251333333333333 2.1251333333333333 0.12513333333333337 2.1251333333333333 0.12513333333333337 0.12513333333333337 0.12513333333333337 2.1251333333333333 2.1251333333333333 0.12513333333333337 0.12513333333333337 -2.2636666666666665 -2.2636666666666665 -0.2636666666666668 -0.2636666666666668 -0.2636666666666668 -0.2636666666666668 -0.2636666666666668 -0.2636666666666668 -0.2636666666666668 -0.2636666666666668 -0.2636666666666668 -2.2636666666666665 -0.2636666666666668 -2.2636666666666665 -0.2636666666666668 1.7088333333333336 -0.29116666666666663 1.7088333333333336 -0.29116666666666663 1.7088333333333336 -0.29116666666666663 1.7088333333333336 1.7088333333333336 -0.29116666666666663 -0.29116666666666663 1.7088333333333336 1.7088333333333336 -0.29116666666666663 1.7088333333333336 1.7088333333333336 -0.7401000000000002 -0.7401000000000002 1.2599 1.2599 -0.7401000000000002 -0.7401000000000002 -0.7401000000000002 1.2599 -0.7401000000000002 -0.7401000000000002 1.2599 1.2599 -0.7401000000000002 -0.7401000000000002 -0.7401000000000002 2.1538 0.15380000000000002 0.15380000000000002 2.1538 2.1538 0.15380000000000002 0.15380000000000002 2.1538 0.15380000000000002 0.15380000000000002 2.1538 0.15380000000000002 2.1538 2.1538 0.15380000000000002 -0.2997333333333334 -2.299733333333333 -2.299733333333333 -2.299733333333333 -0.2997333333333334 -2.299733333333333 -0.2997333333333334 -0.2997333333333334 -0.2997333333333334 -2.299733333333333 -0.2997333333333334 -0.2997333333333334 -0.2997333333333334 -0.2997333333333334 -0.2997333333333334
-3.8827666666666665 -3.8827666666666665 -1.8827666666666667 -1.8827666666666667 -1.8827666666666667 -1.8827666666666667 -1.8827666666666667 -1.8827666666666667 -1.8827666666666667 -3.8827666666666665 -3.8827666666666665 -3.8827666666666665 -1.8827666666666667 -3.8827666666666665 -3.8827666666666665 -0.5898333333333332 -2.589833333333333 -0.5898333333333332 -0.5898333333333332 -0.5898333333333332 -0.5898333333333332 -0.5898333333333332 -0.5898333333333332 -2.589833333333333 -0.5898333333333332 -2.589833333333333 -0.5898333333333332 -2.589833333333333 -2.589833333333333 -2.589833333333333 1.8990666666666667 1.8990666666666667 -0.10093333333333318 -0.10093333333333318 1.8990666666666667 -0.10093333333333318 -0.10093333333333318 1.8990666666666667 1.8990666666666667 -0.10093333333333318 1.8990666666666667 1.8990666666666667 -0.10093333333333318 -0.10093333333333318 1.8990666666666667 0.2768666666666667 -1.7231333333333334 -1.7231333333333334 -1.7231333333333334 0.2768666666666667 -1.7231333333333334 -1.7231333333333334 0.2768666666666667 -1.7231333333333334 -1.7231333333333334 0.2768666666666667 0.2768666666666667 -1.7231333333333334 -1.7231333333333334 0.2768666666666667 2.6186000000000003 2.6186000000000003 0.6186 0.6186 0.6186 0.6186 0.6186 2.6186000000000003 0.6186 0.6186 0.6186 2.6186000000000003 0.6186 0.6186 0.6186 -1.6427333333333334 0.35726666666666657 0.35726666666666657 -1.6427333333333334 -1.6427333333333334 -1.6427333333333334 -1.6427333333333334 0.35726666666666657 -1.6427333333333334 0.35726666666666657 -1.6427333333333334 0.35726666666666657 0.35726666666666657 -1.6427333333333334 0.35726666666666657 0.46516666666666645 -1.5348333333333337 0.46516666666666645 0.46516666666666645 -1.5348333333333337 -1.5348333333333337 -1.5348333333333337 -1.5348333333333337 -1.5348333333333337 -1.5348333333333337 -1.5348333333333337 -1.5348333333333337 0.46516666666666645 0.46516666666666645 0.46516666666666645 -0.06836666666666663 -0.06836666666666663 -0.06836666666666663 -0.06836666666666663 1.9316333333333333 1.9316333333333333 1.9316333333333333 1.9316333333333333 1.9316333333333333 1.9316333333333333 -0.06836666666666663 1.9316333333333333 1.9316333333333333 -0.06836666666666663 1.9316333333333333 -0.22326666666666672 -0.22326666666666672 1.7767333333333335 1.7767333333333335 1.7767333333333335 -0.22326666666666672 -0.22326666666666672 1.7767333333333335 1.7767333333333335 1.7767333333333335 1.7767333333333335 -0.22326666666666672 1.7767333333333335 -0.22326666666666672 -0.22326666666666672 1.1472666666666662 3.147266666666667 3.147266666666667 1.1472666666666662 3.147266666666667 1.1472666666666662 1.1472666666666662 1.1472666666666662 1.1472666666666662 1.1472666666666662 3.147266666666667 1.1472666666666662 3.147266666666667 1.1472666666666662 1.1472666666666662
-1.3589666666666669 -1.3589666666666669 0.6410333333333333 0.6410333333333333 -1.3589666666666669 -1.3589666666666669 -1.3589666666666669 -1.3589666666666669 -1.3589666666666669 -1.3589666666666669 0.6410333333333333 0.6410333333333333 0.6410333333333333 -1.3589666666666669 0.6410333333333333 -1.2999 0.7001000000000003 0.7001000000000003 -1.2999 0.7001000000000003 0.7001000000000003 -1.2999 0.7001000000000003 -1.2999 0.7001000000000003 0.7001000000000003 0.7001000000000003 0.7001000000000003 0.7001000000000003 0.7001000000000003 -1.1933999999999998 -1.1933999999999998 -1.1933999999999998 0.8066000000000002 0.8066000000000002 -1.1933999999999998 -1.1933999999999998 0.8066000000000002 -1.1933999999999998 0.8066000000000002 0.8066000000000002 0.8066000000000002 0.8066000000000002 -1.1933999999999998 0.8066000000000002 0.1973333333333333 0.1973333333333333 0.1973333333333333 0.1973333333333333 2.1973333333333334 0.1973333333333333 0.1973333333333333 0.1973333333333333 2.1973333333333334 0.1973333333333333 2.1973333333333334 2.1973333333333334 2.1973333333333334 0.1973333333333333 2.1973333333333334 -0.6427333333333336 -0.6427333333333336 1.3572666666666666 -0.6427333333333336 -0.6427333333333336 -0.6427333333333336 1.3572666666666666 -0.6427333333333336 -0.6427333333333336 1.3572666666666666 1.3572666666666666 1.3572666666666666 1.3572666666666666 -0.6427333333333336 -0.6427333333333336 1.0448666666666668 -0.9551333333333335 -0.9551333333333335 1.0448666666666668 1.0448666666666668 -0.9551333333333335 -0.9551333333333335 1.0448666666666668 1.0448666666666668 -0.9551333333333335 1.0448666666666668 -0.9551333333333335 1.0448666666666668 -0.9551333333333335 1.0448666666666668 0.6503000000000003 0.6503000000000003 -1.3497 0.6503000000000003 0.6503000000000003 0.6503000000000003 -1.3497 0.6503000000000003 0.6503000000000003 -1.3497 0.6503000000000003 -1.3497 -1.3497 -1.3497 0.6503000000000003 -1.6084333333333334 0.3915666666666667 0.3915666666666667 -1.6084333333333334 0.3915666666666667 -1.6084333333333334 0.3915666666666667 0.3915666666666667 0.3915666666666667 0.3915666666666667 0.3915666666666667 -1.6084333333333334 -1.6084333333333334 0.3915666666666667 0.3915666666666667 -1.245733333333333 0.7542666666666666 0.7542666666666666 -1.245733333333333 0.7542666666666666 0.7542666666666666 -1.245733333333333 0.7542666666666666 0.7542666666666666 -1.245733333333333 0.7542666666666666 -1.245733333333333 0.7542666666666666 0.7542666666666666 -1.245733333333333 -0.5433333333333332 -0.5433333333333332 1.4566666666666666 -0.5433333333333332 -0.5433333333333332 -0.5433333333333332 -0.5433333333333332 1.4566666666666666 1.4566666666666666 1.4566666666666666 -0.5433333333333332 1.4566666666666666 -0.5433333333333332 1.4566666666666666 -0.5433333333333332
-1.415833333333333 -1.415833333333333 -1.415833333333333 0.5841666666666668 -1.415833333333333 -1.415833333333333 0.5841666666666668 0.5841666666666668 0.5841666666666668 0.5841666666666668 0.5841666666666668 0.5841666666666668 0.5841666666666668 0.5841666666666668 -1.415833333333333 -0.3015000000000003 1.6984999999999997 1.6984999999999997 -0.3015000000000003 -0.3015000000000003 1.6984999999999997 -0.3015000000000003 1.6984999999999997 1.6984999999999997 -0.3015000000000003 1.6984999999999997 1.6984999999999997 -0.3015000000000003 -0.3015000000000003 -0.3015000000000003 0.8689333333333331 0.8689333333333331 0.8689333333333331 0.8689333333333331 -1.1310666666666667 -1.1310666666666667 -1.1310666666666667 0.8689333333333331 0.8689333333333331 -1.1310666666666667 0.8689333333333331 0.8689333333333331 0.8689333333333331 -1.1310666666666667 0.8689333333333331 1.7936666666666667 1.7936666666666667 -0.20633333333333298 1.7936666666666667 -0.20633333333333298 1.7936666666666667 -0.20633333333333298 1.7936666666666667 1.7936666666666667 -0.20633333333333298 -0.20633333333333298 1.7936666666666667 1.7936666666666667 -0.20633333333333298 1.7936666666666667 1.1345999999999996 -0.8654000000000002 1.1345999999999996 -0.8654000000000002 -0.8654000000000002 -0.8654000000000002 -0.8654000000000002 1.1345999999999996 -0.8654000000000002 -0.8654000000000002 1.1345999999999996 -0.8654000000000002 1.1345999999999996 1.1345999999999996 -0.8654000000000002 0.5797333333333331 -1.420266666666667 0.5797333333333331 0.5797333333333331 0.5797333333333331 0.5797333333333331 0.5797333333333331 -1.420266666666667 0.5797333333333331 -1.420266666666667 0.5797333333333331 -1.420266666666667 -1.420266666666667 0.5797333333333331 -1.420266666666667 1.5592999999999995 -0.4407000000000002 1.5592999999999995 -0.4407000000000002 -0.4407000000000002 1.5592999999999995 -0.4407000000000002 -0.4407000000000002 1.5592999999999995 1.5592999999999995 1.5592999999999995 1.5592999999999995 1.5592999999999995 -0.4407000000000002 1.5592999999999995 1.0642333333333336 1.0642333333333336 -0.9357666666666665 -0.9357666666666665 -0.9357666666666665 1.0642333333333336 -0.9357666666666665 1.0642333333333336 -0.9357666666666665 -0.9357666666666665 -0.9357666666666665 -0.9357666666666665 -0.9357666666666665 -0.9357666666666665 1.0642333333333336 0.04839999999999999 -1.9516000000000002 0.04839999999999999 0.04839999999999999 -1.9516000000000002 -1.9516000000000002 -1.9516000000000002 0.04839999999999999 0.04839999999999999 0.04839999999999999 -1.9516000000000002 0.04839999999999999 0.04839999999999999 0.04839999999999999 0.04839999999999999 -1.3315333333333335 0.6684666666666665 0.6684666666666665 -1.3315333333333335 -1.3315333333333335 -1.3315333333333335 0.6684666666666665 0.6684666666666665 -1.3315333333333335 0.6684666666666665 0.6684666666666665 -1.3315333333333335 -1.3315333333333335 -1.3315333333333335 -1.3315333333333335
-0.018633333333333283 1.9813666666666667 -0.018633333333333283 -0.018633333333333283 1.9813666666666667 -0.018633333333333283 1.9813666666666667 -0.018633333333333283 -0.018633333333333283 1.9813666666666667 1.9813666666666667 1.9813666666666667 1.9813666666666667 1.9813666666666667 -0.018633333333333283 -0.5197666666666667 -0.5197666666666667 1.4802333333333333 -0.5197666666666667 -0.5197666666666667 -0.5197666666666667 -0.5197666666666667 -0.5197666666666667 1.4802333333333333 1.4802333333333333 -0.5197666666666667 1.4802333333333333 -0.5197666666666667 -0.5197666666666667 -0.5197666666666667 -0.2891999999999999 1.7107999999999999 1.7107999999999999 -0.2891999999999999 -0.2891999999999999 1.7107999999999999 -0.2891999999999999 1.7107999999999999 -0.2891999999999999 1.7107999999999999 1.7107999999999999 1.7107999999999999 1.7107999999999999 -0.2891999999999999 1.7107999999999999 1.8365333333333338 -0.16346666666666673 1.8365333333333338 1.8365333333333338 -0.16346666666666673 -0.16346666666666673 1.8365333333333338 1.8365333333333338 -0.16346666666666673 1.8365333333333338 -0.16346666666666673 -0.16346666666666673 1.8365333333333338 1.8365333333333338 -0.16346666666666673 -0.6329333333333332 -2.6329333333333333 -2.6329333333333333 -0.6329333333333332 -2.6329333333333333 -0.6329333333333332 -0.6329333333333332 -0.6329333333333332 -2.6329333333333333 -2.6329333333333333 -0.6329333333333332 -0.6329333333333332 -0.6329333333333332 -0.6329333333333332 -2.6329333333333333 -1.1367333333333334 0.863266666666667 0.863266666666667 -1.1367333333333334 0.863266666666667 -1.1367333333333334 0.863266666666667 0.863266666666667 0.863266666666667 -1.1367333333333334 0.863266666666667 0.863266666666667 -1.1367333333333334 -1.1367333333333334 0.863266666666667 0.39416666666666644 -1.6058333333333334 -1.6058333333333334 -1.6058333333333334 -1.6058333333333334 0.39416666666666644 0.39416666666666644 0.39416666666666644 0.39416666666666644 0.39416666666666644 -1.6058333333333334 -1.6058333333333334 0.39416666666666644 -1.6058333333333334 -1.6058333333333334 -0.3078333333333333 -2.3078333333333334 -0.3078333333333333 -2.3078333333333334 -0.3078333333333333 -2.3078333333333334 -0.3078333333333333 -0.3078333333333333 -0.3078333333333333 -2.3078333333333334 -2.3078333333333334 -2.3078333333333334 -0.3078333333333333 -2.3078333333333334 -2.3078333333333334 -0.30313333333333325 -0.30313333333333325 1.6968666666666667 1.6968666666666667 1.6968666666666667 1.6968666666666667 1.6968666666666667 -0.30313333333333325 1.6968666666666667 1.6968666666666667 1.6968666666666667 1.6968666666666667 1.6968666666666667 1.6968666666666667 1.6968666666666667 0.9775333333333333 -1.0224666666666664 0.9775333333333333 -1.0224666666666664 0.9775333333333333 -1.0224666666666664 0.9775333333333333 0.9775333333333333 0.9775333333333333 0.9775333333333333 -1.0224666666666664 -1.0224666666666664 0.9775333333333333 0.9775333333333333 0.9775333333333333
0.36763333333333337 -1.6323666666666667 -1.6323666666666667 0.36763333333333337 -1.6323666666666667 -1.6323666666666667 0.36763333333333337 0.36763333333333337 -1.6323666666666667 -1.6323666666666667 0.36763333333333337 0.36763333333333337 0.36763333333333337 0.36763333333333337 0.36763333333333337 3.33333333332915e-05 -1.999966666666667 3.33333333332915e-05 -1.999966666666667 3.33333333332915e-05 3.33333333332915e-05 3.33333333332915e-05 -1.999966666666667 3.33333333332915e-05 -1.999966666666667 3.33333333332915e-05 3.33333333332915e-05 3.33333333332915e-05 3.33333333332915e-05 3.33333333332915e-05 0.5012666666666665 -1.4987333333333335 -1.4987333333333335 0.5012666666666665 0.5012666666666665 0.5012666666666665 -1.4987333333333335 0.5012666666666665 -1.4987333333333335 -1.4987333333333335 0.5012666666666665 0.5012666666666665 -1.4987333333333335 0.5012666666666665 -1.4987333333333335 0.8876 0.8876 0.8876 0.8876 0.8876 -1.1124 -1.1124 -1.1124 -1.1124 -1.1124 -1.1124 -1.1124 0.8876 0.8876 -1.1124 -1.8999333333333333 0.10006666666666679 -1.8999333333333333 -1.8999333333333333 -1.8999333333333333 0.10006666666666679 -1.8999333333333333 -1.8999333333333333 0.10006666666666679 0.10006666666666679 -1.8999333333333333 -1.8999333333333333 0.10006666666666679 0.10006666666666679 -1.8999333333333333 -1.109866666666667 0.8901333333333333 0.8901333333333333 0.8901333333333333 0.8901333333333333 -1.109866666666667 0.8901333333333333 -1.109866666666667 -1.109866666666667 -1.109866666666667 -1.109866666666667 -1.109866666666667 0.8901333333333333 -1.109866666666667 -1.109866666666667 2.9563666666666664 2.9563666666666664 2.9563666666666664 0.9563666666666669 2.9563666666666664 0.9563666666666669 2.9563666666666664 2.9563666666666664 2.9563666666666664 0.9563666666666669 2.9563666666666664 0.9563666666666669 2.9563666666666664 0.9563666666666669 0.9563666666666669 -0.4895 1.5105000000000004 -0.4895 -0.4895 -0.4895 -0.4895 1.5105000000000004 1.5105000000000004 1.5105000000000004 -0.4895 1.5105000000000004 1.5105000000000004 -0.4895 1.5105000000000004 1.5105000000000004 0.8106666666666665 -1.1893333333333334 -1.1893333333333334 -1.1893333333333334 -1.1893333333333334 0.8106666666666665 -1.1893333333333334 -1.1893333333333334 -1.1893333333333334 0.8106666666666665 -1.1893333333333334 0.8106666666666665 0.8106666666666665 0.8106666666666665 0.8106666666666665 -0.024266666666666804 1.9757333333333333 -0.024266666666666804 -0.024266666666666804 -0.024266666666666804 -0.024266666666666804 -0.024266666666666804 1.9757333333333333 -0.024266666666666804 -0.024266666666666804 -0.024266666666666804 -0.024266666666666804 -0.024266666666666804 1.9757333333333333 1.9757333333333333
-0.9911000000000001 1.0089000000000001 1.0089000000000001 1.0089000000000001 -0.9911000000000001 1.0089000000000001 1.0089000000000001 -0.9911000000000001 -0.9911000000000001 -0.9911000000000001 1.0089000000000001 -0.9911000000000001 1.0089000000000001 1.0089000000000001 -0.9911000000000001 0.3825 0.3825 0.3825 0.3825 0.3825 -1.6175000000000002 -1.6175000000000002 0.3825 -1.6175000000000002 0.3825 0.3825 0.3825 0.3825 0.3825 -1.6175000000000002 1.645933333333333 3.645933333333334 3.645933333333334 3.645933333333334 1.645933333333333 1.645933333333333 1.645933333333333 1.645933333333333 3.645933333333334 3.645933333333334 1.645933333333333 3.645933333333334 1.645933333333333 1.645933333333333 3.645933333333334 -1.9735333333333331 0.026466666666666666 -1.9735333333333331 0.026466666666666666 -1.9735333333333331 0.026466666666666666 -1.9735333333333331 0.026466666666666666 -1.9735333333333331 0.026466666666666666 -1.9735333333333331 0.026466666666666666 -1.9735333333333331 0.026466666666666666 0.026466666666666666 -0.7238666666666667 -0.7238666666666667 -2.7238666666666664 -2.7238666666666664 -2.7238666666666664 -2.7238666666666664 -0.7238666666666667 -2.7238666666666664 -0.7238666666666667 -0.7238666666666667 -2.7238666666666664 -2.7238666666666664 -0.7238666666666667 -2.7238666666666664 -0.7238666666666667 -0.1226666666666667 -0.1226666666666667 -0.1226666666666667 -2.1226666666666665 -2.1226666666666665 -0.1226666666666667 -0.1226666666666667 -2.1226666666666665 -0.1226666666666667 -0.1226666666666667 -0.1226666666666667 -0.1226666666666667 -2.1226666666666665 -2.1226666666666665 -0.1226666666666667 5.1239 3.1239000000000003 5.1239 5.1239 3.1239000000000003 3.1239000000000003 3.1239000000000003 5.1239 5.1239 5.1239 5.1239 5.1239 5.1239 3.1239000000000003 3.1239000000000003 -0.003099999999999964 -0.003099999999999964 -2.0031000000000003 -2.0031000000000003 -0.003099999999999964 -2.0031000000000003 -2.0031000000000003 -0.003099999999999964 -2.0031000000000003 -2.0031000000000003 -0.003099999999999964 -2.0031000000000003 -2.0031000000000003 -0.003099999999999964 -0.003099999999999964 0.4380666666666666 0.4380666666666666 0.4380666666666666 2.4380666666666664 0.4380666666666666 2.4380666666666664 2.4380666666666664 2.4380666666666664 2.4380666666666664 2.4380666666666664 2.4380666666666664 2.4380666666666664 2.4380666666666664 0.4380666666666666 0.4380666666666666 -3.7761333333333327 -1.7761333333333333 -3.7761333333333327 -1.7761333333333333 -3.7761333333333327 -3.7761333333333327 -1.7761333333333333 -3.7761333333333327 -1.7761333333333333 -1.7761333333333333 -1.7761333333333333 -1.7761333333333333 -3.7761333333333327 -1.7761333333333333 -3.7761333333333327
-0.17989999999999995 -2.1799 -0.17989999999999995 -0.17989999999999995 -2.1799 -0.17989999999999995 -0.17989999999999995 -0.17989999999999995 -2.1799 -0.17989999999999995 -0.17989999999999995 -2.1799 -0.17989999999999995 -0.17989999999999995 -2.1799 -1.2678333333333336 -3.267833333333333 -1.2678333333333336 -1.2678333333333336 -3.267833333333333 -1.2678333333333336 -1.2678333333333336 -3.267833333333333 -3.267833333333333 -3.267833333333333 -1.2678333333333336 -1.2678333333333336 -3.267833333333333 -1.2678333333333336 -3.267833333333333 -0.27806666666666674 1.721933333333333 -0.27806666666666674 1.721933333333333 1.721933333333333 1.721933333333333 1.721933333333333 -0.27806666666666674 -0.27806666666666674 -0.27806666666666674 -0.27806666666666674 1.721933333333333 -0.27806666666666674 1.721933333333333 -0.27806666666666674 2.2118666666666664 2.2118666666666664 2.2118666666666664 2.2118666666666664 2.2118666666666664 2.2118666666666664 0.21186666666666654 2.2118666666666664 2.2118666666666664 2.2118666666666664 2.2118666666666664 2.2118666666666664 0.21186666666666654 2.2118666666666664 2.2118666666666664 0.16126666666666675 0.16126666666666675 0.16126666666666675 2.1612666666666662 0.16126666666666675 2.1612666666666662 0.16126666666666675 2.1612666666666662 2.1612666666666662 2.1612666666666662 0.16126666666666675 0.16126666666666675 0.16126666666666675 2.1612666666666662 2.1612666666666662 -0.9922666666666666 -0.9922666666666666 1.0077333333333334 1.0077333333333334 -0.9922666666666666 -0.9922666666666666 1.0077333333333334 -0.9922666666666666 -0.9922666666666666 -0.9922666666666666 1.0077333333333334 1.0077333333333334 -0.9922666666666666 -0.9922666666666666 -0.9922666666666666 -0.26303333333333334 -0.26303333333333334 -0.26303333333333334 1.7369666666666672 1.7369666666666672 1.7369666666666672 1.7369666666666672 -0.26303333333333334 -0.26303333333333334 1.7369666666666672 1.7369666666666672 -0.26303333333333334 -0.26303333333333334 1.7369666666666672 1.7369666666666672 -0.24530000000000013 -0.24530000000000013 -0.24530000000000013 1.7547 -0.24530000000000013 1.7547 -0.24530000000000013 1.7547 1.7547 -0.24530000000000013 -0.24530000000000013 1.7547 -0.24530000000000013 -0.24530000000000013 1.7547 -0.3786666666666667 -2.3786666666666667 -2.3786666666666667 -0.3786666666666667 -0.3786666666666667 -0.3786666666666667 -0.3786666666666667 -0.3786666666666667 -2.3786666666666667 -2.3786666666666667 -0.3786666666666667 -2.3786666666666667 -0.3786666666666667 -0.3786666666666667 -0.3786666666666667 -0.7680666666666667 1.2319333333333335 1.2319333333333335 1.2319333333333335 -0.7680666666666667 1.2319333333333335 1.2319333333333335 1.2319333333333335 1.2319333333333335 1.2319333333333335 1.2319333333333335 -0.7680666666666667 -0.7680666666666667 1.2319333333333335 1.2319333333333335
1.8188333333333333 -0.18116666666666673 1.8188333333333333 -0.18116666666666673 -0.18116666666666673 -0.18116666666666673 -0.18116666666666673 1.8188333333333333 -0.18116666666666673 -0.18116666666666673 -0.18116666666666673 -0.18116666666666673 1.8188333333333333 1.8188333333333333 1.8188333333333333 -0.23250000000000004 -2.2325 -0.23250000000000004 -0.23250000000000004 -0.23250000000000004 -0.23250000000000004 -2.2325 -0.23250000000000004 -0.23250000000000004 -0.23250000000000004 -0.23250000000000004 -2.2325 -0.23250000000000004 -0.23250000000000004 -2.2325 -0.5585333333333332 -0.5585333333333332 1.4414666666666665 1.4414666666666665 1.4414666666666665 -0.5585333333333332 1.4414666666666665 1.4414666666666665 1.4414666666666665 -0.5585333333333332 1.4414666666666665 -0.5585333333333332 -0.5585333333333332 -0.5585333333333332 1.4414666666666665 1.0666666666666667 1.0666666666666667 3.0666666666666664 3.0666666666666664 1.0666666666666667 1.0666666666666667 3.0666666666666664 3.0666666666666664 3.0666666666666664 1.0666666666666667 3.0666666666666664 3.0666666666666664 1.0666666666666667 1.0666666666666667 1.0666666666666667 -1.2764666666666669 -1.2764666666666669 0.7235333333333335 0.7235333333333335 -1.2764666666666669 -1.2764666666666669 0.7235333333333335 -1.2764666666666669 -1.2764666666666669 0.7235333333333335 0.7235333333333335 -1.2764666666666669 -1.2764666666666669 -1.2764666666666669 0.7235333333333335 0.6367333333333333 -1.3632666666666666 -1.3632666666666666 -1.3632666666666666 0.6367333333333333 -1.3632666666666666 -1.3632666666666666 0.6367333333333333 0.6367333333333333 0.6367333333333333 0.6367333333333333 -1.3632666666666666 -1.3632666666666666 0.6367333333333333 0.6367333333333333 1.8760333333333337 -0.1239666666666666 1.8760333333333337 1.8760333333333337 1.8760333333333337 1.8760333333333337 1.8760333333333337 1.8760333333333337 1.8760333333333337 -0.1239666666666666 1.8760333333333337 -0.1239666666666666 -0.1239666666666666 -0.1239666666666666 1.8760333333333337 -2.2647000000000004 -2.2647000000000004 -0.2647000000000001 -0.2647000000000001 -0.2647000000000001 -2.2647000000000004 -2.2647000000000004 -0.2647000000000001 -0.2647000000000001 -0.2647000000000001 -0.2647000000000001 -2.2647000000000004 -2.2647000000000004 -2.2647000000000004 -0.2647000000000001 -1.2276666666666667 -1.2276666666666667 -1.2276666666666667 -1.2276666666666667 -1.2276666666666667 -1.2276666666666667 0.7723333333333334 -1.2276666666666667 0.7723333333333334 0.7723333333333334 0.7723333333333334 0.7723333333333334 -1.2276666666666667 0.7723333333333334 -1.2276666666666667 -1.8384000000000003 -1.8384000000000003 -1.8384000000000003 -1.8384000000000003 0.16160000000000002 -1.8384000000000003 0.16160000000000002 0.16160000000000002 -1.8384000000000003 -1.8384000000000003 -1.8384000000000003 -1.8384000000000003 0.16160000000000002 0.16160000000000002 0.16160000000000002
0.9764333333333332 0.9764333333333332 -1.023566666666667 0.9764333333333332 0.9764333333333332 -1.023566666666667 -1.023566666666667 -1.023566666666667 0.9764333333333332 -1.023566666666667 0.9764333333333332 -1.023566666666667 -1.023566666666667 0.9764333333333332 -1.023566666666667 0.06590000000000001 -1.9341 -1.9341 0.06590000000000001 0.06590000000000001 0.06590000000000001 -1.9341 0.06590000000000001 0.06590000000000001 -1.9341 0.06590000000000001 -1.9341 -1.9341 -1.9341 -1.9341 2.720333333333333 2.720333333333333 0.7203333333333333 0.7203333333333333 2.720333333333333 2.720333333333333 2.720333333333333 2.720333333333333 0.7203333333333333 2.720333333333333 0.7203333333333333 0.7203333333333333 0.7203333333333333 0.7203333333333333 2.720333333333333 1.6254 3.6254 1.6254 3.6254 1.6254 1.6254 3.6254 1.6254 1.6254 3.6254 3.6254 3.6254 1.6254 1.6254 1.6254 -1.9713333333333334 0.028666666666666504 0.028666666666666504 0.028666666666666504 -1.9713333333333334 -1.9713333333333334 -1.9713333333333334 0.028666666666666504 -1.9713333333333334 -1.9713333333333334 0.028666666666666504 0.028666666666666504 -1.9713333333333334 -1.9713333333333334 -1.9713333333333334 -1.4597333333333333 -1.4597333333333333 0.5402666666666666 -1.4597333333333333 0.5402666666666666 -1.4597333333333333 -1.4597333333333333 -1.4597333333333333 0.5402666666666666 0.5402666666666666 -1.4597333333333333 0.5402666666666666 -1.4597333333333333 -1.4597333333333333 -1.4597333333333333 0.02923333333333334 0.02923333333333334 2.0292333333333334 0.02923333333333334 2.0292333333333334 0.02923333333333334 0.02923333333333334 2.0292333333333334 2.0292333333333334 2.0292333333333334 0.02923333333333334 2.0292333333333334 2.0292333333333334 2.0292333333333334 0.02923333333333334 -0.6561666666666665 -0.6561666666666665 -0.6561666666666665 -0.6561666666666665 -0.6561666666666665 -0.6561666666666665 -2.656166666666667 -2.656166666666667 -2.656166666666667 -2.656166666666667 -0.6561666666666665 -2.656166666666667 -0.6561666666666665 -2.656166666666667 -2.656166666666667 -0.042199999999999994 1.9578 1.9578 -0.042199999999999994 -0.042199999999999994 1.9578 -0.042199999999999994 -0.042199999999999994 1.9578 -0.042199999999999994 1.9578 -0.042199999999999994 1.9578 1.9578 1.9578 -1.2878666666666665 -3.2878666666666665 -1.2878666666666665 -3.2878666666666665 -1.2878666666666665 -3.2878666666666665 -3.2878666666666665 -1.2878666666666665 -1.2878666666666665 -3.2878666666666665 -1.2878666666666665 -3.2878666666666665 -3.2878666666666665 -1.2878666666666665 -1.2878666666666665
-0.22670000000000004 -2.2266999999999997 -0.22670000000000004 -2.2266999999999997 -2.2266999999999997 -0.22670000000000004 -2.2266999999999997 -0.22670000000000004 -0.22670000000000004 -2.2266999999999997 -0.22670000000000004 -2.2266999999999997 -0.22670000000000004 -2.2266999999999997 -0.22670000000000004 -1.3718333333333332 -3.3718333333333335 -3.3718333333333335 -3.3718333333333335 -3.3718333333333335 -3.3718333333333335 -1.3718333333333332 -1.3718333333333332 -1.3718333333333332 -3.3718333333333335 -1.3718333333333332 -1.3718333333333332 -3.3718333333333335 -1.3718333333333332 -3.3718333333333335 0.4536666666666667 0.4536666666666667 -1.5463333333333336 -1.5463333333333336 0.4536666666666667 0.4536666666666667 -1.5463333333333336 0.4536666666666667 -1.5463333333333336 -1.5463333333333336 0.4536666666666667 -1.5463333333333336 0.4536666666666667 0.4536666666666667 -1.5463333333333336 0.24 2.2399999999999998 2.2399999999999998 0.24 0.24 2.2399999999999998 0.24 0.24 0.24 0.24 0.24 0.24 2.2399999999999998 2.2399999999999998 0.24 3.0123333333333333 1.0123333333333333 1.0123333333333333 3.0123333333333333 1.0123333333333333 3.0123333333333333 1.0123333333333333 1.0123333333333333 1.0123333333333333 1.0123333333333333 3.0123333333333333 3.0123333333333333 1.0123333333333333 1.0123333333333333 1.0123333333333333 -0.13213333333333335 1.8678666666666666 -0.13213333333333335 -0.13213333333333335 1.8678666666666666 1.8678666666666666 1.8678666666666666 -0.13213333333333335 1.8678666666666666 -0.13213333333333335 -0.13213333333333335 1.8678666666666666 1.8678666666666666 1.8678666666666666 1.8678666666666666 0.3312333333333333 0.3312333333333333 2.331233333333333 2.331233333333333 2.331233333333333 2.331233333333333 0.3312333333333333 2.331233333333333 2.331233333333333 2.331233333333333 2.331233333333333 0.3312333333333333 2.331233333333333 0.3312333333333333 0.3312333333333333 -1.2221666666666666 -3.2221666666666664 -1.2221666666666666 -1.2221666666666666 -3.2221666666666664 -1.2221666666666666 -1.2221666666666666 -1.2221666666666666 -3.2221666666666664 -3.2221666666666664 -1.2221666666666666 -3.2221666666666664 -3.2221666666666664 -1.2221666666666666 -3.2221666666666664 -0.9922666666666666 -0.9922666666666666 1.0077333333333336 1.0077333333333336 1.0077333333333336 -0.9922666666666666 -0.9922666666666666 -0.9922666666666666 -0.9922666666666666 1.0077333333333336 1.0077333333333336 1.0077333333333336 -0.9922666666666666 1.0077333333333336 -0.9922666666666666 -0.0921333333333334 -0.0921333333333334 1.9078666666666668 1.9078666666666668 1.9078666666666668 -0.0921333333333334 -0.0921333333333334 1.9078666666666668 -0.0921333333333334 -0.0921333333333334 1.9078666666666668 -0.0921333333333334 1.9078666666666668 -0.0921333333333334 -0.0921333333333334
-0.8224333333333333 -0.8224333333333333 1.1775666666666667 -0.8224333333333333 1.1775666666666667 1.1775666666666667 -0.8224333333333333 -0.8224333333333333 1.1775666666666667 -0.8224333333333333 1.1775666666666667 -0.8224333333333333 -0.8224333333333333 -0.8224333333333333 1.1775666666666667 -0.05463333333333324 -0.05463333333333324 -2.0546333333333333 -2.0546333333333333 -0.05463333333333324 -0.05463333333333324 -0.05463333333333324 -0.05463333333333324 -0.05463333333333324 -0.05463333333333324 -2.0546333333333333 -0.05463333333333324 -0.05463333333333324 -0.05463333333333324 -2.0546333333333333 -0.19306666666666655 -0.19306666666666655 -0.19306666666666655 -0.19306666666666655 -0.19306666666666655 -2.1930666666666663 -2.1930666666666663 -2.1930666666666663 -2.1930666666666663 -2.1930666666666663 -2.1930666666666663 -2.1930666666666663 -2.1930666666666663 -2.1930666666666663 -0.19306666666666655 1.1091333333333333 1.1091333333333333 1.1091333333333333 1.1091333333333333 1.1091333333333333 -0.8908666666666666 1.1091333333333333 1.1091333333333333 1.1091333333333333 1.1091333333333333 -0.8908666666666666 1.1091333333333333 -0.8908666666666666 -0.8908666666666666 1.1091333333333333 -2.0580666666666665 -0.05806666666666669 -2.0580666666666665 -0.05806666666666669 -2.0580666666666665 -0.05806666666666669 -0.05806666666666669 -0.05806666666666669 -2.0580666666666665 -2.0580666666666665 -0.05806666666666669 -0.05806666666666669 -0.05806666666666669 -0.05806666666666669 -0.05806666666666669 0.6926666666666667 2.6926666666666668 2.6926666666666668 0.6926666666666667 0.6926666666666667 0.6926666666666667 2.6926666666666668 2.6926666666666668 2.6926666666666668 0.6926666666666667 2.6926666666666668 0.6926666666666667 0.6926666666666667 2.6926666666666668 2.6926666666666668 2.4795666666666674 2.4795666666666674 0.47956666666666664 2.4795666666666674 2.4795666666666674 0.47956666666666664 2.4795666666666674 2.4795666666666674 2.4795666666666674 0.47956666666666664 0.47956666666666664 2.4795666666666674 0.47956666666666664 2.4795666666666674 2.4795666666666674 -0.8034333333333332 1.1965666666666668 1.1965666666666668 -0.8034333333333332 -0.8034333333333332 -0.8034333333333332 1.1965666666666668 1.1965666666666668 -0.8034333333333332 1.1965666666666668 -0.8034333333333332 1.1965666666666668 1.1965666666666668 -0.8034333333333332 -0.8034333333333332 1.9846666666666668 1.9846666666666668 -0.015333333333333327 -0.015333333333333327 1.9846666666666668 1.9846666666666668 1.9846666666666668 1.9846666666666668 1.9846666666666668 1.9846666666666668 1.9846666666666668 -0.015333333333333327 1.9846666666666668 1.9846666666666668 1.9846666666666668 -0.3343999999999999 -2.3344 -0.3343999999999999 -0.3343999999999999 -0.3343999999999999 -0.3343999999999999 -0.3343999999999999 -2.3344 -0.3343999999999999 -0.3343999999999999 -0.3343999999999999 -0.3343999999999999 -2.3344 -2.3344 -0.3343999999999999
-2.1663666666666668 -2.1663666666666668 -2.1663666666666668 -0.16636666666666666 -0.16636666666666666 -0.16636666666666666 -0.16636666666666666 -0.16636666666666666 -2.1663666666666668 -2.1663666666666668 -0.16636666666666666 -2.1663666666666668 -0.16636666666666666 -2.1663666666666668 -2.1663666666666668 -1.9439 -1.9439 -1.9439 0.056100000000000066 -1.9439 0.056100000000000066 -1.9439 -1.9439 -1.9439 0.056100000000000066 -1.9439 0.056100000000000066 0.056100000000000066 -1.9439 -1.9439 0.5856666666666667 0.5856666666666667 2.5856666666666666 0.5856666666666667 2.5856666666666666 0.5856666666666667 0.5856666666666667 2.5856666666666666 0.5856666666666667 2.5856666666666666 2.5856666666666666 0.5856666666666667 0.5856666666666667 0.5856666666666667 2.5856666666666666 -1.9056666666666668 -1.9056666666666668 0.09433333333333321 0.09433333333333321 -1.9056666666666668 0.09433333333333321 0.09433333333333321 0.09433333333333321 -1.9056666666666668 0.09433333333333321 -1.9056666666666668 0.09433333333333321 0.09433333333333321 0.09433333333333321 -1.9056666666666668 2.8859333333333335 0.8859333333333332 2.8859333333333335 2.8859333333333335 2.8859333333333335 0.8859333333333332 2.8859333333333335 0.8859333333333332 2.8859333333333335 0.8859333333333332 2.8859333333333335 2.8859333333333335 0.8859333333333332 0.8859333333333332 0.8859333333333332 -0.12779999999999997 -2.1278 -2.1278 -0.12779999999999997 -2.1278 -0.12779999999999997 -0.12779999999999997 -0.12779999999999997 -0.12779999999999997 -2.1278 -2.1278 -0.12779999999999997 -2.1278 -2.1278 -2.1278 2.8379 0.8379000000000001 0.8379000000000001 2.8379 0.8379000000000001 2.8379 2.8379 0.8379000000000001 2.8379 0.8379000000000001 2.8379 2.8379 0.8379000000000001 0.8379000000000001 0.8379000000000001 -3.0999666666666674 -1.0999666666666665 -3.0999666666666674 -3.0999666666666674 -1.0999666666666665 -1.0999666666666665 -1.0999666666666665 -1.0999666666666665 -1.0999666666666665 -3.0999666666666674 -1.0999666666666665 -3.0999666666666674 -1.0999666666666665 -3.0999666666666674 -3.0999666666666674 0.1528 0.1528 0.1528 0.1528 0.1528 0.1528 2.1528 2.1528 2.1528 2.1528 2.1528 2.1528 0.1528 2.1528 0.1528 0.7814000000000002 -1.2186 0.7814000000000002 -1.2186 -1.2186 0.7814000000000002 0.7814000000000002 0.7814000000000002 -1.2186 -1.2186 0.7814000000000002 -1.2186 0.7814000000000002 0.7814000000000002 0.7814000000000002
-1.3061666666666667 0.6938333333333334 0.6938333333333334 -1.3061666666666667 0.6938333333333334 -1.3061666666666667 -1.3061666666666667 0.6938333333333334 -1.3061666666666667 0.6938333333333334 0.6938333333333334 0.6938333333333334 0.6938333333333334 -1.3061666666666667 0.6938333333333334 -0.29556666666666676 1.7044333333333337 -0.29556666666666676 -0.29556666666666676 1.7044333333333337 -0.29556666666666676 -0.29556666666666676 -0.29556666666666676 -0.29556666666666676 1.7044333333333337 -0.29556666666666676 1.7044333333333337 -0.29556666666666676 1.7044333333333337 1.7044333333333337 1.0492666666666668 -0.9507333333333337 1.0492666666666668 -0.9507333333333337 -0.9507333333333337 -0.9507333333333337 1.0492666666666668 1.0492666666666668 1.0492666666666668 -0.9507333333333337 -0.9507333333333337 1.0492666666666668 1.0492666666666668 -0.9507333333333337 -0.9507333333333337 -0.23546666666666707 1.764533333333333 1.764533333333333 1.764533333333333 -0.23546666666666707 1.764533333333333 -0.23546666666666707 -0.23546666666666707 1.764533333333333 1.764533333333333 1.764533333333333 -0.23546666666666707 1.764533333333333 1.764533333333333 1.764533333333333 1.1416666666666664 -0.8583333333333335 1.1416666666666664 -0.8583333333333335 1.1416666666666664 -0.8583333333333335 -0.8583333333333335 -0.8583333333333335 1.1416666666666664 -0.8583333333333335 1.1416666666666664 1.1416666666666664 1.1416666666666664 1.1416666666666664 1.1416666666666664 0.6005333333333336 0.6005333333333336 -1.3994666666666657 0.6005333333333336 -1.3994666666666657 -1.3994666666666657 0.6005333333333336 -1.3994666666666657 -1.3994666666666657 -1.3994666666666657 0.6005333333333336 -1.3994666666666657 -1.3994666666666657 0.6005333333333336 0.6005333333333336 1.2597666666666667 1.2597666666666667 1.2597666666666667 -0.7402333333333336 1.2597666666666667 1.2597666666666667 1.2597666666666667 1.2597666666666667 -0.7402333333333336 -0.7402333333333336 1.2597666666666667 1.2597666666666667 1.2597666666666667 -0.7402333333333336 1.2597666666666667 1.0149000000000001 -0.9850999999999996 -0.9850999999999996 1.0149000000000001 -0.9850999999999996 -0.9850999999999996 -0.9850999999999996 -0.9850999999999996 1.0149000000000001 -0.9850999999999996 1.0149000000000001 1.0149000000000001 1.0149000000000001 -0.9850999999999996 1.0149000000000001 0.10653333333333345 -1.8934666666666666 -1.8934666666666666 -1.8934666666666666 -1.8934666666666666 0.10653333333333345 -1.8934666666666666 -1.8934666666666666 0.10653333333333345 -1.8934666666666666 -1.8934666666666666 0.10653333333333345 0.10653333333333345 0.10653333333333345 0.10653333333333345 0.6645333333333334 0.6645333333333334 -1.3354666666666666 0.6645333333333334 0.6645333333333334 0.6645333333333334 -1.3354666666666666 -1.3354666666666666 -1.3354666666666666 0.6645333333333334 -1.3354666666666666 0.6645333333333334 -1.3354666666666666 -1.3354666666666666 0.6645333333333334
0.2741666666666667 0.2741666666666667 0.2741666666666667 0.2741666666666667 -1.725833333333333 0.2741666666666667 -1.725833333333333 -1.725833333333333 0.2741666666666667 -1.725833333333333 0.2741666666666667 -1.725833333333333 -1.725833333333333 -1.725833333333333 -1.725833333333333 -1.6006999999999996 0.3993000000000002 -1.6006999999999996 0.3993000000000002 -1.6006999999999996 0.3993000000000002 0.3993000000000002 0.3993000000000002 -1.6006999999999996 0.3993000000000002 0.3993000000000002 -1.6006999999999996 -1.6006999999999996 0.3993000000000002 -1.6006999999999996 0.017333333333333475 2.0173333333333336 0.017333333333333475 0.017333333333333475 2.0173333333333336 2.0173333333333336 0.017333333333333475 0.017333333333333475 2.0173333333333336 0.017333333333333475 2.0173333333333336 2.0173333333333336 0.017333333333333475 0.017333333333333475 2.0173333333333336 1.6550666666666667 3.6550666666666674 1.6550666666666667 3.6550666666666674 1.6550666666666667 1.6550666666666667 3.6550666666666674 1.6550666666666667 3.6550666666666674 3.6550666666666674 1.6550666666666667 3.6550666666666674 1.6550666666666667 1.6550666666666667 3.6550666666666674 0.9947333333333336 0.9947333333333336 -1.0052666666666668 0.9947333333333336 0.9947333333333336 0.9947333333333336 0.9947333333333336 -1.0052666666666668 -1.0052666666666668 0.9947333333333336 -1.0052666666666668 0.9947333333333336 -1.0052666666666668 0.9947333333333336 -1.0052666666666668 0.39626666666666677 0.39626666666666677 -1.6037333333333332 -1.6037333333333332 0.39626666666666677 -1.6037333333333332 -1.6037333333333332 -1.6037333333333332 -1.6037333333333332 -1.6037333333333332 -1.6037333333333332 0.39626666666666677 0.39626666666666677 -1.6037333333333332 0.39626666666666677 1.3023666666666662 1.3023666666666662 -0.6976333333333334 1.3023666666666662 1.3023666666666662 1.3023666666666662 -0.6976333333333334 -0.6976333333333334 1.3023666666666662 1.3023666666666662 1.3023666666666662 1.3023666666666662 1.3023666666666662 1.3023666666666662 -0.6976333333333334 0.5627666666666666 -1.4372333333333334 0.5627666666666666 0.5627666666666666 -1.4372333333333334 0.5627666666666666 0.5627666666666666 0.5627666666666666 -1.4372333333333334 -1.4372333333333334 -1.4372333333333334 -1.4372333333333334 0.5627666666666666 0.5627666666666666 0.5627666666666666 -1.7636666666666665 -1.7636666666666665 -1.7636666666666665 0.23633333333333345 0.23633333333333345 -1.7636666666666665 -1.7636666666666665 0.23633333333333345 -1.7636666666666665 -1.7636666666666665 -1.7636666666666665 -1.7636666666666665 0.23633333333333345 0.23633333333333345 -1.7636666666666665 0.16166666666666665 0.16166666666666665 0.16166666666666665 -1.8383333333333334 0.16166666666666665 0.16166666666666665 -1.8383333333333334 0.16166666666666665 -1.8383333333333334 -1.8383333333333334 0.16166666666666665 0.16166666666666665 -1.8383333333333334 -1.8383333333333334 -1.8383333333333334
-0.9177666666666666 1.0822333333333334 -0.9177666666666666 -0.9177666666666666 1.0822333333333334 -0.9177666666666666 1.0822333333333334 1.0822333333333334 1.0822333333333334 1.0822333333333334 1.0822333333333334 -0.9177666666666666 1.0822333333333334 -0.9177666666666666 -0.9177666666666666 -0.7591666666666667 -0.7591666666666667 -0.7591666666666667 1.2408333333333332 1.2408333333333332 1.2408333333333332 1.2408333333333332 1.2408333333333332 -0.7591666666666667 -0.7591666666666667 1.2408333333333332 1.2408333333333332 1.2408333333333332 -0.7591666666666667 -0.7591666666666667 -2.7478000000000007 -0.7478 -2.7478000000000007 -0.7478 -2.7478000000000007 -0.7478 -2.7478000000000007 -2.7478000000000007 -0.7478 -0.7478 -0.7478 -2.7478000000000007 -0.7478 -0.7478 -0.7478 1.8035333333333334 1.8035333333333334 1.8035333333333334 -0.19646666666666676 -0.19646666666666676 1.8035333333333334 -0.19646666666666676 -0.19646666666666676 1.8035333333333334 1.8035333333333334 1.8035333333333334 1.8035333333333334 -0.19646666666666676 -0.19646666666666676 -0.19646666666666676 0.18993333333333334 -1.8100666666666667 0.18993333333333334 -1.8100666666666667 -1.8100666666666667 0.18993333333333334 0.18993333333333334 0.18993333333333334 0.18993333333333334 0.18993333333333334 0.18993333333333334 -1.8100666666666667 -1.8100666666666667 0.18993333333333334 -1.8100666666666667 -0.09200000000000007 -0.09200000000000007 1.908 -0.09200000000000007 -0.09200000000000007 1.908 1.908 1.908 1.908 -0.09200000000000007 -0.09200000000000007 -0.09200000000000007 1.908 -0.09200000000000007 -0.09200000000000007 -2.976566666666667 -2.976566666666667 -2.976566666666667 -2.976566666666667 -0.9765666666666666 -0.9765666666666666 -2.976566666666667 -0.9765666666666666 -2.976566666666667 -0.9765666666666666 -2.976566666666667 -0.9765666666666666 -0.9765666666666666 -2.976566666666667 -2.976566666666667 1.6428333333333334 -0.3571666666666666 -0.3571666666666666 -0.3571666666666666 1.6428333333333334 1.6428333333333334 1.6428333333333334 -0.3571666666666666 -0.3571666666666666 -0.3571666666666666 -0.3571666666666666 1.6428333333333334 -0.3571666666666666 -0.3571666666666666 1.6428333333333334 0.6418666666666667 0.6418666666666667 2.641866666666667 0.6418666666666667 0.6418666666666667 0.6418666666666667 0.6418666666666667 0.6418666666666667 2.641866666666667 2.641866666666667 0.6418666666666667 0.6418666666666667 0.6418666666666667 2.641866666666667 2.641866666666667 1.2151333333333332 1.2151333333333332 -0.7848666666666667 1.2151333333333332 -0.7848666666666667 1.2151333333333332 -0.7848666666666667 -0.7848666666666667 -0.7848666666666667 1.2151333333333332 -0.7848666666666667 1.2151333333333332 1.2151333333333332 1.2151333333333332 1.2151333333333332
1.1226333333333334 -0.8773666666666666 1.1226333333333334 -0.8773666666666666 1.1226333333333334 1.1226333333333334 -0.8773666666666666 1.1226333333333334 1.1226333333333334 1.1226333333333334 1.1226333333333334 1.1226333333333334 -0.8773666666666666 1.1226333333333334 -0.8773666666666666 -1.3443666666666665 -1.3443666666666665 0.6556333333333333 -1.3443666666666665 -1.3443666666666665 0.6556333333333333 0.6556333333333333 -1.3443666666666665 -1.3443666666666665 0.6556333333333333 0.6556333333333333 0.6556333333333333 0.6556333333333333 -1.3443666666666665 -1.3443666666666665 -0.2048666666666668 -0.2048666666666668 1.7951333333333335 -0.2048666666666668 1.7951333333333335 -0.2048666666666668 -0.2048666666666668 -0.2048666666666668 1.7951333333333335 -0.2048666666666668 -0.2048666666666668 -0.2048666666666668 1.7951333333333335 -0.2048666666666668 1.7951333333333335 -0.40266666666666673 -0.40266666666666673 -0.40266666666666673 1.597333333333333 -0.40266666666666673 -0.40266666666666673 1.597333333333333 1.597333333333333 -0.40266666666666673 1.597333333333333 -0.40266666666666673 -0.40266666666666673 -0.40266666666666673 1.597333333333333 -0.40266666666666673 -2.499333333333333 -4.499333333333333 -4.499333333333333 -4.499333333333333 -4.499333333333333 -2.499333333333333 -2.499333333333333 -2.499333333333333 -4.499333333333333 -2.499333333333333 -2.499333333333333 -2.499333333333333 -4.499333333333333 -4.499333333333333 -4.499333333333333 0.6655333333333332 -1.3344666666666665 0.6655333333333332 0.6655333333333332 0.6655333333333332 0.6655333333333332 -1.3344666666666665 -1.3344666666666665 -1.3344666666666665 0.6655333333333332 -1.3344666666666665 0.6655333333333332 0.6655333333333332 -1.3344666666666665 0.6655333333333332 1.3128333333333333 -0.6871666666666666 1.3128333333333333 -0.6871666666666666 1.3128333333333333 -0.6871666666666666 -0.6871666666666666 -0.6871666666666666 1.3128333333333333 -0.6871666666666666 1.3128333333333333 -0.6871666666666666 -0.6871666666666666 -0.6871666666666666 -0.6871666666666666 -1.8727666666666667 0.12723333333333334 0.12723333333333334 -1.8727666666666667 -1.8727666666666667 -1.8727666666666667 -1.8727666666666667 0.12723333333333334 0.12723333333333334 -1.8727666666666667 -1.8727666666666667 0.12723333333333334 -1.8727666666666667 0.12723333333333334 0.12723333333333334 1.946666666666667 -0.0533333333333333 1.946666666666667 1.946666666666667 -0.0533333333333333 -0.0533333333333333 -0.0533333333333333 1.946666666666667 1.946666666666667 -0.0533333333333333 -0.0533333333333333 1.946666666666667 -0.0533333333333333 -0.0533333333333333 -0.0533333333333333 1.2763333333333333 3.276333333333333 3.276333333333333 1.2763333333333333 1.2763333333333333 1.2763333333333333 1.2763333333333333 1.2763333333333333 3.276333333333333 1.2763333333333333 1.2763333333333333 1.2763333333333333 1.2763333333333333 1.2763333333333333 1.2763333333333333
-1.3228333333333333 -1.3228333333333333 0.6771666666666667 0.6771666666666667 -1.3228333333333333 0.6771666666666667 0.6771666666666667 0.6771666666666667 -1.3228333333333333 -1.3228333333333333 -1.3228333333333333 -1.3228333333333333 -1.3228333333333333 -1.3228333333333333 -1.3228333333333333 2.9933000000000005 0.9933000000000001 0.9933000000000001 2.9933000000000005 2.9933000000000005 2.9933000000000005 2.9933000000000005 0.9933000000000001 2.9933000000000005 0.9933000000000001 0.9933000000000001 2.9933000000000005 0.9933000000000001 0.9933000000000001 0.9933000000000001 0.010400000000000006 -1.9896000000000003 0.010400000000000006 0.010400000000000006 -1.9896000000000003 0.010400000000000006 -1.9896000000000003 0.010400000000000006 -1.9896000000000003 0.010400000000000006 -1.9896000000000003 0.010400000000000006 -1.9896000000000003 -1.9896000000000003 0.010400000000000006 0.2886 0.2886 2.2885999999999997 2.2885999999999997 2.2885999999999997 0.2886 0.2886 2.2885999999999997 0.2886 2.2885999999999997 0.2886 2.2885999999999997 0.2886 0.2886 2.2885999999999997 -2.177333333333333 -2.177333333333333 -2.177333333333333 -0.17733333333333345 -2.177333333333333 -0.17733333333333345 -2.177333333333333 -2.177333333333333 -2.177333333333333 -0.17733333333333345 -2.177333333333333 -0.17733333333333345 -0.17733333333333345 -2.177333333333333 -2.177333333333333 -0.7010666666666668 -0.7010666666666668 -0.7010666666666668 1.298933333333333 -0.7010666666666668 -0.7010666666666668 -0.7010666666666668 -0.7010666666666668 -0.7010666666666668 -0.7010666666666668 1.298933333333333 1.298933333333333 -0.7010666666666668 -0.7010666666666668 1.298933333333333 0.7173666666666664 -1.2826333333333335 0.7173666666666664 0.7173666666666664 -1.2826333333333335 -1.2826333333333335 -1.2826333333333335 -1.2826333333333335 -1.2826333333333335 0.7173666666666664 -1.2826333333333335 -1.2826333333333335 -1.2826333333333335 -1.2826333333333335 -1.2826333333333335 1.6313666666666664 -0.36863333333333337 -0.36863333333333337 -0.36863333333333337 1.6313666666666664 -0.36863333333333337 1.6313666666666664 -0.36863333333333337 -0.36863333333333337 1.6313666666666664 -0.36863333333333337 1.6313666666666664 1.6313666666666664 -0.36863333333333337 -0.36863333333333337 0.3751333333333333 0.3751333333333333 0.3751333333333333 0.3751333333333333 -1.624866666666667 -1.624866666666667 0.3751333333333333 0.3751333333333333 -1.624866666666667 0.3751333333333333 0.3751333333333333 -1.624866666666667 0.3751333333333333 0.3751333333333333 -1.624866666666667 -1.8149333333333333 -1.8149333333333333 0.1850666666666667 0.1850666666666667 -1.8149333333333333 0.1850666666666667 -1.8149333333333333 -1.8149333333333333 0.1850666666666667 0.1850666666666667 0.1850666666666667 -1.8149333333333333 -1.8149333333333333 -1.8149333333333333 -1.8149333333333333
0.7638333333333331 0.7638333333333331 0.7638333333333331 -1.2361666666666664 -1.2361666666666664 -1.2361666666666664 0.7638333333333331 -1.2361666666666664 0.7638333333333331 0.7638333333333331 -1.2361666666666664 0.7638333333333331 0.7638333333333331 -1.2361666666666664 0.7638333333333331 1.154566666666667 -0.8454333333333333 1.154566666666667 -0.8454333333333333 1.154566666666667 -0.8454333333333333 1.154566666666667 1.154566666666667 1.154566666666667 -0.8454333333333333 -0.8454333333333333 1.154566666666667 1.154566666666667 1.154566666666667 -0.8454333333333333 -0.47439999999999993 -0.47439999999999993 -0.47439999999999993 1.5256 -0.47439999999999993 1.5256 1.5256 -0.47439999999999993 1.5256 1.5256 -0.47439999999999993 -0.47439999999999993 -0.47439999999999993 1.5256 -0.47439999999999993 3.2179333333333338 3.2179333333333338 1.217933333333333 3.2179333333333338 1.217933333333333 3.2179333333333338 3.2179333333333338 3.2179333333333338 1.217933333333333 3.2179333333333338 1.217933333333333 1.217933333333333 3.2179333333333338 1.217933333333333 1.217933333333333 -1.2758666666666665 0.7241333333333334 -1.2758666666666665 -1.2758666666666665 -1.2758666666666665 -1.2758666666666665 0.7241333333333334 -1.2758666666666665 -1.2758666666666665 0.7241333333333334 -1.2758666666666665 0.7241333333333334 -1.2758666666666665 0.7241333333333334 0.7241333333333334 0.9110666666666666 0.9110666666666666 -1.0889333333333335 -1.0889333333333335 -1.0889333333333335 -1.0889333333333335 -1.0889333333333335 0.9110666666666666 0.9110666666666666 -1.0889333333333335 0.9110666666666666 -1.0889333333333335 0.9110666666666666 -1.0889333333333335 -1.0889333333333335 -1.2439 -1.2439 -1.2439 -1.2439 -1.2439 0.7561000000000002 0.7561000000000002 0.7561000000000002 -1.2439 0.7561000000000002 0.7561000000000002 -1.2439 0.7561000000000002 0.7561000000000002 0.7561000000000002 -1.503366666666667 0.49663333333333337 -1.503366666666667 -1.503366666666667 0.49663333333333337 -1.503366666666667 -1.503366666666667 0.49663333333333337 -1.503366666666667 0.49663333333333337 -1.503366666666667 0.49663333333333337 0.49663333333333337 0.49663333333333337 0.49663333333333337 -1.659866666666667 -1.659866666666667 0.3401333333333333 0.3401333333333333 0.3401333333333333 0.3401333333333333 -1.659866666666667 -1.659866666666667 -1.659866666666667 0.3401333333333333 -1.659866666666667 -1.659866666666667 0.3401333333333333 0.3401333333333333 -1.659866666666667 -1.8900000000000001 -1.8900000000000001 -1.8900000000000001 0.10999999999999999 0.10999999999999999 0.10999999999999999 0.10999999999999999 0.10999999999999999 -1.8900000000000001 -1.8900000000000001 0.10999999999999999 0.10999999999999999 0.10999999999999999 -1.8900000000000001 0.10999999999999999
-1.6335666666666668 -1.6335666666666668 -1.6335666666666668 -1.6335666666666668 0.3664333333333332 0.3664333333333332 0.3664333333333332 0.3664333333333332 -1.6335666666666668 -1.6335666666666668 -1.6335666666666668 -1.6335666666666668 0.3664333333333332 0.3664333333333332 0.3664333333333332 -0.23209999999999986 -0.23209999999999986 1.7678999999999998 -0.23209999999999986 1.7678999999999998 1.7678999999999998 1.7678999999999998 1.7678999999999998 -0.23209999999999986 1.7678999999999998 -0.23209999999999986 -0.23209999999999986 -0.23209999999999986 -0.23209999999999986 -0.23209999999999986 -1.0010666666666668 -1.0010666666666668 -1.0010666666666668 0.9989333333333329 -1.0010666666666668 0.9989333333333329 -1.0010666666666668 -1.0010666666666668 -1.0010666666666668 0.9989333333333329 0.9989333333333329 -1.0010666666666668 -1.0010666666666668 -1.0010666666666668 -1.0010666666666668 -0.15633333333333366 1.8436666666666666 1.8436666666666666 -0.15633333333333366 -0.15633333333333366 1.8436666666666666 1.8436666666666666 -0.15633333333333366 1.8436666666666666 1.8436666666666666 1.8436666666666666 -0.15633333333333366 -0.15633333333333366 1.8436666666666666 -0.15633333333333366 -0.8091999999999998 -0.8091999999999998 1.1907999999999996 1.1907999999999996 1.1907999999999996 1.1907999999999996 -0.8091999999999998 1.1907999999999996 -0.8091999999999998 1.1907999999999996 1.1907999999999996 -0.8091999999999998 1.1907999999999996 -0.8091999999999998 1.1907999999999996 -1.3600666666666668 0.6399333333333332 0.6399333333333332 0.6399333333333332 0.6399333333333332 0.6399333333333332 0.6399333333333332 0.6399333333333332 -1.3600666666666668 0.6399333333333332 0.6399333333333332 -1.3600666666666668 0.6399333333333332 0.6399333333333332 -1.3600666666666668 1.3437666666666663 1.3437666666666663 1.3437666666666663 -0.6562333333333336 1.3437666666666663 1.3437666666666663 -0.6562333333333336 1.3437666666666663 -0.6562333333333336 1.3437666666666663 1.3437666666666663 1.3437666666666663 1.3437666666666663 -0.6562333333333336 -0.6562333333333336 1.1027 -0.8972999999999999 -0.8972999999999999 1.1027 -0.8972999999999999 -0.8972999999999999 1.1027 -0.8972999999999999 1.1027 1.1027 1.1027 1.1027 -0.8972999999999999 -0.8972999999999999 1.1027 0.04833333333333332 -1.9516666666666669 0.04833333333333332 -1.9516666666666669 -1.9516666666666669 0.04833333333333332 0.04833333333333332 0.04833333333333332 -1.9516666666666669 0.04833333333333332 0.04833333333333332 0.04833333333333332 0.04833333333333332 0.04833333333333332 0.04833333333333332 0.6975333333333333 0.6975333333333333 0.6975333333333333 0.6975333333333333 0.6975333333333333 -1.3024666666666669 0.6975333333333333 -1.3024666666666669 0.6975333333333333 -1.3024666666666669 0.6975333333333333 -1.3024666666666669 0.6975333333333333 0.6975333333333333 -1.3024666666666669
2.5089 0.5089000000000001 2.5089 0.5089000000000001 0.5089000000000001 0.5089000000000001 2.5089 0.5089000000000001 2.5089 0.5089000000000001 0.5089000000000001 2.5089 0.5089000000000001 2.5089 2.5089 -2.0479666666666665 -2.0479666666666665 -2.0479666666666665 -2.0479666666666665 -0.04796666666666673 -0.04796666666666673 -2.0479666666666665 -2.0479666666666665 -2.0479666666666665 -0.04796666666666673 -0.04796666666666673 -0.04796666666666673 -2.0479666666666665 -0.04796666666666673 -0.04796666666666673 -0.9288666666666666 -2.9288666666666665 -2.9288666666666665 -0.9288666666666666 -0.9288666666666666 -0.9288666666666666 -2.9288666666666665 -2.9288666666666665 -2.9288666666666665 -0.9288666666666666 -2.9288666666666665 -0.9288666666666666 -2.9288666666666665 -0.9288666666666666 -2.9288666666666665 -1.0851333333333333 -1.0851333333333333 0.9148666666666669 -1.0851333333333333 0.9148666666666669 0.9148666666666669 -1.0851333333333333 -1.0851333333333333 -1.0851333333333333 -1.0851333333333333 0.9148666666666669 0.9148666666666669 0.9148666666666669 0.9148666666666669 0.9148666666666669 3.618866666666667 1.6188666666666662 1.6188666666666662 1.6188666666666662 3.618866666666667 1.6188666666666662 1.6188666666666662 1.6188666666666662 3.618866666666667 1.6188666666666662 3.618866666666667 1.6188666666666662 1.6188666666666662 1.6188666666666662 1.6188666666666662 0.5946666666666666 0.5946666666666666 -1.4053333333333333 0.5946666666666666 0.5946666666666666 0.5946666666666666 0.5946666666666666 -1.4053333333333333 -1.4053333333333333 0.5946666666666666 0.5946666666666666 0.5946666666666666 0.5946666666666666 -1.4053333333333333 0.5946666666666666 2.0774333333333335 2.0774333333333335 2.0774333333333335 2.0774333333333335 0.0774333333333332 2.0774333333333335 2.0774333333333335 0.0774333333333332 0.0774333333333332 0.0774333333333332 0.0774333333333332 2.0774333333333335 2.0774333333333335 2.0774333333333335 2.0774333333333335 -0.45630000000000004 -2.4563 -0.45630000000000004 -0.45630000000000004 -2.4563 -2.4563 -0.45630000000000004 -0.45630000000000004 -2.4563 -0.45630000000000004 -2.4563 -2.4563 -0.45630000000000004 -0.45630000000000004 -2.4563 -0.30533333333333323 -0.30533333333333323 -0.30533333333333323 -2.305333333333333 -2.305333333333333 -2.305333333333333 -0.30533333333333323 -0.30533333333333323 -0.30533333333333323 -2.305333333333333 -0.30533333333333323 -2.305333333333333 -0.30533333333333323 -2.305333333333333 -0.30533333333333323 0.023733333333333273 2.023733333333333 0.023733333333333273 0.023733333333333273 2.023733333333333 0.023733333333333273 2.023733333333333 0.023733333333333273 2.023733333333333 2.023733333333333 0.023733333333333273 2.023733333333333 2.023733333333333 2.023733333333333 2.023733333333333
1.9330999999999996 -0.06690000000000004 -0.06690000000000004 -0.06690000000000004 1.9330999999999996 -0.06690000000000004 1.9330999999999996 1.9330999999999996 1.9330999999999996 -0.06690000000000004 -0.06690000000000004 -0.06690000000000004 -0.06690000000000004 -0.06690000000000004 1.9330999999999996 0.23536666666666647 0.23536666666666647 -1.7646333333333335 -1.7646333333333335 0.23536666666666647 -1.7646333333333335 0.23536666666666647 0.23536666666666647 -1.7646333333333335 -1.7646333333333335 -1.7646333333333335 0.23536666666666647 0.23536666666666647 -1.7646333333333335 -1.7646333333333335 0.17419999999999994 -1.8258 0.17419999999999994 -1.8258 -1.8258 0.17419999999999994 0.17419999999999994 0.17419999999999994 -1.8258 0.17419999999999994 0.17419999999999994 0.17419999999999994 0.17419999999999994 -1.8258 -1.8258 0.19693333333333324 2.196933333333333 2.196933333333333 0.19693333333333324 2.196933333333333 2.196933333333333 0.19693333333333324 0.19693333333333324 0.19693333333333324 2.196933333333333 0.19693333333333324 0.19693333333333324 0.19693333333333324 0.19693333333333324 0.19693333333333324 -0.20393333333333333 1.7960666666666667 -0.20393333333333333 -0.20393333333333333 1.7960666666666667 -0.20393333333333333 1.7960666666666667 1.7960666666666667 1.7960666666666667 -0.20393333333333333 -0.20393333333333333 1.7960666666666667 -0.20393333333333333 -0.20393333333333333 -0.20393333333333333 -2.316733333333334 -0.3167333333333334 -2.316733333333334 -0.3167333333333334 -0.3167333333333334 -2.316733333333334 -2.316733333333334 -0.3167333333333334 -0.3167333333333334 -0.3167333333333334 -0.3167333333333334 -0.3167333333333334 -0.3167333333333334 -0.3167333333333334 -2.316733333333334 1.4454333333333336 1.4454333333333336 1.4454333333333336 3.445433333333334 1.4454333333333336 3.445433333333334 3.445433333333334 3.445433333333334 1.4454333333333336 1.4454333333333336 3.445433333333334 1.4454333333333336 1.4454333333333336 3.445433333333334 1.4454333333333336 -1.1138333333333335 0.8861666666666665 0.8861666666666665 -1.1138333333333335 0.8861666666666665 -1.1138333333333335 -1.1138333333333335 -1.1138333333333335 0.8861666666666665 0.8861666666666665 -1.1138333333333335 0.8861666666666665 0.8861666666666665 -1.1138333333333335 0.8861666666666665 -0.3032 -2.3032000000000004 -0.3032 -0.3032 -2.3032000000000004 -2.3032000000000004 -0.3032 -2.3032000000000004 -0.3032 -0.3032 -2.3032000000000004 -0.3032 -0.3032 -2.3032000000000004 -2.3032000000000004 -2.0473333333333334 -0.04733333333333332 -2.0473333333333334 -2.0473333333333334 -2.0473333333333334 -2.0473333333333334 -0.04733333333333332 -2.0473333333333334 -2.0473333333333334 -0.04733333333333332 -0.04733333333333332 -0.04733333333333332 -2.0473333333333334 -0.04733333333333332 -2.0473333333333334
-0.0001666666666667047 -0.0001666666666667047 1.9998333333333331 -0.0001666666666667047 -0.0001666666666667047 1.9998333333333331 1.9998333333333331 1.9998333333333331 -0.0001666666666667047 1.9998333333333331 -0.0001666666666667047 -0.0001666666666667047 1.9998333333333331 -0.0001666666666667047 1.9998333333333331 -0.9733666666666668 -2.9733666666666663 -2.9733666666666663 -0.9733666666666668 -0.9733666666666668 -0.9733666666666668 -0.9733666666666668 -2.9733666666666663 -2.9733666666666663 -0.9733666666666668 -2.9733666666666663 -0.9733666666666668 -0.9733666666666668 -2.9733666666666663 -0.9733666666666668 -2.7206 -2.7206 -2.7206 -2.7206 -0.7205999999999999 -0.7205999999999999 -2.7206 -2.7206 -2.7206 -0.7205999999999999 -0.7205999999999999 -2.7206 -2.7206 -2.7206 -0.7205999999999999 -0.7733333333333332 -2.7733333333333334 -2.7733333333333334 -0.7733333333333332 -0.7733333333333332 -0.7733333333333332 -2.7733333333333334 -2.7733333333333334 -0.7733333333333332 -2.7733333333333334 -2.7733333333333334 -2.7733333333333334 -2.7733333333333334 -2.7733333333333334 -0.7733333333333332 -0.48020000000000007 -0.48020000000000007 -0.48020000000000007 -0.48020000000000007 -0.48020000000000007 1.5197999999999998 1.5197999999999998 -0.48020000000000007 1.5197999999999998 -0.48020000000000007 -0.48020000000000007 1.5197999999999998 1.5197999999999998 -0.48020000000000007 1.5197999999999998 1.7885333333333335 1.7885333333333335 -0.21146666666666672 -0.21146666666666672 -0.21146666666666672 -0.21146666666666672 1.7885333333333335 1.7885333333333335 -0.21146666666666672 -0.21146666666666672 1.7885333333333335 -0.21146666666666672 -0.21146666666666672 1.7885333333333335 -0.21146666666666672 1.6802999999999997 1.6802999999999997 1.6802999999999997 1.6802999999999997 -0.31969999999999993 1.6802999999999997 -0.31969999999999993 1.6802999999999997 -0.31969999999999993 -0.31969999999999993 1.6802999999999997 1.6802999999999997 1.6802999999999997 -0.31969999999999993 -0.31969999999999993 1.857166666666667 -0.14283333333333323 -0.14283333333333323 1.857166666666667 1.857166666666667 -0.14283333333333323 1.857166666666667 -0.14283333333333323 -0.14283333333333323 1.857166666666667 1.857166666666667 -0.14283333333333323 -0.14283333333333323 -0.14283333333333323 -0.14283333333333323 2.0164 2.0164 0.01639999999999999 2.0164 0.01639999999999999 2.0164 2.0164 0.01639999999999999 0.01639999999999999 0.01639999999999999 2.0164 0.01639999999999999 2.0164 0.01639999999999999 0.01639999999999999 1.6052666666666664 1.6052666666666664 -0.3947333333333333 1.6052666666666664 -0.3947333333333333 1.6052666666666664 1.6052666666666664 1.6052666666666664 1.6052666666666664 1.6052666666666664 1.6052666666666664 1.6052666666666664 1.6052666666666664 -0.3947333333333333 1.6052666666666664
-0.38076666666666664 -0.38076666666666664 -0.38076666666666664 -0.38076666666666664 -0.38076666666666664 -2.3807666666666667 -2.3807666666666667 -0.38076666666666664 -2.3807666666666667 -0.38076666666666664 -0.38076666666666664 -2.3807666666666667 -0.38076666666666664 -2.3807666666666667 -2.3807666666666667 -1.5003666666666666 0.49963333333333343 -1.5003666666666666 0.49963333333333343 0.49963333333333343 0.49963333333333343 0.49963333333333343 -1.5003666666666666 -1.5003666666666666 -1.5003666666666666 0.49963333333333343 -1.5003666666666666 -1.5003666666666666 0.49963333333333343 -1.5003666666666666 -2.416466666666667 -0.41646666666666654 -2.416466666666667 -2.416466666666667 -2.416466666666667 -0.41646666666666654 -2.416466666666667 -2.416466666666667 -0.41646666666666654 -0.41646666666666654 -0.41646666666666654 -2.416466666666667 -2.416466666666667 -2.416466666666667 -2.416466666666667 0.16886666666666655 2.1688666666666667 0.16886666666666655 0.16886666666666655 0.16886666666666655 2.1688666666666667 2.1688666666666667 0.16886666666666655 0.16886666666666655 0.16886666666666655 2.1688666666666667 2.1688666666666667 0.16886666666666655 0.16886666666666655 2.1688666666666667 -1.476133333333333 -1.476133333333333 0.5238666666666668 0.5238666666666668 -1.476133333333333 -1.476133333333333 0.5238666666666668 -1.476133333333333 -1.476133333333333 -1.476133333333333 0.5238666666666668 0.5238666666666668 -1.476133333333333 -1.476133333333333 0.5238666666666668 -0.20606666666666654 -0.20606666666666654 -0.20606666666666654 -0.20606666666666654 -0.20606666666666654 -0.20606666666666654 1.7939333333333332 -0.20606666666666654 -0.20606666666666654 1.7939333333333332 -0.20606666666666654 -0.20606666666666654 1.7939333333333332 -0.20606666666666654 1.7939333333333332 0.15489999999999954 0.15489999999999954 -1.8451000000000004 0.15489999999999954 -1.8451000000000004 -1.8451000000000004 0.15489999999999954 0.15489999999999954 -1.8451000000000004 -1.8451000000000004 -1.8451000000000004 -1.8451000000000004 0.15489999999999954 -1.8451000000000004 0.15489999999999954 0.01629999999999999 0.01629999999999999 0.01629999999999999 0.01629999999999999 2.0162999999999998 2.0162999999999998 0.01629999999999999 0.01629999999999999 2.0162999999999998 2.0162999999999998 2.0162999999999998 0.01629999999999999 2.0162999999999998 0.01629999999999999 2.0162999999999998 1.3669333333333331 1.3669333333333331 1.3669333333333331 -0.6330666666666667 1.3669333333333331 -0.6330666666666667 -0.6330666666666667 1.3669333333333331 1.3669333333333331 1.3669333333333331 -0.6330666666666667 -0.6330666666666667 1.3669333333333331 -0.6330666666666667 1.3669333333333331 0.2728000000000001 0.2728000000000001 2.2727999999999997 0.2728000000000001 0.2728000000000001 2.2727999999999997 0.2728000000000001 0.2728000000000001 2.2727999999999997 0.2728000000000001 0.2728000000000001 2.2727999999999997 0.2728000000000001 2.2727999999999997 0.2728000000000001
-2.9793000000000007 -2.9793000000000007 -2.9793000000000007 -2.9793000000000007 -2.9793000000000007 -2.9793000000000007 -2.9793000000000007 -2.9793000000000007 -0.9793000000000001 -0.9793000000000001 -0.9793000000000001 -0.9793000000000001 -0.9793000000000001 -0.9793000000000001 -2.9793000000000007 -3.1343666666666663 -3.1343666666666663 -1.1343666666666665 -3.1343666666666663 -1.1343666666666665 -1.1343666666666665 -1.1343666666666665 -3.1343666666666663 -3.1343666666666663 -3.1343666666666663 -1.1343666666666665 -1.1343666666666665 -1.1343666666666665 -3.1343666666666663 -1.1343666666666665 -0.6059333333333331 1.394066666666667 1.394066666666667 -0.6059333333333331 -0.6059333333333331 1.394066666666667 -0.6059333333333331 -0.6059333333333331 1.394066666666667 1.394066666666667 -0.6059333333333331 1.394066666666667 -0.6059333333333331 -0.6059333333333331 -0.6059333333333331 2.8152 0.8152 0.8152 0.8152 0.8152 0.8152 0.8152 0.8152 2.8152 0.8152 2.8152 2.8152 2.8152 2.8152 0.8152 1.8626666666666667 -0.13733333333333314 1.8626666666666667 1.8626666666666667 1.8626666666666667 -0.13733333333333314 1.8626666666666667 -0.13733333333333314 1.8626666666666667 1.8626666666666667 1.8626666666666667 1.8626666666666667 1.8626666666666667 -0.13733333333333314 1.8626666666666667 -0.9586 -2.9585999999999997 -0.9586 -2.9585999999999997 -0.9586 -2.9585999999999997 -2.9585999999999997 -2.9585999999999997 -0.9586 -0.9586 -0.9586 -0.9586 -0.9586 -2.9585999999999997 -2.9585999999999997 -1.6750999999999998 0.3249 0.3249 -1.6750999999999998 -1.6750999999999998 -1.6750999999999998 0.3249 -1.6750999999999998 0.3249 -1.6750999999999998 -1.6750999999999998 -1.6750999999999998 -1.6750999999999998 0.3249 -1.6750999999999998 0.32870000000000027 0.32870000000000027 2.3286999999999995 2.3286999999999995 0.32870000000000027 2.3286999999999995 0.32870000000000027 2.3286999999999995 0.32870000000000027 0.32870000000000027 2.3286999999999995 0.32870000000000027 0.32870000000000027 0.32870000000000027 2.3286999999999995 1.2319999999999998 -0.768 -0.768 1.2319999999999998 -0.768 1.2319999999999998 -0.768 -0.768 1.2319999999999998 1.2319999999999998 1.2319999999999998 1.2319999999999998 -0.768 1.2319999999999998 1.2319999999999998 1.1147333333333331 1.1147333333333331 3.1147333333333327 3.1147333333333327 1.1147333333333331 3.1147333333333327 3.1147333333333327 3.1147333333333327 1.1147333333333331 1.1147333333333331 3.1147333333333327 3.1147333333333327 3.1147333333333327 3.1147333333333327 1.1147333333333331
-0.47889999999999994 1.5211 1.5211 1.5211 -0.47889999999999994 -0.47889999999999994 1.5211 1.5211 1.5211 -0.47889999999999994 1.5211 -0.47889999999999994 1.5211 1.5211 -0.47889999999999994 -2.3064999999999998 -0.3065000000000001 -2.3064999999999998 -0.3065000000000001 -0.3065000000000001 -0.3065000000000001 -0.3065000000000001 -0.3065000000000001 -2.3064999999999998 -0.3065000000000001 -0.3065000000000001 -2.3064999999999998 -2.3064999999999998 -0.3065000000000001 -0.3065000000000001 -1.4666666666666668 0.5333333333333335 0.5333333333333335 0.5333333333333335 -1.4666666666666668 0.5333333333333335 -1.4666666666666668 0.5333333333333335 -1.4666666666666668 0.5333333333333335 0.5333333333333335 0.5333333333333335 0.5333333333333335 0.5333333333333335 0.5333333333333335 1.5581333333333334 1.5581333333333334 1.5581333333333334 1.5581333333333334 1.5581333333333334 -0.4418666666666664 1.5581333333333334 1.5581333333333334 -0.4418666666666664 -0.4418666666666664 -0.4418666666666664 -0.4418666666666664 -0.4418666666666664 1.5581333333333334 -0.4418666666666664 -0.241 -0.241 -0.241 -0.241 -0.241 1.7590000000000001 -0.241 -0.241 1.7590000000000001 -0.241 1.7590000000000001 1.7590000000000001 1.7590000000000001 1.7590000000000001 1.7590000000000001 -2.125866666666667 -2.125866666666667 -2.125866666666667 -0.1258666666666666 -0.1258666666666666 -2.125866666666667 -2.125866666666667 -2.125866666666667 -2.125866666666667 -2.125866666666667 -2.125866666666667 -2.125866666666667 -2.125866666666667 -0.1258666666666666 -2.125866666666667 -2.6052999999999997 -2.6052999999999997 -0.6053000000000001 -0.6053000000000001 -0.6053000000000001 -2.6052999999999997 -0.6053000000000001 -2.6052999999999997 -2.6052999999999997 -2.6052999999999997 -0.6053000000000001 -2.6052999999999997 -0.6053000000000001 -0.6053000000000001 -2.6052999999999997 1.8340333333333327 -0.1659666666666667 1.8340333333333327 1.8340333333333327 1.8340333333333327 1.8340333333333327 -0.1659666666666667 -0.1659666666666667 -0.1659666666666667 1.8340333333333327 -0.1659666666666667 1.8340333333333327 1.8340333333333327 -0.1659666666666667 -0.1659666666666667 -0.1389333333333333 1.8610666666666664 1.8610666666666664 -0.1389333333333333 -0.1389333333333333 1.8610666666666664 1.8610666666666664 -0.1389333333333333 1.8610666666666664 1.8610666666666664 -0.1389333333333333 -0.1389333333333333 1.8610666666666664 -0.1389333333333333 -0.1389333333333333 -0.028999999999999977 -0.028999999999999977 -0.028999999999999977 1.971 -0.028999999999999977 1.971 1.971 -0.028999999999999977 1.971 -0.028999999999999977 1.971 -0.028999999999999977 -0.028999999999999977 -0.028999999999999977 -0.028999999999999977
1.3290333333333335 1.3290333333333335 -0.6709666666666667 -0.6709666666666667 -0.6709666666666667 -0.6709666666666667 -0.6709666666666667 -0.6709666666666667 1.3290333333333335 1.3290333333333335 1.3290333333333335 -0.6709666666666667 -0.6709666666666667 -0.6709666666666667 1.3290333333333335 -1.8947000000000003 -1.8947000000000003 -1.8947000000000003 -1.8947000000000003 -1.8947000000000003 -1.8947000000000003 -1.8947000000000003 -1.8947000000000003 0.10530000000000002 0.10530000000000002 -1.8947000000000003 -1.8947000000000003 -1.8947000000000003 -1.8947000000000003 0.10530000000000002 -2.059933333333333 -2.059933333333333 -0.059933333333333325 -2.059933333333333 -2.059933333333333 -0.059933333333333325 -0.059933333333333325 -0.059933333333333325 -2.059933333333333 -2.059933333333333 -0.059933333333333325 -2.059933333333333 -2.059933333333333 -0.059933333333333325 -0.059933333333333325 -2.0733333333333333 -0.07333333333333336 -2.0733333333333333 -0.07333333333333336 -2.0733333333333333 -2.0733333333333333 -0.07333333333333336 -2.0733333333333333 -2.0733333333333333 -0.07333333333333336 -2.0733333333333333 -2.0733333333333333 -0.07333333333333336 -2.0733333333333333 -0.07333333333333336 -1.5941333333333334 0.40586666666666676 -1.5941333333333334 -1.5941333333333334 -1.5941333333333334 0.40586666666666676 0.40586666666666676 -1.5941333333333334 -1.5941333333333334 0.40586666666666676 -1.5941333333333334 0.40586666666666676 -1.5941333333333334 -1.5941333333333334 -1.5941333333333334 -0.5760666666666666 -0.5760666666666666 1.4239333333333335 -0.5760666666666666 -0.5760666666666666 1.4239333333333335 -0.5760666666666666 1.4239333333333335 -0.5760666666666666 1.4239333333333335 1.4239333333333335 -0.5760666666666666 -0.5760666666666666 -0.5760666666666666 1.4239333333333335 -1.2507666666666666 0.7492333333333335 0.7492333333333335 -1.2507666666666666 -1.2507666666666666 0.7492333333333335 0.7492333333333335 -1.2507666666666666 0.7492333333333335 0.7492333333333335 0.7492333333333335 -1.2507666666666666 0.7492333333333335 0.7492333333333335 -1.2507666666666666 1.9334333333333336 1.9334333333333336 1.9334333333333336 1.9334333333333336 1.9334333333333336 -0.06656666666666664 1.9334333333333336 -0.06656666666666664 -0.06656666666666664 1.9334333333333336 -0.06656666666666664 1.9334333333333336 -0.06656666666666664 -0.06656666666666664 -0.06656666666666664 -0.42786666666666656 -0.42786666666666656 1.5721333333333332 -0.42786666666666656 1.5721333333333332 1.5721333333333332 1.5721333333333332 1.5721333333333332 1.5721333333333332 -0.42786666666666656 1.5721333333333332 -0.42786666666666656 1.5721333333333332 -0.42786666666666656 -0.42786666666666656 0.6143333333333333 2.6143333333333336 0.6143333333333333 0.6143333333333333 0.6143333333333333 2.6143333333333336 0.6143333333333333 2.6143333333333336 2.6143333333333336 0.6143333333333333 2.6143333333333336 0.6143333333333333 0.6143333333333333 2.6143333333333336 0.6143333333333333
1.6141666666666667 -0.38583333333333336 1.6141666666666667 1.6141666666666667 -0.38583333333333336 1.6141666666666667 1.6141666666666667 -0.38583333333333336 1.6141666666666667 1.6141666666666667 1.6141666666666667 -0.38583333333333336 -0.38583333333333336 1.6141666666666667 -0.38583333333333336 2.0267 2.0267 2.0267 0.026699999999999988 2.0267 0.026699999999999988 2.0267 2.0267 2.0267 0.026699999999999988 2.0267 2.0267 0.026699999999999988 0.026699999999999988 0.026699999999999988 -1.666733333333333 -1.666733333333333 -1.666733333333333 0.33326666666666677 0.33326666666666677 0.33326666666666677 -1.666733333333333 -1.666733333333333 0.33326666666666677 0.33326666666666677 0.33326666666666677 0.33326666666666677 0.33326666666666677 -1.666733333333333 -1.666733333333333 -1.0548 0.9452000000000002 0.9452000000000002 0.9452000000000002 0.9452000000000002 -1.0548 0.9452000000000002 0.9452000000000002 -1.0548 -1.0548 -1.0548 -1.0548 -1.0548 0.9452000000000002 0.9452000000000002 -1.9593333333333334 -1.9593333333333334 -1.9593333333333334 -3.959333333333334 -3.959333333333334 -3.959333333333334 -1.9593333333333334 -3.959333333333334 -1.9593333333333334 -1.9593333333333334 -1.9593333333333334 -3.959333333333334 -1.9593333333333334 -1.9593333333333334 -1.9593333333333334 1.6627333333333332 1.6627333333333332 -0.3372666666666668 1.6627333333333332 1.6627333333333332 -0.3372666666666668 1.6627333333333332 -0.3372666666666668 -0.3372666666666668 -0.3372666666666668 1.6627333333333332 1.6627333333333332 -0.3372666666666668 -0.3372666666666668 -0.3372666666666668 -0.0712333333333332 -2.071233333333333 -0.0712333333333332 -2.071233333333333 -0.0712333333333332 -0.0712333333333332 -0.0712333333333332 -0.0712333333333332 -0.0712333333333332 -0.0712333333333332 -0.0712333333333332 -2.071233333333333 -0.0712333333333332 -0.0712333333333332 -2.071233333333333 2.0623666666666667 2.0623666666666667 0.06236666666666664 0.06236666666666664 2.0623666666666667 2.0623666666666667 0.06236666666666664 2.0623666666666667 2.0623666666666667 2.0623666666666667 2.0623666666666667 2.0623666666666667 0.06236666666666664 2.0623666666666667 0.06236666666666664 0.5843999999999998 -1.4156 -1.4156 -1.4156 -1.4156 -1.4156 -1.4156 0.5843999999999998 0.5843999999999998 0.5843999999999998 -1.4156 0.5843999999999998 -1.4156 -1.4156 -1.4156 0.8017333333333333 2.801733333333333 2.801733333333333 0.8017333333333333 2.801733333333333 0.8017333333333333 0.8017333333333333 0.8017333333333333 2.801733333333333 2.801733333333333 0.8017333333333333 0.8017333333333333 0.8017333333333333 0.8017333333333333 2.801733333333333
1.9484333333333335 -0.051566666666666594 1.9484333333333335 1.9484333333333335 1.9484333333333335 -0.051566666666666594 -0.051566666666666594 1.9484333333333335 1.9484333333333335 -0.051566666666666594 -0.051566666666666594 1.9484333333333335 1.9484333333333335 -0.051566666666666594 1.9484333333333335 -1.5274333333333332 -1.5274333333333332 0.47256666666666663 0.47256666666666663 0.47256666666666663 -1.5274333333333332 0.47256666666666663 0.47256666666666663 -1.5274333333333332 -1.5274333333333332 -1.5274333333333332 -1.5274333333333332 -1.5274333333333332 0.47256666666666663 -1.5274333333333332 -0.7939333333333334 -0.7939333333333334 -0.7939333333333334 -0.7939333333333334 -0.7939333333333334 -0.7939333333333334 1.2060666666666666 -0.7939333333333334 1.2060666666666666 1.2060666666666666 1.2060666666666666 1.2060666666666666 1.2060666666666666 1.2060666666666666 -0.7939333333333334 1.9015333333333333 1.9015333333333333 -0.09846666666666673 1.9015333333333333 -0.09846666666666673 1.9015333333333333 1.9015333333333333 -0.09846666666666673 -0.09846666666666673 1.9015333333333333 -0.09846666666666673 1.9015333333333333 1.9015333333333333 -0.09846666666666673 1.9015333333333333 -0.49140000000000006 1.5086000000000002 -0.49140000000000006 -0.49140000000000006 1.5086000000000002 -0.49140000000000006 -0.49140000000000006 1.5086000000000002 1.5086000000000002 -0.49140000000000006 1.5086000000000002 1.5086000000000002 1.5086000000000002 -0.49140000000000006 -0.49140000000000006 -0.8517333333333333 1.1482666666666668 -0.8517333333333333 1.1482666666666668 1.1482666666666668 1.1482666666666668 1.1482666666666668 1.1482666666666668 -0.8517333333333333 -0.8517333333333333 1.1482666666666668 1.1482666666666668 -0.8517333333333333 -0.8517333333333333 -0.8517333333333333 -3.6034333333333333 -3.6034333333333333 -1.603433333333333 -3.6034333333333333 -1.603433333333333 -1.603433333333333 -1.603433333333333 -1.603433333333333 -1.603433333333333 -1.603433333333333 -3.6034333333333333 -1.603433333333333 -1.603433333333333 -1.603433333333333 -1.603433333333333 -1.3618333333333335 0.6381666666666665 0.6381666666666665 -1.3618333333333335 0.6381666666666665 0.6381666666666665 -1.3618333333333335 0.6381666666666665 0.6381666666666665 -1.3618333333333335 0.6381666666666665 -1.3618333333333335 0.6381666666666665 -1.3618333333333335 0.6381666666666665 -0.6651333333333331 1.3348666666666666 1.3348666666666666 1.3348666666666666 -0.6651333333333331 1.3348666666666666 1.3348666666666666 1.3348666666666666 1.3348666666666666 -0.6651333333333331 -0.6651333333333331 1.3348666666666666 1.3348666666666666 -0.6651333333333331 -0.6651333333333331 -0.5550666666666666 1.4449333333333332 -0.5550666666666666 1.4449333333333332 1.4449333333333332 1.4449333333333332 -0.5550666666666666 1.4449333333333332 1.4449333333333332 -0.5550666666666666 1.4449333333333332 1.4449333333333332 -0.5550666666666666 -0.5550666666666666 -0.5550666666666666
1.9725000000000001 -0.02749999999999999 -0.02749999999999999 -0.02749999999999999 1.9725000000000001 -0.02749999999999999 -0.02749999999999999 -0.02749999999999999 1.9725000000000001 1.9725000000000001 -0.02749999999999999 -0.02749999999999999 1.9725000000000001 1.9725000000000001 -0.02749999999999999 -2.3461 -0.3460999999999999 -2.3461 -0.3460999999999999 -2.3461 -0.3460999999999999 -0.3460999999999999 -2.3461 -0.3460999999999999 -2.3461 -2.3461 -2.3461 -2.3461 -0.3460999999999999 -2.3461 1.5229333333333337 -0.47706666666666653 -0.47706666666666653 1.5229333333333337 1.5229333333333337 1.5229333333333337 -0.47706666666666653 1.5229333333333337 -0.47706666666666653 1.5229333333333337 -0.47706666666666653 1.5229333333333337 -0.47706666666666653 -0.47706666666666653 -0.47706666666666653 1.2128 1.2128 1.2128 3.2128 1.2128 1.2128 3.2128 3.2128 1.2128 3.2128 1.2128 1.2128 1.2128 3.2128 3.2128 -1.9704666666666666 -1.9704666666666666 0.02953333333333318 0.02953333333333318 0.02953333333333318 -1.9704666666666666 -1.9704666666666666 -1.9704666666666666 0.02953333333333318 0.02953333333333318 -1.9704666666666666 0.02953333333333318 -1.9704666666666666 0.02953333333333318 0.02953333333333318 -1.9724666666666666 -1.9724666666666666 -1.9724666666666666 -1.9724666666666666 0.027533333333333368 -1.9724666666666666 0.027533333333333368 -1.9724666666666666 0.027533333333333368 0.027533333333333368 -1.9724666666666666 0.027533333333333368 0.027533333333333368 0.027533333333333368 0.027533333333333368 4.1769 2.1769 4.1769 2.1769 4.1769 4.1769 4.1769 2.1769 4.1769 2.1769 4.1769 2.1769 2.1769 4.1769 4.1769 -1.9435 0.056500000000000036 0.056500000000000036 -1.9435 0.056500000000000036 0.056500000000000036 0.056500000000000036 0.056500000000000036 0.056500000000000036 0.056500000000000036 0.056500000000000036 -1.9435 -1.9435 -1.9435 -1.9435 -0.12393333333333323 -0.12393333333333323 -0.12393333333333323 -0.12393333333333323 -0.12393333333333323 -0.12393333333333323 -2.123933333333333 -0.12393333333333323 -2.123933333333333 -2.123933333333333 -2.123933333333333 -0.12393333333333323 -2.123933333333333 -0.12393333333333323 -2.123933333333333 -0.5286666666666668 -2.528666666666666 -0.5286666666666668 -2.528666666666666 -2.528666666666666 -2.528666666666666 -2.528666666666666 -0.5286666666666668 -0.5286666666666668 -2.528666666666666 -0.5286666666666668 -2.528666666666666 -2.528666666666666 -2.528666666666666 -0.5286666666666668
-1.0011 0.9988999999999999 -1.0011 -1.0011 0.9988999999999999 0.9988999999999999 0.9988999999999999 0.9988999999999999 -1.0011 -1.0011 0.9988999999999999 0.9988999999999999 -1.0011 -1.0011 0.9988999999999999 0.5914333333333333 -1.4085666666666667 -1.4085666666666667 0.5914333333333333 0.5914333333333333 0.5914333333333333 0.5914333333333333 0.5914333333333333 -1.4085666666666667 0.5914333333333333 -1.4085666666666667 0.5914333333333333 0.5914333333333333 -1.4085666666666667 0.5914333333333333 1.0068666666666668 1.0068666666666668 -0.9931333333333334 -0.9931333333333334 1.0068666666666668 -0.9931333333333334 -0.9931333333333334 1.0068666666666668 -0.9931333333333334 1.0068666666666668 -0.9931333333333334 1.0068666666666668 1.0068666666666668 -0.9931333333333334 1.0068666666666668 -1.9065999999999999 -1.9065999999999999 -1.9065999999999999 0.0934 0.0934 0.0934 -1.9065999999999999 0.0934 0.0934 0.0934 -1.9065999999999999 -1.9065999999999999 0.0934 -1.9065999999999999 0.0934 -0.10373333333333336 -0.10373333333333336 -2.1037333333333335 -2.1037333333333335 -0.10373333333333336 -2.1037333333333335 -0.10373333333333336 -0.10373333333333336 -2.1037333333333335 -0.10373333333333336 -2.1037333333333335 -2.1037333333333335 -0.10373333333333336 -2.1037333333333335 -0.10373333333333336 0.4788666666666666 -1.5211333333333332 -1.5211333333333332 -1.5211333333333332 -1.5211333333333332 -1.5211333333333332 0.4788666666666666 -1.5211333333333332 0.4788666666666666 0.4788666666666666 0.4788666666666666 0.4788666666666666 0.4788666666666666 0.4788666666666666 -1.5211333333333332 3.8066333333333335 3.8066333333333335 3.8066333333333335 1.8066333333333333 1.8066333333333333 3.8066333333333335 3.8066333333333335 3.8066333333333335 3.8066333333333335 3.8066333333333335 3.8066333333333335 1.8066333333333333 3.8066333333333335 3.8066333333333335 1.8066333333333333 0.017633333333333345 0.017633333333333345 0.017633333333333345 0.017633333333333345 2.0176333333333334 0.017633333333333345 0.017633333333333345 2.0176333333333334 0.017633333333333345 2.0176333333333334 2.0176333333333334 0.017633333333333345 0.017633333333333345 2.0176333333333334 0.017633333333333345 -0.9259333333333332 -0.9259333333333332 -0.9259333333333332 1.0740666666666663 -0.9259333333333332 -0.9259333333333332 -0.9259333333333332 1.0740666666666663 -0.9259333333333332 1.0740666666666663 -0.9259333333333332 -0.9259333333333332 1.0740666666666663 -0.9259333333333332 1.0740666666666663 0.0359333333333334 0.0359333333333334 -1.9640666666666668 0.0359333333333334 -1.9640666666666668 -1.9640666666666668 0.0359333333333334 -1.9640666666666668 -1.9640666666666668 0.0359333333333334 0.0359333333333334 0.0359333333333334 -1.9640666666666668 0.0359333333333334 -1.9640666666666668
