2.551383333333333 2.551383333333333 2.551383333333333 0.5513833333333331 0.5513833333333331 2.551383333333333 2.551383333333333 2.551383333333333 0.5513833333333331 0.5513833333333331 0.5513833333333331 0.5513833333333331 2.551383333333333 2.551383333333333 2.551383333333333 -0.7486666666666667 1.2513333333333336 -0.7486666666666667 -0.7486666666666667 1.2513333333333336 -0.7486666666666667 -0.7486666666666667 1.2513333333333336 -0.7486666666666667 1.2513333333333336 -0.7486666666666667 1.2513333333333336 -0.7486666666666667 1.2513333333333336 1.2513333333333336 -1.7794166666666666 0.22058333333333316 -1.7794166666666666 0.22058333333333316 0.22058333333333316 -1.7794166666666666 -1.7794166666666666 0.22058333333333316 -1.7794166666666666 -1.7794166666666666 -1.7794166666666666 0.22058333333333316 -1.7794166666666666 -1.7794166666666666 0.22058333333333316 -0.6919166666666667 1.3080833333333333 -0.6919166666666667 -0.6919166666666667 -0.6919166666666667 -0.6919166666666667 -0.6919166666666667 -0.6919166666666667 1.3080833333333333 1.3080833333333333 1.3080833333333333 -0.6919166666666667 -0.6919166666666667 1.3080833333333333 1.3080833333333333 -1.2958833333333335 0.7041166666666666 0.7041166666666666 -1.2958833333333335 -1.2958833333333335 -1.2958833333333335 -1.2958833333333335 0.7041166666666666 0.7041166666666666 -1.2958833333333335 0.7041166666666666 0.7041166666666666 0.7041166666666666 -1.2958833333333335 0.7041166666666666 -0.4269500000000001 -0.4269500000000001 -0.4269500000000001 -0.4269500000000001 -2.4269499999999997 -0.4269500000000001 -0.4269500000000001 -0.4269500000000001 -2.4269499999999997 -2.4269499999999997 -2.4269499999999997 -0.4269500000000001 -2.4269499999999997 -0.4269500000000001 -0.4269500000000001 3.6089499999999997 3.6089499999999997 1.60895 3.6089499999999997 3.6089499999999997 1.60895 3.6089499999999997 1.60895 1.60895 1.60895 1.60895 1.60895 1.60895 1.60895 1.60895 0.4576833333333334 0.4576833333333334 0.4576833333333334 0.4576833333333334 -1.5423166666666663 -1.5423166666666663 -1.5423166666666663 0.4576833333333334 0.4576833333333334 -1.5423166666666663 0.4576833333333334 -1.5423166666666663 0.4576833333333334 0.4576833333333334 -1.5423166666666663 -0.05263333333333331 -2.0526333333333326 -0.05263333333333331 -0.05263333333333331 -0.05263333333333331 -0.05263333333333331 -2.0526333333333326 -0.05263333333333331 -2.0526333333333326 -2.0526333333333326 -0.05263333333333331 -2.0526333333333326 -2.0526333333333326 -0.05263333333333331 -0.05263333333333331 -1.6225499999999995 0.37745000000000006 -1.6225499999999995 0.37745000000000006 -1.6225499999999995 0.37745000000000006 0.37745000000000006 -1.6225499999999995 -1.6225499999999995 0.37745000000000006 0.37745000000000006 -1.6225499999999995 -1.6225499999999995 -1.6225499999999995 -1.6225499999999995
0.6030166666666669 -1.3969833333333328 -1.3969833333333328 0.6030166666666669 0.6030166666666669 0.6030166666666669 0.6030166666666669 0.6030166666666669 -1.3969833333333328 -1.3969833333333328 -1.3969833333333328 -1.3969833333333328 -1.3969833333333328 -1.3969833333333328 0.6030166666666669 0.002966666666666719 0.002966666666666719 -1.9970333333333334 -1.9970333333333334 0.002966666666666719 0.002966666666666719 0.002966666666666719 0.002966666666666719 -1.9970333333333334 -1.9970333333333334 0.002966666666666719 -1.9970333333333334 0.002966666666666719 0.002966666666666719 -1.9970333333333334 1.3144833333333334 1.3144833333333334 1.3144833333333334 1.3144833333333334 -0.6855166666666666 1.3144833333333334 -0.6855166666666666 -0.6855166666666666 1.3144833333333334 1.3144833333333334 -0.6855166666666666 1.3144833333333334 -0.6855166666666666 1.3144833333333334 -0.6855166666666666 3.2722166666666674 3.2722166666666674 3.2722166666666674 3.2722166666666674 1.2722166666666668 1.2722166666666668 1.2722166666666668 1.2722166666666668 3.2722166666666674 1.2722166666666668 1.2722166666666668 1.2722166666666668 1.2722166666666668 3.2722166666666674 3.2722166666666674 1.5286166666666665 -0.47138333333333315 -0.47138333333333315 1.5286166666666665 1.5286166666666665 1.5286166666666665 1.5286166666666665 1.5286166666666665 1.5286166666666665 -0.47138333333333315 1.5286166666666665 -0.47138333333333315 -0.47138333333333315 -0.47138333333333315 -0.47138333333333315 -0.3086499999999999 -0.3086499999999999 -0.3086499999999999 -2.3086500000000005 -2.3086500000000005 -0.3086499999999999 -2.3086500000000005 -2.3086500000000005 -0.3086499999999999 -2.3086500000000005 -2.3086500000000005 -2.3086500000000005 -0.3086499999999999 -2.3086500000000005 -0.3086499999999999 -4.821716666666665 -2.821716666666667 -2.821716666666667 -4.821716666666665 -4.821716666666665 -2.821716666666667 -2.821716666666667 -2.821716666666667 -4.821716666666665 -2.821716666666667 -4.821716666666665 -2.821716666666667 -4.821716666666665 -2.821716666666667 -4.821716666666665 0.8372833333333333 2.8372833333333336 2.8372833333333336 2.8372833333333336 0.8372833333333333 0.8372833333333333 2.8372833333333336 2.8372833333333336 0.8372833333333333 2.8372833333333336 0.8372833333333333 0.8372833333333333 2.8372833333333336 0.8372833333333333 0.8372833333333333 1.2975999999999999 -0.7024000000000001 -0.7024000000000001 -0.7024000000000001 1.2975999999999999 -0.7024000000000001 1.2975999999999999 1.2975999999999999 -0.7024000000000001 1.2975999999999999 -0.7024000000000001 1.2975999999999999 -0.7024000000000001 -0.7024000000000001 1.2975999999999999 0.2741833333333334 2.274183333333334 0.2741833333333334 2.274183333333334 2.274183333333334 2.274183333333334 0.2741833333333334 2.274183333333334 0.2741833333333334 0.2741833333333334 0.2741833333333334 2.274183333333334 2.274183333333334 2.274183333333334 0.2741833333333334
0.2978166666666667 0.2978166666666667 0.2978166666666667 0.2978166666666667 2.2978166666666664 0.2978166666666667 0.2978166666666667 2.2978166666666664 2.2978166666666664 2.2978166666666664 0.2978166666666667 2.2978166666666664 2.2978166666666664 0.2978166666666667 0.2978166666666667 -1.044333333333333 -1.044333333333333 0.955666666666667 0.955666666666667 0.955666666666667 -1.044333333333333 -1.044333333333333 -1.044333333333333 -1.044333333333333 -1.044333333333333 -1.044333333333333 -1.044333333333333 -1.044333333333333 0.955666666666667 -1.044333333333333 1.3947166666666662 -0.6052833333333334 -0.6052833333333334 1.3947166666666662 1.3947166666666662 -0.6052833333333334 1.3947166666666662 1.3947166666666662 1.3947166666666662 1.3947166666666662 -0.6052833333333334 -0.6052833333333334 1.3947166666666662 1.3947166666666662 -0.6052833333333334 1.1159166666666667 1.1159166666666667 1.1159166666666667 3.1159166666666667 1.1159166666666667 1.1159166666666667 1.1159166666666667 3.1159166666666667 3.1159166666666667 1.1159166666666667 1.1159166666666667 1.1159166666666667 3.1159166666666667 1.1159166666666667 3.1159166666666667 -1.82495 0.17504999999999993 0.17504999999999993 -1.82495 -1.82495 0.17504999999999993 -1.82495 -1.82495 -1.82495 -1.82495 -1.82495 -1.82495 -1.82495 0.17504999999999993 -1.82495 0.006016666666666654 2.006016666666666 0.006016666666666654 0.006016666666666654 0.006016666666666654 2.006016666666666 2.006016666666666 2.006016666666666 0.006016666666666654 2.006016666666666 2.006016666666666 2.006016666666666 0.006016666666666654 0.006016666666666654 2.006016666666666 -0.6401833333333329 -2.6401833333333333 -0.6401833333333329 -0.6401833333333329 -0.6401833333333329 -2.6401833333333333 -2.6401833333333333 -2.6401833333333333 -2.6401833333333333 -0.6401833333333329 -0.6401833333333329 -2.6401833333333333 -2.6401833333333333 -0.6401833333333329 -2.6401833333333333 0.023916666666666777 -1.9760833333333334 0.023916666666666777 -1.9760833333333334 -1.9760833333333334 0.023916666666666777 -1.9760833333333334 0.023916666666666777 -1.9760833333333334 0.023916666666666777 -1.9760833333333334 -1.9760833333333334 0.023916666666666777 -1.9760833333333334 0.023916666666666777 -0.40066666666666656 1.5993333333333335 1.5993333333333335 1.5993333333333335 1.5993333333333335 1.5993333333333335 -0.40066666666666656 1.5993333333333335 -0.40066666666666656 -0.40066666666666656 1.5993333333333335 -0.40066666666666656 1.5993333333333335 -0.40066666666666656 -0.40066666666666656 -2.92825 -2.92825 -0.9282500000000001 -2.92825 -2.92825 -0.9282500000000001 -2.92825 -2.92825 -0.9282500000000001 -0.9282500000000001 -2.92825 -0.9282500000000001 -0.9282500000000001 -2.92825 -0.9282500000000001
-2.1950833333333333 -4.195083333333333 -4.195083333333333 -4.195083333333333 -2.1950833333333333 -2.1950833333333333 -4.195083333333333 -4.195083333333333 -4.195083333333333 -2.1950833333333333 -4.195083333333333 -4.195083333333333 -2.1950833333333333 -4.195083333333333 -4.195083333333333 0.3224333333333333 2.322433333333333 0.3224333333333333 2.322433333333333 2.322433333333333 2.322433333333333 2.322433333333333 0.3224333333333333 0.3224333333333333 0.3224333333333333 2.322433333333333 0.3224333333333333 2.322433333333333 2.322433333333333 2.322433333333333 0.34845000000000004 -1.65155 -1.65155 -1.65155 0.34845000000000004 0.34845000000000004 0.34845000000000004 0.34845000000000004 0.34845000000000004 -1.65155 0.34845000000000004 0.34845000000000004 0.34845000000000004 0.34845000000000004 0.34845000000000004 -0.5412166666666665 1.4587833333333329 -0.5412166666666665 -0.5412166666666665 -0.5412166666666665 1.4587833333333329 -0.5412166666666665 -0.5412166666666665 1.4587833333333329 1.4587833333333329 1.4587833333333329 1.4587833333333329 -0.5412166666666665 -0.5412166666666665 1.4587833333333329 1.9784166666666663 -0.0215833333333334 1.9784166666666663 -0.0215833333333334 1.9784166666666663 1.9784166666666663 -0.0215833333333334 1.9784166666666663 1.9784166666666663 -0.0215833333333334 1.9784166666666663 -0.0215833333333334 1.9784166666666663 -0.0215833333333334 -0.0215833333333334 0.86255 0.86255 -1.13745 -1.13745 -1.13745 -1.13745 -1.13745 -1.13745 0.86255 -1.13745 -1.13745 -1.13745 -1.13745 0.86255 0.86255 -1.322483333333333 0.6775166666666665 -1.322483333333333 0.6775166666666665 0.6775166666666665 0.6775166666666665 -1.322483333333333 0.6775166666666665 0.6775166666666665 -1.322483333333333 0.6775166666666665 -1.322483333333333 0.6775166666666665 -1.322483333333333 0.6775166666666665 -0.2464166666666667 -2.246416666666667 -0.2464166666666667 -0.2464166666666667 -2.246416666666667 -0.2464166666666667 -2.246416666666667 -0.2464166666666667 -2.246416666666667 -0.2464166666666667 -2.246416666666667 -0.2464166666666667 -2.246416666666667 -2.246416666666667 -2.246416666666667 0.8410666666666667 0.8410666666666667 0.8410666666666667 2.841066666666667 2.841066666666667 2.841066666666667 2.841066666666667 0.8410666666666667 2.841066666666667 0.8410666666666667 0.8410666666666667 2.841066666666667 2.841066666666667 0.8410666666666667 2.841066666666667 1.9522833333333336 -0.04771666666666665 1.9522833333333336 1.9522833333333336 -0.04771666666666665 -0.04771666666666665 -0.04771666666666665 1.9522833333333336 -0.04771666666666665 1.9522833333333336 -0.04771666666666665 -0.04771666666666665 1.9522833333333336 -0.04771666666666665 1.9522833333333336
1.7451166666666664 1.7451166666666664 1.7451166666666664 -0.25488333333333335 1.7451166666666664 -0.25488333333333335 -0.25488333333333335 1.7451166666666664 1.7451166666666664 -0.25488333333333335 -0.25488333333333335 -0.25488333333333335 1.7451166666666664 1.7451166666666664 -0.25488333333333335 -0.32150000000000034 1.6784999999999997 -0.32150000000000034 -0.32150000000000034 1.6784999999999997 -0.32150000000000034 1.6784999999999997 1.6784999999999997 -0.32150000000000034 -0.32150000000000034 -0.32150000000000034 1.6784999999999997 -0.32150000000000034 1.6784999999999997 -0.32150000000000034 -0.010350000000000038 -2.01035 -2.01035 -0.010350000000000038 -0.010350000000000038 -2.01035 -2.01035 -2.01035 -0.010350000000000038 -2.01035 -2.01035 -0.010350000000000038 -0.010350000000000038 -2.01035 -0.010350000000000038 -1.5157500000000002 0.4842499999999998 0.4842499999999998 -1.5157500000000002 0.4842499999999998 0.4842499999999998 -1.5157500000000002 0.4842499999999998 0.4842499999999998 0.4842499999999998 -1.5157500000000002 -1.5157500000000002 -1.5157500000000002 -1.5157500000000002 0.4842499999999998 0.009950000000000032 2.0099499999999995 2.0099499999999995 2.0099499999999995 0.009950000000000032 2.0099499999999995 0.009950000000000032 0.009950000000000032 2.0099499999999995 0.009950000000000032 0.009950000000000032 2.0099499999999995 0.009950000000000032 0.009950000000000032 2.0099499999999995 0.2812833333333333 -1.7187166666666664 -1.7187166666666664 0.2812833333333333 0.2812833333333333 -1.7187166666666664 0.2812833333333333 0.2812833333333333 0.2812833333333333 0.2812833333333333 0.2812833333333333 -1.7187166666666664 0.2812833333333333 -1.7187166666666664 -1.7187166666666664 -0.720083333333333 1.2799166666666673 1.2799166666666673 1.2799166666666673 1.2799166666666673 1.2799166666666673 1.2799166666666673 -0.720083333333333 -0.720083333333333 1.2799166666666673 -0.720083333333333 1.2799166666666673 1.2799166666666673 -0.720083333333333 -0.720083333333333 -1.0917166666666667 0.9082833333333333 -1.0917166666666667 -1.0917166666666667 0.9082833333333333 -1.0917166666666667 0.9082833333333333 -1.0917166666666667 0.9082833333333333 0.9082833333333333 -1.0917166666666667 0.9082833333333333 0.9082833333333333 0.9082833333333333 0.9082833333333333 0.17070000000000005 0.17070000000000005 0.17070000000000005 0.17070000000000005 -1.8292999999999993 -1.8292999999999993 -1.8292999999999993 -1.8292999999999993 -1.8292999999999993 -1.8292999999999993 0.17070000000000005 -1.8292999999999993 -1.8292999999999993 -1.8292999999999993 0.17070000000000005 1.4523499999999998 1.4523499999999998 1.4523499999999998 1.4523499999999998 1.4523499999999998 -0.5476499999999999 -0.5476499999999999 -0.5476499999999999 -0.5476499999999999 1.4523499999999998 1.4523499999999998 1.4523499999999998 1.4523499999999998 1.4523499999999998 -0.5476499999999999
-3.19375 -1.1937499999999999 -1.1937499999999999 -1.1937499999999999 -3.19375 -3.19375 -3.19375 -3.19375 -1.1937499999999999 -3.19375 -3.19375 -3.19375 -1.1937499999999999 -1.1937499999999999 -3.19375 1.0335666666666667 3.0335666666666667 3.0335666666666667 3.0335666666666667 3.0335666666666667 1.0335666666666667 1.0335666666666667 1.0335666666666667 3.0335666666666667 3.0335666666666667 1.0335666666666667 1.0335666666666667 1.0335666666666667 1.0335666666666667 1.0335666666666667 0.7915166666666666 0.7915166666666666 0.7915166666666666 0.7915166666666666 0.7915166666666666 2.791516666666667 0.7915166666666666 0.7915166666666666 0.7915166666666666 2.791516666666667 2.791516666666667 2.791516666666667 2.791516666666667 0.7915166666666666 0.7915166666666666 -1.9742833333333332 -3.974283333333333 -3.974283333333333 -3.974283333333333 -1.9742833333333332 -1.9742833333333332 -1.9742833333333332 -3.974283333333333 -3.974283333333333 -3.974283333333333 -3.974283333333333 -1.9742833333333332 -3.974283333333333 -3.974283333333333 -1.9742833333333332 2.0116499999999995 0.01165000000000003 0.01165000000000003 0.01165000000000003 2.0116499999999995 2.0116499999999995 0.01165000000000003 2.0116499999999995 0.01165000000000003 0.01165000000000003 0.01165000000000003 2.0116499999999995 2.0116499999999995 0.01165000000000003 0.01165000000000003 -2.19515 -2.19515 -0.19515000000000016 -0.19515000000000016 -0.19515000000000016 -0.19515000000000016 -0.19515000000000016 -0.19515000000000016 -0.19515000000000016 -0.19515000000000016 -0.19515000000000016 -2.19515 -0.19515000000000016 -2.19515 -0.19515000000000016 1.9428166666666669 -0.05718333333333324 1.9428166666666669 -0.05718333333333324 1.9428166666666669 -0.05718333333333324 1.9428166666666669 1.9428166666666669 -0.05718333333333324 -0.05718333333333324 1.9428166666666669 1.9428166666666669 -0.05718333333333324 1.9428166666666669 1.9428166666666669 -0.5475500000000002 -0.5475500000000002 1.45245 1.45245 -0.5475500000000002 -0.5475500000000002 -0.5475500000000002 1.45245 -0.5475500000000002 -0.5475500000000002 1.45245 1.45245 -0.5475500000000002 -0.5475500000000002 -0.5475500000000002 2.1362000000000005 0.13620000000000004 0.13620000000000004 2.1362000000000005 2.1362000000000005 0.13620000000000004 0.13620000000000004 2.1362000000000005 0.13620000000000004 0.13620000000000004 2.1362000000000005 0.13620000000000004 2.1362000000000005 2.1362000000000005 0.13620000000000004 -0.005016666666666732 -2.005016666666667 -2.005016666666667 -2.005016666666667 -0.005016666666666732 -2.005016666666667 -0.005016666666666732 -0.005016666666666732 -0.005016666666666732 -2.005016666666667 -0.005016666666666732 -0.005016666666666732 -0.005016666666666732 -0.005016666666666732 -0.005016666666666732
-3.9983166666666667 -3.9983166666666667 -1.9983166666666667 -1.9983166666666667 -1.9983166666666667 -1.9983166666666667 -1.9983166666666667 -1.9983166666666667 -1.9983166666666667 -3.9983166666666667 -3.9983166666666667 -3.9983166666666667 -1.9983166666666667 -3.9983166666666667 -3.9983166666666667 -0.42616666666666664 -2.4261666666666666 -0.42616666666666664 -0.42616666666666664 -0.42616666666666664 -0.42616666666666664 -0.42616666666666664 -0.42616666666666664 -2.4261666666666666 -0.42616666666666664 -2.4261666666666666 -0.42616666666666664 -2.4261666666666666 -2.4261666666666666 -2.4261666666666666 1.8741833333333333 1.8741833333333333 -0.12581666666666652 -0.12581666666666652 1.8741833333333333 -0.12581666666666652 -0.12581666666666652 1.8741833333333333 1.8741833333333333 -0.12581666666666652 1.8741833333333333 1.8741833333333333 -0.12581666666666652 -0.12581666666666652 1.8741833333333333 0.2790166666666667 -1.720983333333333 -1.720983333333333 -1.720983333333333 0.2790166666666667 -1.720983333333333 -1.720983333333333 0.2790166666666667 -1.720983333333333 -1.720983333333333 0.2790166666666667 0.2790166666666667 -1.720983333333333 -1.720983333333333 0.2790166666666667 2.5806166666666677 2.5806166666666677 0.5806166666666667 0.5806166666666667 0.5806166666666667 0.5806166666666667 0.5806166666666667 2.5806166666666677 0.5806166666666667 0.5806166666666667 0.5806166666666667 2.5806166666666677 0.5806166666666667 0.5806166666666667 0.5806166666666667 -1.680916666666667 0.31908333333333333 0.31908333333333333 -1.680916666666667 -1.680916666666667 -1.680916666666667 -1.680916666666667 0.31908333333333333 -1.680916666666667 0.31908333333333333 -1.680916666666667 0.31908333333333333 0.31908333333333333 -1.680916666666667 0.31908333333333333 0.618583333333333 -1.381416666666667 0.618583333333333 0.618583333333333 -1.381416666666667 -1.381416666666667 -1.381416666666667 -1.381416666666667 -1.381416666666667 -1.381416666666667 -1.381416666666667 -1.381416666666667 0.618583333333333 0.618583333333333 0.618583333333333 -0.07574999999999997 -0.07574999999999997 -0.07574999999999997 -0.07574999999999997 1.9242500000000002 1.9242500000000002 1.9242500000000002 1.9242500000000002 1.9242500000000002 1.9242500000000002 -0.07574999999999997 1.9242500000000002 1.9242500000000002 -0.07574999999999997 1.9242500000000002 -0.18306666666666674 -0.18306666666666674 1.816933333333334 1.816933333333334 1.816933333333334 -0.18306666666666674 -0.18306666666666674 1.816933333333334 1.816933333333334 1.816933333333334 1.816933333333334 -0.18306666666666674 1.816933333333334 -0.18306666666666674 -0.18306666666666674 1.0118166666666661 3.0118166666666664 3.0118166666666664 1.0118166666666661 3.0118166666666664 1.0118166666666661 1.0118166666666661 1.0118166666666661 1.0118166666666661 1.0118166666666661 3.0118166666666664 1.0118166666666661 3.0118166666666664 1.0118166666666661 1.0118166666666661
-1.5157166666666664 -1.5157166666666664 0.48428333333333334 0.48428333333333334 -1.5157166666666664 -1.5157166666666664 -1.5157166666666664 -1.5157166666666664 -1.5157166666666664 -1.5157166666666664 0.48428333333333334 0.48428333333333334 0.48428333333333334 -1.5157166666666664 0.48428333333333334 -1.1419333333333332 0.8580666666666668 0.8580666666666668 -1.1419333333333332 0.8580666666666668 0.8580666666666668 -1.1419333333333332 0.8580666666666668 -1.1419333333333332 0.8580666666666668 0.8580666666666668 0.8580666666666668 0.8580666666666668 0.8580666666666668 0.8580666666666668 -1.0505833333333332 -1.0505833333333332 -1.0505833333333332 0.949416666666667 0.949416666666667 -1.0505833333333332 -1.0505833333333332 0.949416666666667 -1.0505833333333332 0.949416666666667 0.949416666666667 0.949416666666667 0.949416666666667 -1.0505833333333332 0.949416666666667 -0.2970833333333334 -0.2970833333333334 -0.2970833333333334 -0.2970833333333334 1.702916666666667 -0.2970833333333334 -0.2970833333333334 -0.2970833333333334 1.702916666666667 -0.2970833333333334 1.702916666666667 1.702916666666667 1.702916666666667 -0.2970833333333334 1.702916666666667 -0.4933500000000004 -0.4933500000000004 1.50665 -0.4933500000000004 -0.4933500000000004 -0.4933500000000004 1.50665 -0.4933500000000004 -0.4933500000000004 1.50665 1.50665 1.50665 1.50665 -0.4933500000000004 -0.4933500000000004 0.9351833333333337 -1.0648166666666672 -1.0648166666666672 0.9351833333333337 0.9351833333333337 -1.0648166666666672 -1.0648166666666672 0.9351833333333337 0.9351833333333337 -1.0648166666666672 0.9351833333333337 -1.0648166666666672 0.9351833333333337 -1.0648166666666672 0.9351833333333337 0.3311500000000003 0.3311500000000003 -1.6688499999999997 0.3311500000000003 0.3311500000000003 0.3311500000000003 -1.6688499999999997 0.3311500000000003 0.3311500000000003 -1.6688499999999997 0.3311500000000003 -1.6688499999999997 -1.6688499999999997 -1.6688499999999997 0.3311500000000003 -1.4758833333333334 0.5241166666666667 0.5241166666666667 -1.4758833333333334 0.5241166666666667 -1.4758833333333334 0.5241166666666667 0.5241166666666667 0.5241166666666667 0.5241166666666667 0.5241166666666667 -1.4758833333333334 -1.4758833333333334 0.5241166666666667 0.5241166666666667 -1.0969666666666662 0.9030333333333332 0.9030333333333332 -1.0969666666666662 0.9030333333333332 0.9030333333333332 -1.0969666666666662 0.9030333333333332 0.9030333333333332 -1.0969666666666662 0.9030333333333332 -1.0969666666666662 0.9030333333333332 0.9030333333333332 -1.0969666666666662 -0.19481666666666653 -0.19481666666666653 1.8051833333333336 -0.19481666666666653 -0.19481666666666653 -0.19481666666666653 -0.19481666666666653 1.8051833333333336 1.8051833333333336 1.8051833333333336 -0.19481666666666653 1.8051833333333336 -0.19481666666666653 1.8051833333333336 -0.19481666666666653
-1.5595166666666662 -1.5595166666666662 -1.5595166666666662 0.44048333333333345 -1.5595166666666662 -1.5595166666666662 0.44048333333333345 0.44048333333333345 0.44048333333333345 0.44048333333333345 0.44048333333333345 0.44048333333333345 0.44048333333333345 0.44048333333333345 -1.5595166666666662 0.019899999999999696 2.0199 2.0199 0.019899999999999696 0.019899999999999696 2.0199 0.019899999999999696 2.0199 2.0199 0.019899999999999696 2.0199 2.0199 0.019899999999999696 0.019899999999999696 0.019899999999999696 0.989783333333333 0.989783333333333 0.989783333333333 0.989783333333333 -1.0102166666666663 -1.0102166666666663 -1.0102166666666663 0.989783333333333 0.989783333333333 -1.0102166666666663 0.989783333333333 0.989783333333333 0.989783333333333 -1.0102166666666663 0.989783333333333 1.0349500000000005 1.0349500000000005 -0.9650499999999997 1.0349500000000005 -0.9650499999999997 1.0349500000000005 -0.9650499999999997 1.0349500000000005 1.0349500000000005 -0.9650499999999997 -0.9650499999999997 1.0349500000000005 1.0349500000000005 -0.9650499999999997 1.0349500000000005 1.4035166666666665 -0.5964833333333335 1.4035166666666665 -0.5964833333333335 -0.5964833333333335 -0.5964833333333335 -0.5964833333333335 1.4035166666666665 -0.5964833333333335 -0.5964833333333335 1.4035166666666665 -0.5964833333333335 1.4035166666666665 1.4035166666666665 -0.5964833333333335 0.4081833333333331 -1.591816666666667 0.4081833333333331 0.4081833333333331 0.4081833333333331 0.4081833333333331 0.4081833333333331 -1.591816666666667 0.4081833333333331 -1.591816666666667 0.4081833333333331 -1.591816666666667 -1.591816666666667 0.4081833333333331 -1.591816666666667 1.296183333333333 -0.7038166666666671 1.296183333333333 -0.7038166666666671 -0.7038166666666671 1.296183333333333 -0.7038166666666671 -0.7038166666666671 1.296183333333333 1.296183333333333 1.296183333333333 1.296183333333333 1.296183333333333 -0.7038166666666671 1.296183333333333 1.2901833333333335 1.2901833333333335 -0.7098166666666665 -0.7098166666666665 -0.7098166666666665 1.2901833333333335 -0.7098166666666665 1.2901833333333335 -0.7098166666666665 -0.7098166666666665 -0.7098166666666665 -0.7098166666666665 -0.7098166666666665 -0.7098166666666665 1.2901833333333335 -0.007433333333333354 -2.0074333333333336 -0.007433333333333354 -0.007433333333333354 -2.0074333333333336 -2.0074333333333336 -2.0074333333333336 -0.007433333333333354 -0.007433333333333354 -0.007433333333333354 -2.0074333333333336 -0.007433333333333354 -0.007433333333333354 -0.007433333333333354 -0.007433333333333354 -0.8757500000000003 1.1242500000000002 1.1242500000000002 -0.8757500000000003 -0.8757500000000003 -0.8757500000000003 1.1242500000000002 1.1242500000000002 -0.8757500000000003 1.1242500000000002 1.1242500000000002 -0.8757500000000003 -0.8757500000000003 -0.8757500000000003 -0.8757500000000003
0.025650000000000055 2.0256499999999997 0.025650000000000055 0.025650000000000055 2.0256499999999997 0.025650000000000055 2.0256499999999997 0.025650000000000055 0.025650000000000055 2.0256499999999997 2.0256499999999997 2.0256499999999997 2.0256499999999997 2.0256499999999997 0.025650000000000055 -0.4319333333333334 -0.4319333333333334 1.5680666666666667 -0.4319333333333334 -0.4319333333333334 -0.4319333333333334 -0.4319333333333334 -0.4319333333333334 1.5680666666666667 1.5680666666666667 -0.4319333333333334 1.5680666666666667 -0.4319333333333334 -0.4319333333333334 -0.4319333333333334 -0.24094999999999991 1.75905 1.75905 -0.24094999999999991 -0.24094999999999991 1.75905 -0.24094999999999991 1.75905 -0.24094999999999991 1.75905 1.75905 1.75905 1.75905 -0.24094999999999991 1.75905 2.0053500000000004 0.005349999999999922 2.0053500000000004 2.0053500000000004 0.005349999999999922 0.005349999999999922 2.0053500000000004 2.0053500000000004 0.005349999999999922 2.0053500000000004 0.005349999999999922 0.005349999999999922 2.0053500000000004 2.0053500000000004 0.005349999999999922 -0.5161166666666667 -2.5161166666666666 -2.5161166666666666 -0.5161166666666667 -2.5161166666666666 -0.5161166666666667 -0.5161166666666667 -0.5161166666666667 -2.5161166666666666 -2.5161166666666666 -0.5161166666666667 -0.5161166666666667 -0.5161166666666667 -0.5161166666666667 -2.5161166666666666 -1.2180500000000003 0.7819500000000001 0.7819500000000001 -1.2180500000000003 0.7819500000000001 -1.2180500000000003 0.7819500000000001 0.7819500000000001 0.7819500000000001 -1.2180500000000003 0.7819500000000001 0.7819500000000001 -1.2180500000000003 -1.2180500000000003 0.7819500000000001 0.2300499999999998 -1.76995 -1.76995 -1.76995 -1.76995 0.2300499999999998 0.2300499999999998 0.2300499999999998 0.2300499999999998 0.2300499999999998 -1.76995 -1.76995 0.2300499999999998 -1.76995 -1.76995 -0.2787500000000001 -2.27875 -0.2787500000000001 -2.27875 -0.2787500000000001 -2.27875 -0.2787500000000001 -0.2787500000000001 -0.2787500000000001 -2.27875 -2.27875 -2.27875 -0.2787500000000001 -2.27875 -2.27875 -0.3935666666666667 -0.3935666666666667 1.6064333333333336 1.6064333333333336 1.6064333333333336 1.6064333333333336 1.6064333333333336 -0.3935666666666667 1.6064333333333336 1.6064333333333336 1.6064333333333336 1.6064333333333336 1.6064333333333336 1.6064333333333336 1.6064333333333336 0.8183166666666668 -1.181683333333333 0.8183166666666668 -1.181683333333333 0.8183166666666668 -1.181683333333333 0.8183166666666668 0.8183166666666668 0.8183166666666668 0.8183166666666668 -1.181683333333333 -1.181683333333333 0.8183166666666668 0.8183166666666668 0.8183166666666668
0.42385 -1.5761499999999997 -1.5761499999999997 0.42385 -1.5761499999999997 -1.5761499999999997 0.42385 0.42385 -1.5761499999999997 -1.5761499999999997 0.42385 0.42385 0.42385 0.42385 0.42385 0.03399999999999997 -1.9660000000000004 0.03399999999999997 -1.9660000000000004 0.03399999999999997 0.03399999999999997 0.03399999999999997 -1.9660000000000004 0.03399999999999997 -1.9660000000000004 0.03399999999999997 0.03399999999999997 0.03399999999999997 0.03399999999999997 0.03399999999999997 0.4348499999999998 -1.5651499999999998 -1.5651499999999998 0.4348499999999998 0.4348499999999998 0.4348499999999998 -1.5651499999999998 0.4348499999999998 -1.5651499999999998 -1.5651499999999998 0.4348499999999998 0.4348499999999998 -1.5651499999999998 0.4348499999999998 -1.5651499999999998 0.94165 0.94165 0.94165 0.94165 0.94165 -1.0583500000000001 -1.0583500000000001 -1.0583500000000001 -1.0583500000000001 -1.0583500000000001 -1.0583500000000001 -1.0583500000000001 0.94165 0.94165 -1.0583500000000001 -1.7561166666666663 0.24388333333333342 -1.7561166666666663 -1.7561166666666663 -1.7561166666666663 0.24388333333333342 -1.7561166666666663 -1.7561166666666663 0.24388333333333342 0.24388333333333342 -1.7561166666666663 -1.7561166666666663 0.24388333333333342 0.24388333333333342 -1.7561166666666663 -1.10065 0.89935 0.89935 0.89935 0.89935 -1.10065 0.89935 -1.10065 -1.10065 -1.10065 -1.10065 -1.10065 0.89935 -1.10065 -1.10065 3.0439833333333337 3.0439833333333337 3.0439833333333337 1.0439833333333333 3.0439833333333337 1.0439833333333333 3.0439833333333337 3.0439833333333337 3.0439833333333337 1.0439833333333333 3.0439833333333337 1.0439833333333333 3.0439833333333337 1.0439833333333333 1.0439833333333333 -0.61625 1.3837500000000005 -0.61625 -0.61625 -0.61625 -0.61625 1.3837500000000005 1.3837500000000005 1.3837500000000005 -0.61625 1.3837500000000005 1.3837500000000005 -0.61625 1.3837500000000005 1.3837500000000005 0.6403666666666668 -1.3596333333333335 -1.3596333333333335 -1.3596333333333335 -1.3596333333333335 0.6403666666666668 -1.3596333333333335 -1.3596333333333335 -1.3596333333333335 0.6403666666666668 -1.3596333333333335 0.6403666666666668 0.6403666666666668 0.6403666666666668 0.6403666666666668 -0.045683333333333465 1.9543166666666665 -0.045683333333333465 -0.045683333333333465 -0.045683333333333465 -0.045683333333333465 -0.045683333333333465 1.9543166666666665 -0.045683333333333465 -0.045683333333333465 -0.045683333333333465 -0.045683333333333465 -0.045683333333333465 1.9543166666666665 1.9543166666666665
-0.9475833333333334 1.0524166666666672 1.0524166666666672 1.0524166666666672 -0.9475833333333334 1.0524166666666672 1.0524166666666672 -0.9475833333333334 -0.9475833333333334 -0.9475833333333334 1.0524166666666672 -0.9475833333333334 1.0524166666666672 1.0524166666666672 -0.9475833333333334 0.34663333333333335 0.34663333333333335 0.34663333333333335 0.34663333333333335 0.34663333333333335 -1.6533666666666669 -1.6533666666666669 0.34663333333333335 -1.6533666666666669 0.34663333333333335 0.34663333333333335 0.34663333333333335 0.34663333333333335 0.34663333333333335 -1.6533666666666669 1.536883333333333 3.5368833333333343 3.5368833333333343 3.5368833333333343 1.536883333333333 1.536883333333333 1.536883333333333 1.536883333333333 3.5368833333333343 3.5368833333333343 1.536883333333333 3.5368833333333343 1.536883333333333 1.536883333333333 3.5368833333333343 -2.4808500000000007 -0.48085 -2.4808500000000007 -0.48085 -2.4808500000000007 -0.48085 -2.4808500000000007 -0.48085 -2.4808500000000007 -0.48085 -2.4808500000000007 -0.48085 -2.4808500000000007 -0.48085 -0.48085 -0.6757166666666669 -0.6757166666666669 -2.675716666666666 -2.675716666666666 -2.675716666666666 -2.675716666666666 -0.6757166666666669 -2.675716666666666 -0.6757166666666669 -0.6757166666666669 -2.675716666666666 -2.675716666666666 -0.6757166666666669 -2.675716666666666 -0.6757166666666669 0.0052166666666666655 0.0052166666666666655 0.0052166666666666655 -1.9947833333333327 -1.9947833333333327 0.0052166666666666655 0.0052166666666666655 -1.9947833333333327 0.0052166666666666655 0.0052166666666666655 0.0052166666666666655 0.0052166666666666655 -1.9947833333333327 -1.9947833333333327 0.0052166666666666655 5.313116666666667 3.3131166666666667 5.313116666666667 5.313116666666667 3.3131166666666667 3.3131166666666667 3.3131166666666667 5.313116666666667 5.313116666666667 5.313116666666667 5.313116666666667 5.313116666666667 5.313116666666667 3.3131166666666667 3.3131166666666667 0.02255000000000004 0.02255000000000004 -1.9774500000000006 -1.9774500000000006 0.02255000000000004 -1.9774500000000006 -1.9774500000000006 0.02255000000000004 -1.9774500000000006 -1.9774500000000006 0.02255000000000004 -1.9774500000000006 -1.9774500000000006 0.02255000000000004 0.02255000000000004 0.42676666666666657 0.42676666666666657 0.42676666666666657 2.426766666666667 0.42676666666666657 2.426766666666667 2.426766666666667 2.426766666666667 2.426766666666667 2.426766666666667 2.426766666666667 2.426766666666667 2.426766666666667 0.42676666666666657 0.42676666666666657 -3.547016666666666 -1.5470166666666663 -3.547016666666666 -1.5470166666666663 -3.547016666666666 -3.547016666666666 -1.5470166666666663 -3.547016666666666 -1.5470166666666663 -1.5470166666666663 -1.5470166666666663 -1.5470166666666663 -3.547016666666666 -1.5470166666666663 -3.547016666666666
-0.09258333333333325 -2.0925833333333337 -0.09258333333333325 -0.09258333333333325 -2.0925833333333337 -0.09258333333333325 -0.09258333333333325 -0.09258333333333325 -2.0925833333333337 -0.09258333333333325 -0.09258333333333325 -2.0925833333333337 -0.09258333333333325 -0.09258333333333325 -2.0925833333333337 -1.1804666666666668 -3.180466666666666 -1.1804666666666668 -1.1804666666666668 -3.180466666666666 -1.1804666666666668 -1.1804666666666668 -3.180466666666666 -3.180466666666666 -3.180466666666666 -1.1804666666666668 -1.1804666666666668 -3.180466666666666 -1.1804666666666668 -3.180466666666666 -0.2944500000000001 1.7055499999999997 -0.2944500000000001 1.7055499999999997 1.7055499999999997 1.7055499999999997 1.7055499999999997 -0.2944500000000001 -0.2944500000000001 -0.2944500000000001 -0.2944500000000001 1.7055499999999997 -0.2944500000000001 1.7055499999999997 -0.2944500000000001 2.217749999999999 2.217749999999999 2.217749999999999 2.217749999999999 2.217749999999999 2.217749999999999 0.21774999999999983 2.217749999999999 2.217749999999999 2.217749999999999 2.217749999999999 2.217749999999999 0.21774999999999983 2.217749999999999 2.217749999999999 -0.0019499999999999136 -0.0019499999999999136 -0.0019499999999999136 1.9980499999999997 -0.0019499999999999136 1.9980499999999997 -0.0019499999999999136 1.9980499999999997 1.9980499999999997 1.9980499999999997 -0.0019499999999999136 -0.0019499999999999136 -0.0019499999999999136 1.9980499999999997 1.9980499999999997 -1.0723166666666664 -1.0723166666666664 0.9276833333333334 0.9276833333333334 -1.0723166666666664 -1.0723166666666664 0.9276833333333334 -1.0723166666666664 -1.0723166666666664 -1.0723166666666664 0.9276833333333334 0.9276833333333334 -1.0723166666666664 -1.0723166666666664 -1.0723166666666664 -0.33091666666666664 -0.33091666666666664 -0.33091666666666664 1.6690833333333335 1.6690833333333335 1.6690833333333335 1.6690833333333335 -0.33091666666666664 -0.33091666666666664 1.6690833333333335 1.6690833333333335 -0.33091666666666664 -0.33091666666666664 1.6690833333333335 1.6690833333333335 -0.1813166666666667 -0.1813166666666667 -0.1813166666666667 1.8186833333333334 -0.1813166666666667 1.8186833333333334 -0.1813166666666667 1.8186833333333334 1.8186833333333334 -0.1813166666666667 -0.1813166666666667 1.8186833333333334 -0.1813166666666667 -0.1813166666666667 1.8186833333333334 -0.24446666666666667 -2.2444666666666677 -2.2444666666666677 -0.24446666666666667 -0.24446666666666667 -0.24446666666666667 -0.24446666666666667 -0.24446666666666667 -2.2444666666666677 -2.2444666666666677 -0.24446666666666667 -2.2444666666666677 -0.24446666666666667 -0.24446666666666667 -0.24446666666666667 -0.8192833333333334 1.1807166666666664 1.1807166666666664 1.1807166666666664 -0.8192833333333334 1.1807166666666664 1.1807166666666664 1.1807166666666664 1.1807166666666664 1.1807166666666664 1.1807166666666664 -0.8192833333333334 -0.8192833333333334 1.1807166666666664 1.1807166666666664
1.7168500000000004 -0.28315000000000007 1.7168500000000004 -0.28315000000000007 -0.28315000000000007 -0.28315000000000007 -0.28315000000000007 1.7168500000000004 -0.28315000000000007 -0.28315000000000007 -0.28315000000000007 -0.28315000000000007 1.7168500000000004 1.7168500000000004 1.7168500000000004 -0.08733333333333335 -2.087333333333333 -0.08733333333333335 -0.08733333333333335 -0.08733333333333335 -0.08733333333333335 -2.087333333333333 -0.08733333333333335 -0.08733333333333335 -0.08733333333333335 -0.08733333333333335 -2.087333333333333 -0.08733333333333335 -0.08733333333333335 -2.087333333333333 -0.4920833333333331 -0.4920833333333331 1.507916666666666 1.507916666666666 1.507916666666666 -0.4920833333333331 1.507916666666666 1.507916666666666 1.507916666666666 -0.4920833333333331 1.507916666666666 -0.4920833333333331 -0.4920833333333331 -0.4920833333333331 1.507916666666666 0.8252166666666669 0.8252166666666669 2.825216666666666 2.825216666666666 0.8252166666666669 0.8252166666666669 2.825216666666666 2.825216666666666 2.825216666666666 0.8252166666666669 2.825216666666666 2.825216666666666 0.8252166666666669 0.8252166666666669 0.8252166666666669 -1.26255 -1.26255 0.7374500000000003 0.7374500000000003 -1.26255 -1.26255 0.7374500000000003 -1.26255 -1.26255 0.7374500000000003 0.7374500000000003 -1.26255 -1.26255 -1.26255 0.7374500000000003 0.57455 -1.4254499999999999 -1.4254499999999999 -1.4254499999999999 0.57455 -1.4254499999999999 -1.4254499999999999 0.57455 0.57455 0.57455 0.57455 -1.4254499999999999 -1.4254499999999999 0.57455 0.57455 1.6722500000000005 -0.32774999999999993 1.6722500000000005 1.6722500000000005 1.6722500000000005 1.6722500000000005 1.6722500000000005 1.6722500000000005 1.6722500000000005 -0.32774999999999993 1.6722500000000005 -0.32774999999999993 -0.32774999999999993 -0.32774999999999993 1.6722500000000005 -2.1773166666666666 -2.1773166666666666 -0.1773166666666668 -0.1773166666666668 -0.1773166666666668 -2.1773166666666666 -2.1773166666666666 -0.1773166666666668 -0.1773166666666668 -0.1773166666666668 -0.1773166666666668 -2.1773166666666666 -2.1773166666666666 -2.1773166666666666 -0.1773166666666668 -1.0849999999999997 -1.0849999999999997 -1.0849999999999997 -1.0849999999999997 -1.0849999999999997 -1.0849999999999997 0.9150000000000001 -1.0849999999999997 0.9150000000000001 0.9150000000000001 0.9150000000000001 0.9150000000000001 -1.0849999999999997 0.9150000000000001 -1.0849999999999997 -1.6845833333333338 -1.6845833333333338 -1.6845833333333338 -1.6845833333333338 0.3154166666666667 -1.6845833333333338 0.3154166666666667 0.3154166666666667 -1.6845833333333338 -1.6845833333333338 -1.6845833333333338 -1.6845833333333338 0.3154166666666667 0.3154166666666667 0.3154166666666667
0.9240166666666668 0.9240166666666668 -1.0759833333333337 0.9240166666666668 0.9240166666666668 -1.0759833333333337 -1.0759833333333337 -1.0759833333333337 0.9240166666666668 -1.0759833333333337 0.9240166666666668 -1.0759833333333337 -1.0759833333333337 0.9240166666666668 -1.0759833333333337 0.06853333333333336 -1.9314666666666667 -1.9314666666666667 0.06853333333333336 0.06853333333333336 0.06853333333333336 -1.9314666666666667 0.06853333333333336 0.06853333333333336 -1.9314666666666667 0.06853333333333336 -1.9314666666666667 -1.9314666666666667 -1.9314666666666667 -1.9314666666666667 2.8131166666666663 2.8131166666666663 0.8131166666666667 0.8131166666666667 2.8131166666666663 2.8131166666666663 2.8131166666666663 2.8131166666666663 0.8131166666666667 2.8131166666666663 0.8131166666666667 0.8131166666666667 0.8131166666666667 0.8131166666666667 2.8131166666666663 1.72625 3.7262500000000007 1.72625 3.7262500000000007 1.72625 1.72625 3.7262500000000007 1.72625 1.72625 3.7262500000000007 3.7262500000000007 3.7262500000000007 1.72625 1.72625 1.72625 -1.9528166666666664 0.04718333333333316 0.04718333333333316 0.04718333333333316 -1.9528166666666664 -1.9528166666666664 -1.9528166666666664 0.04718333333333316 -1.9528166666666664 -1.9528166666666664 0.04718333333333316 0.04718333333333316 -1.9528166666666664 -1.9528166666666664 -1.9528166666666664 -1.5707499999999999 -1.5707499999999999 0.42924999999999985 -1.5707499999999999 0.42924999999999985 -1.5707499999999999 -1.5707499999999999 -1.5707499999999999 0.42924999999999985 0.42924999999999985 -1.5707499999999999 0.42924999999999985 -1.5707499999999999 -1.5707499999999999 -1.5707499999999999 -0.23218333333333332 -0.23218333333333332 1.7678166666666668 -0.23218333333333332 1.7678166666666668 -0.23218333333333332 -0.23218333333333332 1.7678166666666668 1.7678166666666668 1.7678166666666668 -0.23218333333333332 1.7678166666666668 1.7678166666666668 1.7678166666666668 -0.23218333333333332 -0.6253833333333332 -0.6253833333333332 -0.6253833333333332 -0.6253833333333332 -0.6253833333333332 -0.6253833333333332 -2.625383333333333 -2.625383333333333 -2.625383333333333 -2.625383333333333 -0.6253833333333332 -2.625383333333333 -0.6253833333333332 -2.625383333333333 -2.625383333333333 0.00016666666666666132 2.000166666666666 2.000166666666666 0.00016666666666666132 0.00016666666666666132 2.000166666666666 0.00016666666666666132 0.00016666666666666132 2.000166666666666 0.00016666666666666132 2.000166666666666 0.00016666666666666132 2.000166666666666 2.000166666666666 2.000166666666666 -1.1509499999999997 -3.150950000000001 -1.1509499999999997 -3.150950000000001 -1.1509499999999997 -3.150950000000001 -3.150950000000001 -1.1509499999999997 -1.1509499999999997 -3.150950000000001 -1.1509499999999997 -3.150950000000001 -3.150950000000001 -1.1509499999999997 -1.1509499999999997
-0.0996166666666667 -2.0996166666666665 -0.0996166666666667 -2.0996166666666665 -2.0996166666666665 -0.0996166666666667 -2.0996166666666665 -0.0996166666666667 -0.0996166666666667 -2.0996166666666665 -0.0996166666666667 -2.0996166666666665 -0.0996166666666667 -2.0996166666666665 -0.0996166666666667 -1.3237333333333337 -3.3237333333333328 -3.3237333333333328 -3.3237333333333328 -3.3237333333333328 -3.3237333333333328 -1.3237333333333337 -1.3237333333333337 -1.3237333333333337 -3.3237333333333328 -1.3237333333333337 -1.3237333333333337 -3.3237333333333328 -1.3237333333333337 -3.3237333333333328 0.4366833333333334 0.4366833333333334 -1.5633166666666667 -1.5633166666666667 0.4366833333333334 0.4366833333333334 -1.5633166666666667 0.4366833333333334 -1.5633166666666667 -1.5633166666666667 0.4366833333333334 -1.5633166666666667 0.4366833333333334 0.4366833333333334 -1.5633166666666667 0.08111666666666667 2.0811166666666665 2.0811166666666665 0.08111666666666667 0.08111666666666667 2.0811166666666665 0.08111666666666667 0.08111666666666667 0.08111666666666667 0.08111666666666667 0.08111666666666667 0.08111666666666667 2.0811166666666665 2.0811166666666665 0.08111666666666667 2.903216666666666 0.9032166666666668 0.9032166666666668 2.903216666666666 0.9032166666666668 2.903216666666666 0.9032166666666668 0.9032166666666668 0.9032166666666668 0.9032166666666668 2.903216666666666 2.903216666666666 0.9032166666666668 0.9032166666666668 0.9032166666666668 0.011716666666666641 2.011716666666667 0.011716666666666641 0.011716666666666641 2.011716666666667 2.011716666666667 2.011716666666667 0.011716666666666641 2.011716666666667 0.011716666666666641 0.011716666666666641 2.011716666666667 2.011716666666667 2.011716666666667 2.011716666666667 0.2687833333333333 0.2687833333333333 2.2687833333333334 2.2687833333333334 2.2687833333333334 2.2687833333333334 0.2687833333333333 2.2687833333333334 2.2687833333333334 2.2687833333333334 2.2687833333333334 0.2687833333333333 2.2687833333333334 0.2687833333333333 0.2687833333333333 -1.2267166666666667 -3.2267166666666665 -1.2267166666666667 -1.2267166666666667 -3.2267166666666665 -1.2267166666666667 -1.2267166666666667 -1.2267166666666667 -3.2267166666666665 -3.2267166666666665 -1.2267166666666667 -3.2267166666666665 -3.2267166666666665 -1.2267166666666667 -3.2267166666666665 -0.8244333333333331 -0.8244333333333331 1.175566666666667 1.175566666666667 1.175566666666667 -0.8244333333333331 -0.8244333333333331 -0.8244333333333331 -0.8244333333333331 1.175566666666667 1.175566666666667 1.175566666666667 -0.8244333333333331 1.175566666666667 -0.8244333333333331 -0.22701666666666673 -0.22701666666666673 1.7729833333333334 1.7729833333333334 1.7729833333333334 -0.22701666666666673 -0.22701666666666673 1.7729833333333334 -0.22701666666666673 -0.22701666666666673 1.7729833333333334 -0.22701666666666673 1.7729833333333334 -0.22701666666666673 -0.22701666666666673
-0.7824166666666669 -0.7824166666666669 1.2175833333333335 -0.7824166666666669 1.2175833333333335 1.2175833333333335 -0.7824166666666669 -0.7824166666666669 1.2175833333333335 -0.7824166666666669 1.2175833333333335 -0.7824166666666669 -0.7824166666666669 -0.7824166666666669 1.2175833333333335 0.00810000000000009 0.00810000000000009 -1.9919000000000002 -1.9919000000000002 0.00810000000000009 0.00810000000000009 0.00810000000000009 0.00810000000000009 0.00810000000000009 0.00810000000000009 -1.9919000000000002 0.00810000000000009 0.00810000000000009 0.00810000000000009 -1.9919000000000002 -0.2192499999999999 -0.2192499999999999 -0.2192499999999999 -0.2192499999999999 -0.2192499999999999 -2.21925 -2.21925 -2.21925 -2.21925 -2.21925 -2.21925 -2.21925 -2.21925 -2.21925 -0.2192499999999999 1.0765833333333334 1.0765833333333334 1.0765833333333334 1.0765833333333334 1.0765833333333334 -0.9234166666666664 1.0765833333333334 1.0765833333333334 1.0765833333333334 1.0765833333333334 -0.9234166666666664 1.0765833333333334 -0.9234166666666664 -0.9234166666666664 1.0765833333333334 -1.9448499999999997 0.05514999999999997 -1.9448499999999997 0.05514999999999997 -1.9448499999999997 0.05514999999999997 0.05514999999999997 0.05514999999999997 -1.9448499999999997 -1.9448499999999997 0.05514999999999997 0.05514999999999997 0.05514999999999997 0.05514999999999997 0.05514999999999997 0.63115 2.6311500000000003 2.6311500000000003 0.63115 0.63115 0.63115 2.6311500000000003 2.6311500000000003 2.6311500000000003 0.63115 2.6311500000000003 0.63115 0.63115 2.6311500000000003 2.6311500000000003 2.3430166666666667 2.3430166666666667 0.34301666666666675 2.3430166666666667 2.3430166666666667 0.34301666666666675 2.3430166666666667 2.3430166666666667 2.3430166666666667 0.34301666666666675 0.34301666666666675 2.3430166666666667 0.34301666666666675 2.3430166666666667 2.3430166666666667 -0.8410833333333331 1.1589166666666666 1.1589166666666666 -0.8410833333333331 -0.8410833333333331 -0.8410833333333331 1.1589166666666666 1.1589166666666666 -0.8410833333333331 1.1589166666666666 -0.8410833333333331 1.1589166666666666 1.1589166666666666 -0.8410833333333331 -0.8410833333333331 1.8633333333333335 1.8633333333333335 -0.1366666666666667 -0.1366666666666667 1.8633333333333335 1.8633333333333335 1.8633333333333335 1.8633333333333335 1.8633333333333335 1.8633333333333335 1.8633333333333335 -0.1366666666666667 1.8633333333333335 1.8633333333333335 1.8633333333333335 -0.13458333333333322 -2.1345833333333335 -0.13458333333333322 -0.13458333333333322 -0.13458333333333322 -0.13458333333333322 -0.13458333333333322 -2.1345833333333335 -0.13458333333333322 -0.13458333333333322 -0.13458333333333322 -0.13458333333333322 -2.1345833333333335 -2.1345833333333335 -0.13458333333333322
-2.075783333333333 -2.075783333333333 -2.075783333333333 -0.07578333333333336 -0.07578333333333336 -0.07578333333333336 -0.07578333333333336 -0.07578333333333336 -2.075783333333333 -2.075783333333333 -0.07578333333333336 -2.075783333333333 -0.07578333333333336 -2.075783333333333 -2.075783333333333 -1.8260666666666665 -1.8260666666666665 -1.8260666666666665 0.1739333333333334 -1.8260666666666665 0.1739333333333334 -1.8260666666666665 -1.8260666666666665 -1.8260666666666665 0.1739333333333334 -1.8260666666666665 0.1739333333333334 0.1739333333333334 -1.8260666666666665 -1.8260666666666665 0.42271666666666674 0.42271666666666674 2.422716666666667 0.42271666666666674 2.422716666666667 0.42271666666666674 0.42271666666666674 2.422716666666667 0.42271666666666674 2.422716666666667 2.422716666666667 0.42271666666666674 0.42271666666666674 0.42271666666666674 2.422716666666667 -2.3439833333333326 -2.3439833333333326 -0.3439833333333334 -0.3439833333333334 -2.3439833333333326 -0.3439833333333334 -0.3439833333333334 -0.3439833333333334 -2.3439833333333326 -0.3439833333333334 -2.3439833333333326 -0.3439833333333334 -0.3439833333333334 -0.3439833333333334 -2.3439833333333326 2.6503166666666664 0.6503166666666667 2.6503166666666664 2.6503166666666664 2.6503166666666664 0.6503166666666667 2.6503166666666664 0.6503166666666667 2.6503166666666664 0.6503166666666667 2.6503166666666664 2.6503166666666664 0.6503166666666667 0.6503166666666667 0.6503166666666667 -0.040883333333333306 -2.0408833333333334 -2.0408833333333334 -0.040883333333333306 -2.0408833333333334 -0.040883333333333306 -0.040883333333333306 -0.040883333333333306 -0.040883333333333306 -2.0408833333333334 -2.0408833333333334 -0.040883333333333306 -2.0408833333333334 -2.0408833333333334 -2.0408833333333334 2.976283333333333 0.9762833333333334 0.9762833333333334 2.976283333333333 0.9762833333333334 2.976283333333333 2.976283333333333 0.9762833333333334 2.976283333333333 0.9762833333333334 2.976283333333333 2.976283333333333 0.9762833333333334 0.9762833333333334 0.9762833333333334 -3.003550000000001 -1.00355 -3.003550000000001 -3.003550000000001 -1.00355 -1.00355 -1.00355 -1.00355 -1.00355 -3.003550000000001 -1.00355 -3.003550000000001 -1.00355 -3.003550000000001 -3.003550000000001 0.2354333333333333 0.2354333333333333 0.2354333333333333 0.2354333333333333 0.2354333333333333 0.2354333333333333 2.2354333333333334 2.2354333333333334 2.2354333333333334 2.2354333333333334 2.2354333333333334 2.2354333333333334 0.2354333333333333 2.2354333333333334 0.2354333333333333 1.0055166666666668 -0.9944833333333329 1.0055166666666668 -0.9944833333333329 -0.9944833333333329 1.0055166666666668 1.0055166666666668 1.0055166666666668 -0.9944833333333329 -0.9944833333333329 1.0055166666666668 -0.9944833333333329 1.0055166666666668 1.0055166666666668 1.0055166666666668
-1.4353833333333335 0.5646166666666668 0.5646166666666668 -1.4353833333333335 0.5646166666666668 -1.4353833333333335 -1.4353833333333335 0.5646166666666668 -1.4353833333333335 0.5646166666666668 0.5646166666666668 0.5646166666666668 0.5646166666666668 -1.4353833333333335 0.5646166666666668 0.02586666666666659 2.0258666666666665 0.02586666666666659 0.02586666666666659 2.0258666666666665 0.02586666666666659 0.02586666666666659 0.02586666666666659 0.02586666666666659 2.0258666666666665 0.02586666666666659 2.0258666666666665 0.02586666666666659 2.0258666666666665 2.0258666666666665 1.1997166666666663 -0.8002833333333336 1.1997166666666663 -0.8002833333333336 -0.8002833333333336 -0.8002833333333336 1.1997166666666663 1.1997166666666663 1.1997166666666663 -0.8002833333333336 -0.8002833333333336 1.1997166666666663 1.1997166666666663 -0.8002833333333336 -0.8002833333333336 -0.9852500000000004 1.0147499999999998 1.0147499999999998 1.0147499999999998 -0.9852500000000004 1.0147499999999998 -0.9852500000000004 -0.9852500000000004 1.0147499999999998 1.0147499999999998 1.0147499999999998 -0.9852500000000004 1.0147499999999998 1.0147499999999998 1.0147499999999998 1.4118833333333332 -0.5881166666666666 1.4118833333333332 -0.5881166666666666 1.4118833333333332 -0.5881166666666666 -0.5881166666666666 -0.5881166666666666 1.4118833333333332 -0.5881166666666666 1.4118833333333332 1.4118833333333332 1.4118833333333332 1.4118833333333332 1.4118833333333332 0.4194500000000004 0.4194500000000004 -1.5805499999999992 0.4194500000000004 -1.5805499999999992 -1.5805499999999992 0.4194500000000004 -1.5805499999999992 -1.5805499999999992 -1.5805499999999992 0.4194500000000004 -1.5805499999999992 -1.5805499999999992 0.4194500000000004 0.4194500000000004 0.9533166666666667 0.9533166666666667 0.9533166666666667 -1.0466833333333336 0.9533166666666667 0.9533166666666667 0.9533166666666667 0.9533166666666667 -1.0466833333333336 -1.0466833333333336 0.9533166666666667 0.9533166666666667 0.9533166666666667 -1.0466833333333336 0.9533166666666667 1.2352833333333335 -0.7647166666666663 -0.7647166666666663 1.2352833333333335 -0.7647166666666663 -0.7647166666666663 -0.7647166666666663 -0.7647166666666663 1.2352833333333335 -0.7647166666666663 1.2352833333333335 1.2352833333333335 1.2352833333333335 -0.7647166666666663 1.2352833333333335 0.05626666666666677 -1.943733333333333 -1.943733333333333 -1.943733333333333 -1.943733333333333 0.05626666666666677 -1.943733333333333 -1.943733333333333 0.05626666666666677 -1.943733333333333 -1.943733333333333 0.05626666666666677 0.05626666666666677 0.05626666666666677 0.05626666666666677 1.1188500000000003 1.1188500000000003 -0.8811499999999999 1.1188500000000003 1.1188500000000003 1.1188500000000003 -0.8811499999999999 -0.8811499999999999 -0.8811499999999999 1.1188500000000003 -0.8811499999999999 1.1188500000000003 -0.8811499999999999 -0.8811499999999999 1.1188500000000003
0.1082833333333334 0.1082833333333334 0.1082833333333334 0.1082833333333334 -1.8917166666666665 0.1082833333333334 -1.8917166666666665 -1.8917166666666665 0.1082833333333334 -1.8917166666666665 0.1082833333333334 -1.8917166666666665 -1.8917166666666665 -1.8917166666666665 -1.8917166666666665 -1.4709333333333328 0.5290666666666668 -1.4709333333333328 0.5290666666666668 -1.4709333333333328 0.5290666666666668 0.5290666666666668 0.5290666666666668 -1.4709333333333328 0.5290666666666668 0.5290666666666668 -1.4709333333333328 -1.4709333333333328 0.5290666666666668 -1.4709333333333328 0.13691666666666677 2.136916666666667 0.13691666666666677 0.13691666666666677 2.136916666666667 2.136916666666667 0.13691666666666677 0.13691666666666677 2.136916666666667 0.13691666666666677 2.136916666666667 2.136916666666667 0.13691666666666677 0.13691666666666677 2.136916666666667 1.28175 3.2817500000000006 1.28175 3.2817500000000006 1.28175 1.28175 3.2817500000000006 1.28175 3.2817500000000006 3.2817500000000006 1.28175 3.2817500000000006 1.28175 1.28175 3.2817500000000006 1.2033500000000004 1.2033500000000004 -0.7966500000000002 1.2033500000000004 1.2033500000000004 1.2033500000000004 1.2033500000000004 -0.7966500000000002 -0.7966500000000002 1.2033500000000004 -0.7966500000000002 1.2033500000000004 -0.7966500000000002 1.2033500000000004 -0.7966500000000002 0.22948333333333343 0.22948333333333343 -1.7705166666666665 -1.7705166666666665 0.22948333333333343 -1.7705166666666665 -1.7705166666666665 -1.7705166666666665 -1.7705166666666665 -1.7705166666666665 -1.7705166666666665 0.22948333333333343 0.22948333333333343 -1.7705166666666665 0.22948333333333343 1.0860166666666657 1.0860166666666657 -0.9139833333333334 1.0860166666666657 1.0860166666666657 1.0860166666666657 -0.9139833333333334 -0.9139833333333334 1.0860166666666657 1.0860166666666657 1.0860166666666657 1.0860166666666657 1.0860166666666657 1.0860166666666657 -0.9139833333333334 0.7142166666666667 -1.285783333333333 0.7142166666666667 0.7142166666666667 -1.285783333333333 0.7142166666666667 0.7142166666666667 0.7142166666666667 -1.285783333333333 -1.285783333333333 -1.285783333333333 -1.285783333333333 0.7142166666666667 0.7142166666666667 0.7142166666666667 -1.7533666666666665 -1.7533666666666665 -1.7533666666666665 0.24663333333333343 0.24663333333333343 -1.7533666666666665 -1.7533666666666665 0.24663333333333343 -1.7533666666666665 -1.7533666666666665 -1.7533666666666665 -1.7533666666666665 0.24663333333333343 0.24663333333333343 -1.7533666666666665 0.4642833333333334 0.4642833333333334 0.4642833333333334 -1.5357166666666666 0.4642833333333334 0.4642833333333334 -1.5357166666666666 0.4642833333333334 -1.5357166666666666 -1.5357166666666666 0.4642833333333334 0.4642833333333334 -1.5357166666666666 -1.5357166666666666 -1.5357166666666666
-0.9062833333333331 1.0937166666666667 -0.9062833333333331 -0.9062833333333331 1.0937166666666667 -0.9062833333333331 1.0937166666666667 1.0937166666666667 1.0937166666666667 1.0937166666666667 1.0937166666666667 -0.9062833333333331 1.0937166666666667 -0.9062833333333331 -0.9062833333333331 -0.6726 -0.6726 -0.6726 1.3273999999999995 1.3273999999999995 1.3273999999999995 1.3273999999999995 1.3273999999999995 -0.6726 -0.6726 1.3273999999999995 1.3273999999999995 1.3273999999999995 -0.6726 -0.6726 -2.501683333333334 -0.5016833333333335 -2.501683333333334 -0.5016833333333335 -2.501683333333334 -0.5016833333333335 -2.501683333333334 -2.501683333333334 -0.5016833333333335 -0.5016833333333335 -0.5016833333333335 -2.501683333333334 -0.5016833333333335 -0.5016833333333335 -0.5016833333333335 1.9189166666666668 1.9189166666666668 1.9189166666666668 -0.08108333333333342 -0.08108333333333342 1.9189166666666668 -0.08108333333333342 -0.08108333333333342 1.9189166666666668 1.9189166666666668 1.9189166666666668 1.9189166666666668 -0.08108333333333342 -0.08108333333333342 -0.08108333333333342 0.23601666666666662 -1.763983333333333 0.23601666666666662 -1.763983333333333 -1.763983333333333 0.23601666666666662 0.23601666666666662 0.23601666666666662 0.23601666666666662 0.23601666666666662 0.23601666666666662 -1.763983333333333 -1.763983333333333 0.23601666666666662 -1.763983333333333 0.00731666666666661 0.00731666666666661 2.007316666666667 0.00731666666666661 0.00731666666666661 2.007316666666667 2.007316666666667 2.007316666666667 2.007316666666667 0.00731666666666661 0.00731666666666661 0.00731666666666661 2.007316666666667 0.00731666666666661 0.00731666666666661 -3.3352166666666663 -3.3352166666666663 -3.3352166666666663 -3.3352166666666663 -1.3352166666666665 -1.3352166666666665 -3.3352166666666663 -1.3352166666666665 -3.3352166666666663 -1.3352166666666665 -3.3352166666666663 -1.3352166666666665 -1.3352166666666665 -3.3352166666666663 -3.3352166666666663 1.7182166666666665 -0.28178333333333333 -0.28178333333333333 -0.28178333333333333 1.7182166666666665 1.7182166666666665 1.7182166666666665 -0.28178333333333333 -0.28178333333333333 -0.28178333333333333 -0.28178333333333333 1.7182166666666665 -0.28178333333333333 -0.28178333333333333 1.7182166666666665 0.653 0.653 2.6530000000000014 0.653 0.653 0.653 0.653 0.653 2.6530000000000014 2.6530000000000014 0.653 0.653 0.653 2.6530000000000014 2.6530000000000014 0.8823166666666665 0.8823166666666665 -1.1176833333333336 0.8823166666666665 -1.1176833333333336 0.8823166666666665 -1.1176833333333336 -1.1176833333333336 -1.1176833333333336 0.8823166666666665 -1.1176833333333336 0.8823166666666665 0.8823166666666665 0.8823166666666665 0.8823166666666665
1.203583333333333 -0.7964166666666667 1.203583333333333 -0.7964166666666667 1.203583333333333 1.203583333333333 -0.7964166666666667 1.203583333333333 1.203583333333333 1.203583333333333 1.203583333333333 1.203583333333333 -0.7964166666666667 1.203583333333333 -0.7964166666666667 -1.3363333333333327 -1.3363333333333327 0.6636666666666665 -1.3363333333333327 -1.3363333333333327 0.6636666666666665 0.6636666666666665 -1.3363333333333327 -1.3363333333333327 0.6636666666666665 0.6636666666666665 0.6636666666666665 0.6636666666666665 -1.3363333333333327 -1.3363333333333327 -0.0024500000000001482 -0.0024500000000001482 1.9975500000000004 -0.0024500000000001482 1.9975500000000004 -0.0024500000000001482 -0.0024500000000001482 -0.0024500000000001482 1.9975500000000004 -0.0024500000000001482 -0.0024500000000001482 -0.0024500000000001482 1.9975500000000004 -0.0024500000000001482 1.9975500000000004 0.07834999999999998 0.07834999999999998 0.07834999999999998 2.078349999999999 0.07834999999999998 0.07834999999999998 2.078349999999999 2.078349999999999 0.07834999999999998 2.078349999999999 0.07834999999999998 0.07834999999999998 0.07834999999999998 2.078349999999999 0.07834999999999998 -2.559716666666666 -4.5597166666666675 -4.5597166666666675 -4.5597166666666675 -4.5597166666666675 -2.559716666666666 -2.559716666666666 -2.559716666666666 -4.5597166666666675 -2.559716666666666 -2.559716666666666 -2.559716666666666 -4.5597166666666675 -4.5597166666666675 -4.5597166666666675 0.5771833333333333 -1.4228166666666664 0.5771833333333333 0.5771833333333333 0.5771833333333333 0.5771833333333333 -1.4228166666666664 -1.4228166666666664 -1.4228166666666664 0.5771833333333333 -1.4228166666666664 0.5771833333333333 0.5771833333333333 -1.4228166666666664 0.5771833333333333 1.033816666666667 -0.9661833333333333 1.033816666666667 -0.9661833333333333 1.033816666666667 -0.9661833333333333 -0.9661833333333333 -0.9661833333333333 1.033816666666667 -0.9661833333333333 1.033816666666667 -0.9661833333333333 -0.9661833333333333 -0.9661833333333333 -0.9661833333333333 -1.9965500000000003 0.003450000000000012 0.003450000000000012 -1.9965500000000003 -1.9965500000000003 -1.9965500000000003 -1.9965500000000003 0.003450000000000012 0.003450000000000012 -1.9965500000000003 -1.9965500000000003 0.003450000000000012 -1.9965500000000003 0.003450000000000012 0.003450000000000012 1.9967000000000004 -0.0032999999999999696 1.9967000000000004 1.9967000000000004 -0.0032999999999999696 -0.0032999999999999696 -0.0032999999999999696 1.9967000000000004 1.9967000000000004 -0.0032999999999999696 -0.0032999999999999696 1.9967000000000004 -0.0032999999999999696 -0.0032999999999999696 -0.0032999999999999696 1.0054166666666664 3.0054166666666666 3.0054166666666666 1.0054166666666664 1.0054166666666664 1.0054166666666664 1.0054166666666664 1.0054166666666664 3.0054166666666666 1.0054166666666664 1.0054166666666664 1.0054166666666664 1.0054166666666664 1.0054166666666664 1.0054166666666664
-1.37825 -1.37825 0.6217500000000001 0.6217500000000001 -1.37825 0.6217500000000001 0.6217500000000001 0.6217500000000001 -1.37825 -1.37825 -1.37825 -1.37825 -1.37825 -1.37825 -1.37825 2.982366666666667 0.9823666666666669 0.9823666666666669 2.982366666666667 2.982366666666667 2.982366666666667 2.982366666666667 0.9823666666666669 2.982366666666667 0.9823666666666669 0.9823666666666669 2.982366666666667 0.9823666666666669 0.9823666666666669 0.9823666666666669 0.03145000000000001 -1.96855 0.03145000000000001 0.03145000000000001 -1.96855 0.03145000000000001 -1.96855 0.03145000000000001 -1.96855 0.03145000000000001 -1.96855 0.03145000000000001 -1.96855 -1.96855 0.03145000000000001 0.33938333333333337 0.33938333333333337 2.3393833333333336 2.3393833333333336 2.3393833333333336 0.33938333333333337 0.33938333333333337 2.3393833333333336 0.33938333333333337 2.3393833333333336 0.33938333333333337 2.3393833333333336 0.33938333333333337 0.33938333333333337 2.3393833333333336 -1.9891833333333333 -1.9891833333333333 -1.9891833333333333 0.010816666666666556 -1.9891833333333333 0.010816666666666556 -1.9891833333333333 -1.9891833333333333 -1.9891833333333333 0.010816666666666556 -1.9891833333333333 0.010816666666666556 0.010816666666666556 -1.9891833333333333 -1.9891833333333333 -0.739216666666667 -0.739216666666667 -0.739216666666667 1.2607833333333331 -0.739216666666667 -0.739216666666667 -0.739216666666667 -0.739216666666667 -0.739216666666667 -0.739216666666667 1.2607833333333331 1.2607833333333331 -0.739216666666667 -0.739216666666667 1.2607833333333331 0.5604499999999998 -1.43955 0.5604499999999998 0.5604499999999998 -1.43955 -1.43955 -1.43955 -1.43955 -1.43955 0.5604499999999998 -1.43955 -1.43955 -1.43955 -1.43955 -1.43955 1.8026499999999996 -0.19735000000000005 -0.19735000000000005 -0.19735000000000005 1.8026499999999996 -0.19735000000000005 1.8026499999999996 -0.19735000000000005 -0.19735000000000005 1.8026499999999996 -0.19735000000000005 1.8026499999999996 1.8026499999999996 -0.19735000000000005 -0.19735000000000005 0.11703333333333331 0.11703333333333331 0.11703333333333331 0.11703333333333331 -1.8829666666666671 -1.8829666666666671 0.11703333333333331 0.11703333333333331 -1.8829666666666671 0.11703333333333331 0.11703333333333331 -1.8829666666666671 0.11703333333333331 0.11703333333333331 -1.8829666666666671 -1.7266833333333333 -1.7266833333333333 0.2733166666666668 0.2733166666666668 -1.7266833333333333 0.2733166666666668 -1.7266833333333333 -1.7266833333333333 0.2733166666666668 0.2733166666666668 0.2733166666666668 -1.7266833333333333 -1.7266833333333333 -1.7266833333333333 -1.7266833333333333
0.6569166666666665 0.6569166666666665 0.6569166666666665 -1.3430833333333327 -1.3430833333333327 -1.3430833333333327 0.6569166666666665 -1.3430833333333327 0.6569166666666665 0.6569166666666665 -1.3430833333333327 0.6569166666666665 0.6569166666666665 -1.3430833333333327 0.6569166666666665 1.448866666666667 -0.5511333333333334 1.448866666666667 -0.5511333333333334 1.448866666666667 -0.5511333333333334 1.448866666666667 1.448866666666667 1.448866666666667 -0.5511333333333334 -0.5511333333333334 1.448866666666667 1.448866666666667 1.448866666666667 -0.5511333333333334 -0.32624999999999993 -0.32624999999999993 -0.32624999999999993 1.67375 -0.32624999999999993 1.67375 1.67375 -0.32624999999999993 1.67375 1.67375 -0.32624999999999993 -0.32624999999999993 -0.32624999999999993 1.67375 -0.32624999999999993 2.7950166666666667 2.7950166666666667 0.7950166666666663 2.7950166666666667 0.7950166666666663 2.7950166666666667 2.7950166666666667 2.7950166666666667 0.7950166666666663 2.7950166666666667 0.7950166666666663 0.7950166666666663 2.7950166666666667 0.7950166666666663 0.7950166666666663 -1.0606166666666665 0.9393833333333332 -1.0606166666666665 -1.0606166666666665 -1.0606166666666665 -1.0606166666666665 0.9393833333333332 -1.0606166666666665 -1.0606166666666665 0.9393833333333332 -1.0606166666666665 0.9393833333333332 -1.0606166666666665 0.9393833333333332 0.9393833333333332 0.7653166666666665 0.7653166666666665 -1.2346833333333336 -1.2346833333333336 -1.2346833333333336 -1.2346833333333336 -1.2346833333333336 0.7653166666666665 0.7653166666666665 -1.2346833333333336 0.7653166666666665 -1.2346833333333336 0.7653166666666665 -1.2346833333333336 -1.2346833333333336 -1.55765 -1.55765 -1.55765 -1.55765 -1.55765 0.4423500000000002 0.4423500000000002 0.4423500000000002 -1.55765 0.4423500000000002 0.4423500000000002 -1.55765 0.4423500000000002 0.4423500000000002 0.4423500000000002 -1.38565 0.61435 -1.38565 -1.38565 0.61435 -1.38565 -1.38565 0.61435 -1.38565 0.61435 -1.38565 0.61435 0.61435 0.61435 0.61435 -1.6813000000000005 -1.6813000000000005 0.3187 0.3187 0.3187 0.3187 -1.6813000000000005 -1.6813000000000005 -1.6813000000000005 0.3187 -1.6813000000000005 -1.6813000000000005 0.3187 0.3187 -1.6813000000000005 -1.6546500000000002 -1.6546500000000002 -1.6546500000000002 0.34534999999999993 0.34534999999999993 0.34534999999999993 0.34534999999999993 0.34534999999999993 -1.6546500000000002 -1.6546500000000002 0.34534999999999993 0.34534999999999993 0.34534999999999993 -1.6546500000000002 0.34534999999999993
-1.7941833333333335 -1.7941833333333335 -1.7941833333333335 -1.7941833333333335 0.2058166666666666 0.2058166666666666 0.2058166666666666 0.2058166666666666 -1.7941833333333335 -1.7941833333333335 -1.7941833333333335 -1.7941833333333335 0.2058166666666666 0.2058166666666666 0.2058166666666666 0.09760000000000013 0.09760000000000013 2.0976 0.09760000000000013 2.0976 2.0976 2.0976 2.0976 0.09760000000000013 2.0976 0.09760000000000013 0.09760000000000013 0.09760000000000013 0.09760000000000013 0.09760000000000013 -0.8529166666666668 -0.8529166666666668 -0.8529166666666668 1.1470833333333326 -0.8529166666666668 1.1470833333333326 -0.8529166666666668 -0.8529166666666668 -0.8529166666666668 1.1470833333333326 1.1470833333333326 -0.8529166666666668 -0.8529166666666668 -0.8529166666666668 -0.8529166666666668 -0.9139500000000005 1.0860500000000004 1.0860500000000004 -0.9139500000000005 -0.9139500000000005 1.0860500000000004 1.0860500000000004 -0.9139500000000005 1.0860500000000004 1.0860500000000004 1.0860500000000004 -0.9139500000000005 -0.9139500000000005 1.0860500000000004 -0.9139500000000005 -0.5290499999999998 -0.5290499999999998 1.47095 1.47095 1.47095 1.47095 -0.5290499999999998 1.47095 -0.5290499999999998 1.47095 1.47095 -0.5290499999999998 1.47095 -0.5290499999999998 1.47095 -1.5306166666666667 0.46938333333333315 0.46938333333333315 0.46938333333333315 0.46938333333333315 0.46938333333333315 0.46938333333333315 0.46938333333333315 -1.5306166666666667 0.46938333333333315 0.46938333333333315 -1.5306166666666667 0.46938333333333315 0.46938333333333315 -1.5306166666666667 1.046716666666666 1.046716666666666 1.046716666666666 -0.9532833333333334 1.046716666666666 1.046716666666666 -0.9532833333333334 1.046716666666666 -0.9532833333333334 1.046716666666666 1.046716666666666 1.046716666666666 1.046716666666666 -0.9532833333333334 -0.9532833333333334 1.3310499999999998 -0.6689499999999999 -0.6689499999999999 1.3310499999999998 -0.6689499999999999 -0.6689499999999999 1.3310499999999998 -0.6689499999999999 1.3310499999999998 1.3310499999999998 1.3310499999999998 1.3310499999999998 -0.6689499999999999 -0.6689499999999999 1.3310499999999998 -0.011000000000000013 -2.0110000000000006 -0.011000000000000013 -2.0110000000000006 -2.0110000000000006 -0.011000000000000013 -0.011000000000000013 -0.011000000000000013 -2.0110000000000006 -0.011000000000000013 -0.011000000000000013 -0.011000000000000013 -0.011000000000000013 -0.011000000000000013 -0.011000000000000013 1.15635 1.15635 1.15635 1.15635 1.15635 -0.8436500000000003 1.15635 -0.8436500000000003 1.15635 -0.8436500000000003 1.15635 -0.8436500000000003 1.15635 1.15635 -0.8436500000000003
2.471216666666666 0.4712166666666668 2.471216666666666 0.4712166666666668 0.4712166666666668 0.4712166666666668 2.471216666666666 0.4712166666666668 2.471216666666666 0.4712166666666668 0.4712166666666668 2.471216666666666 0.4712166666666668 2.471216666666666 2.471216666666666 -1.8786999999999998 -1.8786999999999998 -1.8786999999999998 -1.8786999999999998 0.12129999999999995 0.12129999999999995 -1.8786999999999998 -1.8786999999999998 -1.8786999999999998 0.12129999999999995 0.12129999999999995 0.12129999999999995 -1.8786999999999998 0.12129999999999995 0.12129999999999995 -0.8391166666666666 -2.839116666666666 -2.839116666666666 -0.8391166666666666 -0.8391166666666666 -0.8391166666666666 -2.839116666666666 -2.839116666666666 -2.839116666666666 -0.8391166666666666 -2.839116666666666 -0.8391166666666666 -2.839116666666666 -0.8391166666666666 -2.839116666666666 -1.7650499999999998 -1.7650499999999998 0.23495000000000024 -1.7650499999999998 0.23495000000000024 0.23495000000000024 -1.7650499999999998 -1.7650499999999998 -1.7650499999999998 -1.7650499999999998 0.23495000000000024 0.23495000000000024 0.23495000000000024 0.23495000000000024 0.23495000000000024 3.4981166666666677 1.4981166666666663 1.4981166666666663 1.4981166666666663 3.4981166666666677 1.4981166666666663 1.4981166666666663 1.4981166666666663 3.4981166666666677 1.4981166666666663 3.4981166666666677 1.4981166666666663 1.4981166666666663 1.4981166666666663 1.4981166666666663 0.8380499999999997 0.8380499999999997 -1.1619500000000003 0.8380499999999997 0.8380499999999997 0.8380499999999997 0.8380499999999997 -1.1619500000000003 -1.1619500000000003 0.8380499999999997 0.8380499999999997 0.8380499999999997 0.8380499999999997 -1.1619500000000003 0.8380499999999997 1.9530166666666666 1.9530166666666666 1.9530166666666666 1.9530166666666666 -0.04698333333333346 1.9530166666666666 1.9530166666666666 -0.04698333333333346 -0.04698333333333346 -0.04698333333333346 -0.04698333333333346 1.9530166666666666 1.9530166666666666 1.9530166666666666 1.9530166666666666 -0.23518333333333336 -2.235183333333333 -0.23518333333333336 -0.23518333333333336 -2.235183333333333 -2.235183333333333 -0.23518333333333336 -0.23518333333333336 -2.235183333333333 -0.23518333333333336 -2.235183333333333 -2.235183333333333 -0.23518333333333336 -0.23518333333333336 -2.235183333333333 -0.07536666666666658 -0.07536666666666658 -0.07536666666666658 -2.075366666666667 -2.075366666666667 -2.075366666666667 -0.07536666666666658 -0.07536666666666658 -0.07536666666666658 -2.075366666666667 -0.07536666666666658 -2.075366666666667 -0.07536666666666658 -2.075366666666667 -0.07536666666666658 0.033016666666666604 2.0330166666666663 0.033016666666666604 0.033016666666666604 2.0330166666666663 0.033016666666666604 2.0330166666666663 0.033016666666666604 2.0330166666666663 2.0330166666666663 0.033016666666666604 2.0330166666666663 2.0330166666666663 2.0330166666666663 2.0330166666666663
1.9475499999999992 -0.05245000000000004 -0.05245000000000004 -0.05245000000000004 1.9475499999999992 -0.05245000000000004 1.9475499999999992 1.9475499999999992 1.9475499999999992 -0.05245000000000004 -0.05245000000000004 -0.05245000000000004 -0.05245000000000004 -0.05245000000000004 1.9475499999999992 0.3957999999999998 0.3957999999999998 -1.6041999999999998 -1.6041999999999998 0.3957999999999998 -1.6041999999999998 0.3957999999999998 0.3957999999999998 -1.6041999999999998 -1.6041999999999998 -1.6041999999999998 0.3957999999999998 0.3957999999999998 -1.6041999999999998 -1.6041999999999998 0.11408333333333326 -1.8859166666666665 0.11408333333333326 -1.8859166666666665 -1.8859166666666665 0.11408333333333326 0.11408333333333326 0.11408333333333326 -1.8859166666666665 0.11408333333333326 0.11408333333333326 0.11408333333333326 0.11408333333333326 -1.8859166666666665 -1.8859166666666665 -0.30428333333333346 1.6957166666666665 1.6957166666666665 -0.30428333333333346 1.6957166666666665 1.6957166666666665 -0.30428333333333346 -0.30428333333333346 -0.30428333333333346 1.6957166666666665 -0.30428333333333346 -0.30428333333333346 -0.30428333333333346 -0.30428333333333346 -0.30428333333333346 -0.04501666666666666 1.954983333333333 -0.04501666666666666 -0.04501666666666666 1.954983333333333 -0.04501666666666666 1.954983333333333 1.954983333333333 1.954983333333333 -0.04501666666666666 -0.04501666666666666 1.954983333333333 -0.04501666666666666 -0.04501666666666666 -0.04501666666666666 -2.300416666666667 -0.3004166666666668 -2.300416666666667 -0.3004166666666668 -0.3004166666666668 -2.300416666666667 -2.300416666666667 -0.3004166666666668 -0.3004166666666668 -0.3004166666666668 -0.3004166666666668 -0.3004166666666668 -0.3004166666666668 -0.3004166666666668 -2.300416666666667 1.2107166666666669 1.2107166666666669 1.2107166666666669 3.2107166666666673 1.2107166666666669 3.2107166666666673 3.2107166666666673 3.2107166666666673 1.2107166666666669 1.2107166666666669 3.2107166666666673 1.2107166666666669 1.2107166666666669 3.2107166666666673 1.2107166666666669 -0.9538833333333335 1.0461166666666666 1.0461166666666666 -0.9538833333333335 1.0461166666666666 -0.9538833333333335 -0.9538833333333335 -0.9538833333333335 1.0461166666666666 1.0461166666666666 -0.9538833333333335 1.0461166666666666 1.0461166666666666 -0.9538833333333335 1.0461166666666666 -0.22360000000000005 -2.2236000000000007 -0.22360000000000005 -0.22360000000000005 -2.2236000000000007 -2.2236000000000007 -0.22360000000000005 -2.2236000000000007 -0.22360000000000005 -0.22360000000000005 -2.2236000000000007 -0.22360000000000005 -0.22360000000000005 -2.2236000000000007 -2.2236000000000007 -1.84095 0.15905 -1.84095 -1.84095 -1.84095 -1.84095 0.15905 -1.84095 -1.84095 0.15905 0.15905 0.15905 -1.84095 0.15905 -1.84095
0.011149999999999959 0.011149999999999959 2.0111499999999998 0.011149999999999959 0.011149999999999959 2.0111499999999998 2.0111499999999998 2.0111499999999998 0.011149999999999959 2.0111499999999998 0.011149999999999959 0.011149999999999959 2.0111499999999998 0.011149999999999959 2.0111499999999998 -0.7301000000000002 -2.7301 -2.7301 -0.7301000000000002 -0.7301000000000002 -0.7301000000000002 -0.7301000000000002 -2.7301 -2.7301 -0.7301000000000002 -2.7301 -0.7301000000000002 -0.7301000000000002 -2.7301 -0.7301000000000002 -2.5314499999999995 -2.5314499999999995 -2.5314499999999995 -2.5314499999999995 -0.5314499999999999 -0.5314499999999999 -2.5314499999999995 -2.5314499999999995 -2.5314499999999995 -0.5314499999999999 -0.5314499999999999 -2.5314499999999995 -2.5314499999999995 -2.5314499999999995 -0.5314499999999999 -1.2059833333333332 -3.2059833333333327 -3.2059833333333327 -1.2059833333333332 -1.2059833333333332 -1.2059833333333332 -3.2059833333333327 -3.2059833333333327 -1.2059833333333332 -3.2059833333333327 -3.2059833333333327 -3.2059833333333327 -3.2059833333333327 -3.2059833333333327 -1.2059833333333332 -0.4516166666666668 -0.4516166666666668 -0.4516166666666668 -0.4516166666666668 -0.4516166666666668 1.5483833333333334 1.5483833333333334 -0.4516166666666668 1.5483833333333334 -0.4516166666666668 -0.4516166666666668 1.5483833333333334 1.5483833333333334 -0.4516166666666668 1.5483833333333334 2.0096833333333333 2.0096833333333333 0.00968333333333329 0.00968333333333329 0.00968333333333329 0.00968333333333329 2.0096833333333333 2.0096833333333333 0.00968333333333329 0.00968333333333329 2.0096833333333333 0.00968333333333329 0.00968333333333329 2.0096833333333333 0.00968333333333329 1.3702499999999995 1.3702499999999995 1.3702499999999995 1.3702499999999995 -0.6297499999999998 1.3702499999999995 -0.6297499999999998 1.3702499999999995 -0.6297499999999998 -0.6297499999999998 1.3702499999999995 1.3702499999999995 1.3702499999999995 -0.6297499999999998 -0.6297499999999998 1.9894500000000004 -0.010549999999999893 -0.010549999999999893 1.9894500000000004 1.9894500000000004 -0.010549999999999893 1.9894500000000004 -0.010549999999999893 -0.010549999999999893 1.9894500000000004 1.9894500000000004 -0.010549999999999893 -0.010549999999999893 -0.010549999999999893 -0.010549999999999893 2.074866666666667 2.074866666666667 0.07486666666666665 2.074866666666667 0.07486666666666665 2.074866666666667 2.074866666666667 0.07486666666666665 0.07486666666666665 0.07486666666666665 2.074866666666667 0.07486666666666665 2.074866666666667 0.07486666666666665 0.07486666666666665 1.4637499999999997 1.4637499999999997 -0.53625 1.4637499999999997 -0.53625 1.4637499999999997 1.4637499999999997 1.4637499999999997 1.4637499999999997 1.4637499999999997 1.4637499999999997 1.4637499999999997 1.4637499999999997 -0.53625 1.4637499999999997
-0.4189833333333332 -0.4189833333333332 -0.4189833333333332 -0.4189833333333332 -0.4189833333333332 -2.4189833333333333 -2.4189833333333333 -0.4189833333333332 -2.4189833333333333 -0.4189833333333332 -0.4189833333333332 -2.4189833333333333 -0.4189833333333332 -2.4189833333333333 -2.4189833333333333 -1.3339666666666665 0.6660333333333334 -1.3339666666666665 0.6660333333333334 0.6660333333333334 0.6660333333333334 0.6660333333333334 -1.3339666666666665 -1.3339666666666665 -1.3339666666666665 0.6660333333333334 -1.3339666666666665 -1.3339666666666665 0.6660333333333334 -1.3339666666666665 -2.2250500000000004 -0.22504999999999992 -2.2250500000000004 -2.2250500000000004 -2.2250500000000004 -0.22504999999999992 -2.2250500000000004 -2.2250500000000004 -0.22504999999999992 -0.22504999999999992 -0.22504999999999992 -2.2250500000000004 -2.2250500000000004 -2.2250500000000004 -2.2250500000000004 -0.016250000000000105 1.98375 -0.016250000000000105 -0.016250000000000105 -0.016250000000000105 1.98375 1.98375 -0.016250000000000105 -0.016250000000000105 -0.016250000000000105 1.98375 1.98375 -0.016250000000000105 -0.016250000000000105 1.98375 -1.394583333333333 -1.394583333333333 0.6054166666666669 0.6054166666666669 -1.394583333333333 -1.394583333333333 0.6054166666666669 -1.394583333333333 -1.394583333333333 -1.394583333333333 0.6054166666666669 0.6054166666666669 -1.394583333333333 -1.394583333333333 0.6054166666666669 -0.057516666666666535 -0.057516666666666535 -0.057516666666666535 -0.057516666666666535 -0.057516666666666535 -0.057516666666666535 1.9424833333333331 -0.057516666666666535 -0.057516666666666535 1.9424833333333331 -0.057516666666666535 -0.057516666666666535 1.9424833333333331 -0.057516666666666535 1.9424833333333331 -0.14788333333333376 -0.14788333333333376 -2.1478833333333336 -0.14788333333333376 -2.1478833333333336 -2.1478833333333336 -0.14788333333333376 -0.14788333333333376 -2.1478833333333336 -2.1478833333333336 -2.1478833333333336 -2.1478833333333336 -0.14788333333333376 -2.1478833333333336 -0.14788333333333376 0.04931666666666666 0.04931666666666666 0.04931666666666666 0.04931666666666666 2.049316666666667 2.049316666666667 0.04931666666666666 0.04931666666666666 2.049316666666667 2.049316666666667 2.049316666666667 0.04931666666666666 2.049316666666667 0.04931666666666666 2.049316666666667 1.4628 1.4628 1.4628 -0.5372 1.4628 -0.5372 -0.5372 1.4628 1.4628 1.4628 -0.5372 -0.5372 1.4628 -0.5372 1.4628 0.08211666666666674 0.08211666666666674 2.082116666666667 0.08211666666666674 0.08211666666666674 2.082116666666667 0.08211666666666674 0.08211666666666674 2.082116666666667 0.08211666666666674 0.08211666666666674 2.082116666666667 0.08211666666666674 2.082116666666667 0.08211666666666674
-3.0226833333333336 -3.0226833333333336 -3.0226833333333336 -3.0226833333333336 -3.0226833333333336 -3.0226833333333336 -3.0226833333333336 -3.0226833333333336 -1.0226833333333334 -1.0226833333333334 -1.0226833333333334 -1.0226833333333334 -1.0226833333333334 -1.0226833333333334 -3.0226833333333336 -2.9032666666666658 -2.9032666666666658 -0.9032666666666668 -2.9032666666666658 -0.9032666666666668 -0.9032666666666668 -0.9032666666666668 -2.9032666666666658 -2.9032666666666658 -2.9032666666666658 -0.9032666666666668 -0.9032666666666668 -0.9032666666666668 -2.9032666666666658 -0.9032666666666668 -0.6732166666666664 1.3267833333333332 1.3267833333333332 -0.6732166666666664 -0.6732166666666664 1.3267833333333332 -0.6732166666666664 -0.6732166666666664 1.3267833333333332 1.3267833333333332 -0.6732166666666664 1.3267833333333332 -0.6732166666666664 -0.6732166666666664 -0.6732166666666664 2.753016666666667 0.7530166666666666 0.7530166666666666 0.7530166666666666 0.7530166666666666 0.7530166666666666 0.7530166666666666 0.7530166666666666 2.753016666666667 0.7530166666666666 2.753016666666667 2.753016666666667 2.753016666666667 2.753016666666667 0.7530166666666666 1.7508833333333336 -0.24911666666666646 1.7508833333333336 1.7508833333333336 1.7508833333333336 -0.24911666666666646 1.7508833333333336 -0.24911666666666646 1.7508833333333336 1.7508833333333336 1.7508833333333336 1.7508833333333336 1.7508833333333336 -0.24911666666666646 1.7508833333333336 -0.95925 -2.95925 -0.95925 -2.95925 -0.95925 -2.95925 -2.95925 -2.95925 -0.95925 -0.95925 -0.95925 -0.95925 -0.95925 -2.95925 -2.95925 -1.7429833333333333 0.2570166666666667 0.2570166666666667 -1.7429833333333333 -1.7429833333333333 -1.7429833333333333 0.2570166666666667 -1.7429833333333333 0.2570166666666667 -1.7429833333333333 -1.7429833333333333 -1.7429833333333333 -1.7429833333333333 0.2570166666666667 -1.7429833333333333 0.19625000000000026 0.19625000000000026 2.19625 2.19625 0.19625000000000026 2.19625 0.19625000000000026 2.19625 0.19625000000000026 0.19625000000000026 2.19625 0.19625000000000026 0.19625000000000026 0.19625000000000026 2.19625 1.3975 -0.6024999999999999 -0.6024999999999999 1.3975 -0.6024999999999999 1.3975 -0.6024999999999999 -0.6024999999999999 1.3975 1.3975 1.3975 1.3975 -0.6024999999999999 1.3975 1.3975 1.2037499999999999 1.2037499999999999 3.2037499999999985 3.2037499999999985 1.2037499999999999 3.2037499999999985 3.2037499999999985 3.2037499999999985 1.2037499999999999 1.2037499999999999 3.2037499999999985 3.2037499999999985 3.2037499999999985 3.2037499999999985 1.2037499999999999
-0.4222499999999999 1.5777499999999995 1.5777499999999995 1.5777499999999995 -0.4222499999999999 -0.4222499999999999 1.5777499999999995 1.5777499999999995 1.5777499999999995 -0.4222499999999999 1.5777499999999995 -0.4222499999999999 1.5777499999999995 1.5777499999999995 -0.4222499999999999 -2.041133333333333 -0.041133333333333466 -2.041133333333333 -0.041133333333333466 -0.041133333333333466 -0.041133333333333466 -0.041133333333333466 -0.041133333333333466 -2.041133333333333 -0.041133333333333466 -0.041133333333333466 -2.041133333333333 -2.041133333333333 -0.041133333333333466 -0.041133333333333466 -1.5840500000000004 0.41595000000000026 0.41595000000000026 0.41595000000000026 -1.5840500000000004 0.41595000000000026 -1.5840500000000004 0.41595000000000026 -1.5840500000000004 0.41595000000000026 0.41595000000000026 0.41595000000000026 0.41595000000000026 0.41595000000000026 0.41595000000000026 1.2174833333333335 1.2174833333333335 1.2174833333333335 1.2174833333333335 1.2174833333333335 -0.7825166666666662 1.2174833333333335 1.2174833333333335 -0.7825166666666662 -0.7825166666666662 -0.7825166666666662 -0.7825166666666662 -0.7825166666666662 1.2174833333333335 -0.7825166666666662 -0.3047166666666667 -0.3047166666666667 -0.3047166666666667 -0.3047166666666667 -0.3047166666666667 1.6952833333333333 -0.3047166666666667 -0.3047166666666667 1.6952833333333333 -0.3047166666666667 1.6952833333333333 1.6952833333333333 1.6952833333333333 1.6952833333333333 1.6952833333333333 -2.16865 -2.16865 -2.16865 -0.1686499999999999 -0.1686499999999999 -2.16865 -2.16865 -2.16865 -2.16865 -2.16865 -2.16865 -2.16865 -2.16865 -0.1686499999999999 -2.16865 -2.8493166666666667 -2.8493166666666667 -0.8493166666666665 -0.8493166666666665 -0.8493166666666665 -2.8493166666666667 -0.8493166666666665 -2.8493166666666667 -2.8493166666666667 -2.8493166666666667 -0.8493166666666665 -2.8493166666666667 -0.8493166666666665 -0.8493166666666665 -2.8493166666666667 1.9936499999999995 -0.006350000000000052 1.9936499999999995 1.9936499999999995 1.9936499999999995 1.9936499999999995 -0.006350000000000052 -0.006350000000000052 -0.006350000000000052 1.9936499999999995 -0.006350000000000052 1.9936499999999995 1.9936499999999995 -0.006350000000000052 -0.006350000000000052 0.07800000000000004 2.078 2.078 0.07800000000000004 0.07800000000000004 2.078 2.078 0.07800000000000004 2.078 2.078 0.07800000000000004 0.07800000000000004 2.078 0.07800000000000004 0.07800000000000004 0.08098333333333335 0.08098333333333335 0.08098333333333335 2.080983333333333 0.08098333333333335 2.080983333333333 2.080983333333333 0.08098333333333335 2.080983333333333 0.08098333333333335 2.080983333333333 0.08098333333333335 0.08098333333333335 0.08098333333333335 0.08098333333333335
1.3461833333333335 1.3461833333333335 -0.6538166666666666 -0.6538166666666666 -0.6538166666666666 -0.6538166666666666 -0.6538166666666666 -0.6538166666666666 1.3461833333333335 1.3461833333333335 1.3461833333333335 -0.6538166666666666 -0.6538166666666666 -0.6538166666666666 1.3461833333333335 -1.6373333333333333 -1.6373333333333333 -1.6373333333333333 -1.6373333333333333 -1.6373333333333333 -1.6373333333333333 -1.6373333333333333 -1.6373333333333333 0.3626666666666667 0.3626666666666667 -1.6373333333333333 -1.6373333333333333 -1.6373333333333333 -1.6373333333333333 0.3626666666666667 -1.8430833333333332 -1.8430833333333332 0.1569166666666667 -1.8430833333333332 -1.8430833333333332 0.1569166666666667 0.1569166666666667 0.1569166666666667 -1.8430833333333332 -1.8430833333333332 0.1569166666666667 -1.8430833333333332 -1.8430833333333332 0.1569166666666667 0.1569166666666667 -2.377783333333333 -0.3777833333333333 -2.377783333333333 -0.3777833333333333 -2.377783333333333 -2.377783333333333 -0.3777833333333333 -2.377783333333333 -2.377783333333333 -0.3777833333333333 -2.377783333333333 -2.377783333333333 -0.3777833333333333 -2.377783333333333 -0.3777833333333333 -1.6221833333333333 0.37781666666666675 -1.6221833333333333 -1.6221833333333333 -1.6221833333333333 0.37781666666666675 0.37781666666666675 -1.6221833333333333 -1.6221833333333333 0.37781666666666675 -1.6221833333333333 0.37781666666666675 -1.6221833333333333 -1.6221833333333333 -1.6221833333333333 -0.28264999999999985 -0.28264999999999985 1.71735 -0.28264999999999985 -0.28264999999999985 1.71735 -0.28264999999999985 1.71735 -0.28264999999999985 1.71735 1.71735 -0.28264999999999985 -0.28264999999999985 -0.28264999999999985 1.71735 -1.5620166666666666 0.4379833333333335 0.4379833333333335 -1.5620166666666666 -1.5620166666666666 0.4379833333333335 0.4379833333333335 -1.5620166666666666 0.4379833333333335 0.4379833333333335 0.4379833333333335 -1.5620166666666666 0.4379833333333335 0.4379833333333335 -1.5620166666666666 2.00185 2.00185 2.00185 2.00185 2.00185 0.0018500000000000356 2.00185 0.0018500000000000356 0.0018500000000000356 2.00185 0.0018500000000000356 2.00185 0.0018500000000000356 0.0018500000000000356 0.0018500000000000356 -0.2760999999999999 -0.2760999999999999 1.7238999999999995 -0.2760999999999999 1.7238999999999995 1.7238999999999995 1.7238999999999995 1.7238999999999995 1.7238999999999995 -0.2760999999999999 1.7238999999999995 -0.2760999999999999 1.7238999999999995 -0.2760999999999999 -0.2760999999999999 0.25311666666666666 2.2531166666666667 0.25311666666666666 0.25311666666666666 0.25311666666666666 2.2531166666666667 0.25311666666666666 2.2531166666666667 2.2531166666666667 0.25311666666666666 2.2531166666666667 0.25311666666666666 0.25311666666666666 2.2531166666666667 0.25311666666666666
1.73605 -0.2639499999999999 1.73605 1.73605 -0.2639499999999999 1.73605 1.73605 -0.2639499999999999 1.73605 1.73605 1.73605 -0.2639499999999999 -0.2639499999999999 1.73605 -0.2639499999999999 1.999 1.999 1.999 -0.0010000000000000145 1.999 -0.0010000000000000145 1.999 1.999 1.999 -0.0010000000000000145 1.999 1.999 -0.0010000000000000145 -0.0010000000000000145 -0.0010000000000000145 -1.5841499999999997 -1.5841499999999997 -1.5841499999999997 0.41585000000000016 0.41585000000000016 0.41585000000000016 -1.5841499999999997 -1.5841499999999997 0.41585000000000016 0.41585000000000016 0.41585000000000016 0.41585000000000016 0.41585000000000016 -1.5841499999999997 -1.5841499999999997 -1.0064499999999996 0.9935500000000003 0.9935500000000003 0.9935500000000003 0.9935500000000003 -1.0064499999999996 0.9935500000000003 0.9935500000000003 -1.0064499999999996 -1.0064499999999996 -1.0064499999999996 -1.0064499999999996 -1.0064499999999996 0.9935500000000003 0.9935500000000003 -1.8016499999999998 -1.8016499999999998 -1.8016499999999998 -3.8016500000000004 -3.8016500000000004 -3.8016500000000004 -1.8016499999999998 -3.8016500000000004 -1.8016499999999998 -1.8016499999999998 -1.8016499999999998 -3.8016500000000004 -1.8016499999999998 -1.8016499999999998 -1.8016499999999998 1.6225166666666664 1.6225166666666664 -0.37748333333333345 1.6225166666666664 1.6225166666666664 -0.37748333333333345 1.6225166666666664 -0.37748333333333345 -0.37748333333333345 -0.37748333333333345 1.6225166666666664 1.6225166666666664 -0.37748333333333345 -0.37748333333333345 -0.37748333333333345 -0.18988333333333324 -2.1898833333333325 -0.18988333333333324 -2.1898833333333325 -0.18988333333333324 -0.18988333333333324 -0.18988333333333324 -0.18988333333333324 -0.18988333333333324 -0.18988333333333324 -0.18988333333333324 -2.1898833333333325 -0.18988333333333324 -0.18988333333333324 -2.1898833333333325 2.0228833333333327 2.0228833333333327 0.022883333333333304 0.022883333333333304 2.0228833333333327 2.0228833333333327 0.022883333333333304 2.0228833333333327 2.0228833333333327 2.0228833333333327 2.0228833333333327 2.0228833333333327 0.022883333333333304 2.0228833333333327 0.022883333333333304 0.5353999999999999 -1.4645999999999997 -1.4645999999999997 -1.4645999999999997 -1.4645999999999997 -1.4645999999999997 -1.4645999999999997 0.5353999999999999 0.5353999999999999 0.5353999999999999 -1.4645999999999997 0.5353999999999999 -1.4645999999999997 -1.4645999999999997 -1.4645999999999997 0.6662833333333333 2.6662833333333333 2.6662833333333333 0.6662833333333333 2.6662833333333333 0.6662833333333333 0.6662833333333333 0.6662833333333333 2.6662833333333333 2.6662833333333333 0.6662833333333333 0.6662833333333333 0.6662833333333333 0.6662833333333333 2.6662833333333333
2.014283333333333 0.014283333333333405 2.014283333333333 2.014283333333333 2.014283333333333 0.014283333333333405 0.014283333333333405 2.014283333333333 2.014283333333333 0.014283333333333405 0.014283333333333405 2.014283333333333 2.014283333333333 0.014283333333333405 2.014283333333333 -1.3667333333333336 -1.3667333333333336 0.6332666666666666 0.6332666666666666 0.6332666666666666 -1.3667333333333336 0.6332666666666666 0.6332666666666666 -1.3667333333333336 -1.3667333333333336 -1.3667333333333336 -1.3667333333333336 -1.3667333333333336 0.6332666666666666 -1.3667333333333336 -0.7541500000000001 -0.7541500000000001 -0.7541500000000001 -0.7541500000000001 -0.7541500000000001 -0.7541500000000001 1.2458500000000001 -0.7541500000000001 1.2458500000000001 1.2458500000000001 1.2458500000000001 1.2458500000000001 1.2458500000000001 1.2458500000000001 -0.7541500000000001 1.8104500000000001 1.8104500000000001 -0.18955 1.8104500000000001 -0.18955 1.8104500000000001 1.8104500000000001 -0.18955 -0.18955 1.8104500000000001 -0.18955 1.8104500000000001 1.8104500000000001 -0.18955 1.8104500000000001 -0.4924166666666667 1.5075833333333335 -0.4924166666666667 -0.4924166666666667 1.5075833333333335 -0.4924166666666667 -0.4924166666666667 1.5075833333333335 1.5075833333333335 -0.4924166666666667 1.5075833333333335 1.5075833333333335 1.5075833333333335 -0.4924166666666667 -0.4924166666666667 -0.7432500000000001 1.25675 -0.7432500000000001 1.25675 1.25675 1.25675 1.25675 1.25675 -0.7432500000000001 -0.7432500000000001 1.25675 1.25675 -0.7432500000000001 -0.7432500000000001 -0.7432500000000001 -3.9137500000000003 -3.9137500000000003 -1.9137499999999994 -3.9137500000000003 -1.9137499999999994 -1.9137499999999994 -1.9137499999999994 -1.9137499999999994 -1.9137499999999994 -1.9137499999999994 -3.9137500000000003 -1.9137499999999994 -1.9137499999999994 -1.9137499999999994 -1.9137499999999994 -1.3963833333333335 0.6036166666666665 0.6036166666666665 -1.3963833333333335 0.6036166666666665 0.6036166666666665 -1.3963833333333335 0.6036166666666665 0.6036166666666665 -1.3963833333333335 0.6036166666666665 -1.3963833333333335 0.6036166666666665 -1.3963833333333335 0.6036166666666665 -0.5946999999999998 1.4053000000000004 1.4053000000000004 1.4053000000000004 -0.5946999999999998 1.4053000000000004 1.4053000000000004 1.4053000000000004 1.4053000000000004 -0.5946999999999998 -0.5946999999999998 1.4053000000000004 1.4053000000000004 -0.5946999999999998 -0.5946999999999998 -0.5633499999999999 1.4366499999999998 -0.5633499999999999 1.4366499999999998 1.4366499999999998 1.4366499999999998 -0.5633499999999999 1.4366499999999998 1.4366499999999998 -0.5633499999999999 1.4366499999999998 1.4366499999999998 -0.5633499999999999 -0.5633499999999999 -0.5633499999999999
2.000683333333334 0.0006833333333333379 0.0006833333333333379 0.0006833333333333379 2.000683333333334 0.0006833333333333379 0.0006833333333333379 0.0006833333333333379 2.000683333333334 2.000683333333334 0.0006833333333333379 0.0006833333333333379 2.000683333333334 2.000683333333334 0.0006833333333333379 -2.1763 -0.17629999999999993 -2.1763 -0.17629999999999993 -2.1763 -0.17629999999999993 -0.17629999999999993 -2.1763 -0.17629999999999993 -2.1763 -2.1763 -2.1763 -2.1763 -0.17629999999999993 -2.1763 1.519283333333334 -0.48071666666666657 -0.48071666666666657 1.519283333333334 1.519283333333334 1.519283333333334 -0.48071666666666657 1.519283333333334 -0.48071666666666657 1.519283333333334 -0.48071666666666657 1.519283333333334 -0.48071666666666657 -0.48071666666666657 -0.48071666666666657 0.9606500000000002 0.9606500000000002 0.9606500000000002 2.9606500000000007 0.9606500000000002 0.9606500000000002 2.9606500000000007 2.9606500000000007 0.9606500000000002 2.9606500000000007 0.9606500000000002 0.9606500000000002 0.9606500000000002 2.9606500000000007 2.9606500000000007 -1.9948500000000005 -1.9948500000000005 0.005149999999999856 0.005149999999999856 0.005149999999999856 -1.9948500000000005 -1.9948500000000005 -1.9948500000000005 0.005149999999999856 0.005149999999999856 -1.9948500000000005 0.005149999999999856 -1.9948500000000005 0.005149999999999856 0.005149999999999856 -1.9967166666666663 -1.9967166666666663 -1.9967166666666663 -1.9967166666666663 0.003283333333333369 -1.9967166666666663 0.003283333333333369 -1.9967166666666663 0.003283333333333369 0.003283333333333369 -1.9967166666666663 0.003283333333333369 0.003283333333333369 0.003283333333333369 0.003283333333333369 4.021050000000001 2.0210499999999993 4.021050000000001 2.0210499999999993 4.021050000000001 4.021050000000001 4.021050000000001 2.0210499999999993 4.021050000000001 2.0210499999999993 4.021050000000001 2.0210499999999993 2.0210499999999993 4.021050000000001 4.021050000000001 -1.942216666666667 0.05778333333333335 0.05778333333333335 -1.942216666666667 0.05778333333333335 0.05778333333333335 0.05778333333333335 0.05778333333333335 0.05778333333333335 0.05778333333333335 0.05778333333333335 -1.942216666666667 -1.942216666666667 -1.942216666666667 -1.942216666666667 -0.026666666666666575 -0.026666666666666575 -0.026666666666666575 -0.026666666666666575 -0.026666666666666575 -0.026666666666666575 -2.0266666666666664 -0.026666666666666575 -2.0266666666666664 -2.0266666666666664 -2.0266666666666664 -0.026666666666666575 -2.0266666666666664 -0.026666666666666575 -2.0266666666666664 -0.3649166666666668 -2.364916666666667 -0.3649166666666668 -2.364916666666667 -2.364916666666667 -2.364916666666667 -2.364916666666667 -0.3649166666666668 -0.3649166666666668 -2.364916666666667 -0.3649166666666668 -2.364916666666667 -2.364916666666667 -2.364916666666667 -0.3649166666666668
