2.5850333333333326 2.5850333333333326 2.5850333333333326 0.5850333333333332 0.5850333333333332 2.5850333333333326 2.5850333333333326 2.5850333333333326 0.5850333333333332 0.5850333333333332 0.5850333333333332 0.5850333333333332 2.5850333333333326 2.5850333333333326 2.5850333333333326 -0.7439166666666668 1.2560833333333337 -0.7439166666666668 -0.7439166666666668 1.2560833333333337 -0.7439166666666668 -0.7439166666666668 1.2560833333333337 -0.7439166666666668 1.2560833333333337 -0.7439166666666668 1.2560833333333337 -0.7439166666666668 1.2560833333333337 1.2560833333333337 -1.8154166666666667 0.18458333333333315 -1.8154166666666667 0.18458333333333315 0.18458333333333315 -1.8154166666666667 -1.8154166666666667 0.18458333333333315 -1.8154166666666667 -1.8154166666666667 -1.8154166666666667 0.18458333333333315 -1.8154166666666667 -1.8154166666666667 0.18458333333333315 -0.5867833333333335 1.4132166666666668 -0.5867833333333335 -0.5867833333333335 -0.5867833333333335 -0.5867833333333335 -0.5867833333333335 -0.5867833333333335 1.4132166666666668 1.4132166666666668 1.4132166666666668 -0.5867833333333335 -0.5867833333333335 1.4132166666666668 1.4132166666666668 -1.296366666666667 0.7036333333333332 0.7036333333333332 -1.296366666666667 -1.296366666666667 -1.296366666666667 -1.296366666666667 0.7036333333333332 0.7036333333333332 -1.296366666666667 0.7036333333333332 0.7036333333333332 0.7036333333333332 -1.296366666666667 0.7036333333333332 -0.4530166666666668 -0.4530166666666668 -0.4530166666666668 -0.4530166666666668 -2.453016666666666 -0.4530166666666668 -0.4530166666666668 -0.4530166666666668 -2.453016666666666 -2.453016666666666 -2.453016666666666 -0.4530166666666668 -2.453016666666666 -0.4530166666666668 -0.4530166666666668 3.6330666666666662 3.6330666666666662 1.6330666666666667 3.6330666666666662 3.6330666666666662 1.6330666666666667 3.6330666666666662 1.6330666666666667 1.6330666666666667 1.6330666666666667 1.6330666666666667 1.6330666666666667 1.6330666666666667 1.6330666666666667 1.6330666666666667 0.4 0.4 0.4 0.4 -1.5999999999999996 -1.5999999999999996 -1.5999999999999996 0.4 0.4 -1.5999999999999996 0.4 -1.5999999999999996 0.4 0.4 -1.5999999999999996 -0.032099999999999976 -2.0321 -0.032099999999999976 -0.032099999999999976 -0.032099999999999976 -0.032099999999999976 -2.0321 -0.032099999999999976 -2.0321 -2.0321 -0.032099999999999976 -2.0321 -2.0321 -0.032099999999999976 -0.032099999999999976 -1.6904999999999994 0.30950000000000005 -1.6904999999999994 0.30950000000000005 -1.6904999999999994 0.30950000000000005 0.30950000000000005 -1.6904999999999994 -1.6904999999999994 0.30950000000000005 0.30950000000000005 -1.6904999999999994 -1.6904999999999994 -1.6904999999999994 -1.6904999999999994
0.5776000000000002 -1.4223999999999997 -1.4223999999999997 0.5776000000000002 0.5776000000000002 0.5776000000000002 0.5776000000000002 0.5776000000000002 -1.4223999999999997 -1.4223999999999997 -1.4223999999999997 -1.4223999999999997 -1.4223999999999997 -1.4223999999999997 0.5776000000000002 -0.006783333333333282 -0.006783333333333282 -2.0067833333333334 -2.0067833333333334 -0.006783333333333282 -0.006783333333333282 -0.006783333333333282 -0.006783333333333282 -2.0067833333333334 -2.0067833333333334 -0.006783333333333282 -2.0067833333333334 -0.006783333333333282 -0.006783333333333282 -2.0067833333333334 1.3203833333333335 1.3203833333333335 1.3203833333333335 1.3203833333333335 -0.6796166666666664 1.3203833333333335 -0.6796166666666664 -0.6796166666666664 1.3203833333333335 1.3203833333333335 -0.6796166666666664 1.3203833333333335 -0.6796166666666664 1.3203833333333335 -0.6796166666666664 3.2441166666666676 3.2441166666666676 3.2441166666666676 3.2441166666666676 1.2441166666666668 1.2441166666666668 1.2441166666666668 1.2441166666666668 3.2441166666666676 1.2441166666666668 1.2441166666666668 1.2441166666666668 1.2441166666666668 3.2441166666666676 3.2441166666666676 1.4992999999999996 -0.5006999999999998 -0.5006999999999998 1.4992999999999996 1.4992999999999996 1.4992999999999996 1.4992999999999996 1.4992999999999996 1.4992999999999996 -0.5006999999999998 1.4992999999999996 -0.5006999999999998 -0.5006999999999998 -0.5006999999999998 -0.5006999999999998 -0.35344999999999993 -0.35344999999999993 -0.35344999999999993 -2.3534500000000005 -2.3534500000000005 -0.35344999999999993 -2.3534500000000005 -2.3534500000000005 -0.35344999999999993 -2.3534500000000005 -2.3534500000000005 -2.3534500000000005 -0.35344999999999993 -2.3534500000000005 -0.35344999999999993 -4.7648666666666655 -2.764866666666667 -2.764866666666667 -4.7648666666666655 -4.7648666666666655 -2.764866666666667 -2.764866666666667 -2.764866666666667 -4.7648666666666655 -2.764866666666667 -4.7648666666666655 -2.764866666666667 -4.7648666666666655 -2.764866666666667 -4.7648666666666655 0.8479333333333332 2.8479333333333336 2.8479333333333336 2.8479333333333336 0.8479333333333332 0.8479333333333332 2.8479333333333336 2.8479333333333336 0.8479333333333332 2.8479333333333336 0.8479333333333332 0.8479333333333332 2.8479333333333336 0.8479333333333332 0.8479333333333332 1.3065666666666664 -0.6934333333333335 -0.6934333333333335 -0.6934333333333335 1.3065666666666664 -0.6934333333333335 1.3065666666666664 1.3065666666666664 -0.6934333333333335 1.3065666666666664 -0.6934333333333335 1.3065666666666664 -0.6934333333333335 -0.6934333333333335 1.3065666666666664 0.3292000000000001 2.3292000000000006 0.3292000000000001 2.3292000000000006 2.3292000000000006 2.3292000000000006 0.3292000000000001 2.3292000000000006 0.3292000000000001 0.3292000000000001 0.3292000000000001 2.3292000000000006 2.3292000000000006 2.3292000000000006 0.3292000000000001
0.3047666666666667 0.3047666666666667 0.3047666666666667 0.3047666666666667 2.304766666666666 0.3047666666666667 0.3047666666666667 2.304766666666666 2.304766666666666 2.304766666666666 0.3047666666666667 2.304766666666666 2.304766666666666 0.3047666666666667 0.3047666666666667 -1.061683333333333 -1.061683333333333 0.938316666666667 0.938316666666667 0.938316666666667 -1.061683333333333 -1.061683333333333 -1.061683333333333 -1.061683333333333 -1.061683333333333 -1.061683333333333 -1.061683333333333 -1.061683333333333 0.938316666666667 -1.061683333333333 1.3836166666666663 -0.6163833333333333 -0.6163833333333333 1.3836166666666663 1.3836166666666663 -0.6163833333333333 1.3836166666666663 1.3836166666666663 1.3836166666666663 1.3836166666666663 -0.6163833333333333 -0.6163833333333333 1.3836166666666663 1.3836166666666663 -0.6163833333333333 1.1488833333333333 1.1488833333333333 1.1488833333333333 3.1488833333333335 1.1488833333333333 1.1488833333333333 1.1488833333333333 3.1488833333333335 3.1488833333333335 1.1488833333333333 1.1488833333333333 1.1488833333333333 3.1488833333333335 1.1488833333333333 3.1488833333333335 -1.8167666666666666 0.18323333333333328 0.18323333333333328 -1.8167666666666666 -1.8167666666666666 0.18323333333333328 -1.8167666666666666 -1.8167666666666666 -1.8167666666666666 -1.8167666666666666 -1.8167666666666666 -1.8167666666666666 -1.8167666666666666 0.18323333333333328 -1.8167666666666666 0.006449999999999989 2.0064499999999996 0.006449999999999989 0.006449999999999989 0.006449999999999989 2.0064499999999996 2.0064499999999996 2.0064499999999996 0.006449999999999989 2.0064499999999996 2.0064499999999996 2.0064499999999996 0.006449999999999989 0.006449999999999989 2.0064499999999996 -0.6016333333333329 -2.6016333333333335 -0.6016333333333329 -0.6016333333333329 -0.6016333333333329 -2.6016333333333335 -2.6016333333333335 -2.6016333333333335 -2.6016333333333335 -0.6016333333333329 -0.6016333333333329 -2.6016333333333335 -2.6016333333333335 -0.6016333333333329 -2.6016333333333335 0.005633333333333445 -1.9943666666666668 0.005633333333333445 -1.9943666666666668 -1.9943666666666668 0.005633333333333445 -1.9943666666666668 0.005633333333333445 -1.9943666666666668 0.005633333333333445 -1.9943666666666668 -1.9943666666666668 0.005633333333333445 -1.9943666666666668 0.005633333333333445 -0.42356666666666654 1.5764333333333336 1.5764333333333336 1.5764333333333336 1.5764333333333336 1.5764333333333336 -0.42356666666666654 1.5764333333333336 -0.42356666666666654 -0.42356666666666654 1.5764333333333336 -0.42356666666666654 1.5764333333333336 -0.42356666666666654 -0.42356666666666654 -2.9457 -2.9457 -0.9457000000000001 -2.9457 -2.9457 -0.9457000000000001 -2.9457 -2.9457 -0.9457000000000001 -0.9457000000000001 -2.9457 -0.9457000000000001 -0.9457000000000001 -2.9457 -0.9457000000000001
-2.1525666666666665 -4.152566666666666 -4.152566666666666 -4.152566666666666 -2.1525666666666665 -2.1525666666666665 -4.152566666666666 -4.152566666666666 -4.152566666666666 -2.1525666666666665 -4.152566666666666 -4.152566666666666 -2.1525666666666665 -4.152566666666666 -4.152566666666666 0.30444999999999994 2.30445 0.30444999999999994 2.30445 2.30445 2.30445 2.30445 0.30444999999999994 0.30444999999999994 0.30444999999999994 2.30445 0.30444999999999994 2.30445 2.30445 2.30445 0.3909833333333334 -1.6090166666666665 -1.6090166666666665 -1.6090166666666665 0.3909833333333334 0.3909833333333334 0.3909833333333334 0.3909833333333334 0.3909833333333334 -1.6090166666666665 0.3909833333333334 0.3909833333333334 0.3909833333333334 0.3909833333333334 0.3909833333333334 -0.5812499999999998 1.4187499999999997 -0.5812499999999998 -0.5812499999999998 -0.5812499999999998 1.4187499999999997 -0.5812499999999998 -0.5812499999999998 1.4187499999999997 1.4187499999999997 1.4187499999999997 1.4187499999999997 -0.5812499999999998 -0.5812499999999998 1.4187499999999997 1.9564 -0.04360000000000007 1.9564 -0.04360000000000007 1.9564 1.9564 -0.04360000000000007 1.9564 1.9564 -0.04360000000000007 1.9564 -0.04360000000000007 1.9564 -0.04360000000000007 -0.04360000000000007 0.8890833333333332 0.8890833333333332 -1.1109166666666668 -1.1109166666666668 -1.1109166666666668 -1.1109166666666668 -1.1109166666666668 -1.1109166666666668 0.8890833333333332 -1.1109166666666668 -1.1109166666666668 -1.1109166666666668 -1.1109166666666668 0.8890833333333332 0.8890833333333332 -1.3352999999999997 0.6647 -1.3352999999999997 0.6647 0.6647 0.6647 -1.3352999999999997 0.6647 0.6647 -1.3352999999999997 0.6647 -1.3352999999999997 0.6647 -1.3352999999999997 0.6647 -0.26350000000000007 -2.2635 -0.26350000000000007 -0.26350000000000007 -2.2635 -0.26350000000000007 -2.2635 -0.26350000000000007 -2.2635 -0.26350000000000007 -2.2635 -0.26350000000000007 -2.2635 -2.2635 -2.2635 0.8142666666666667 0.8142666666666667 0.8142666666666667 2.8142666666666667 2.8142666666666667 2.8142666666666667 2.8142666666666667 0.8142666666666667 2.8142666666666667 0.8142666666666667 0.8142666666666667 2.8142666666666667 2.8142666666666667 0.8142666666666667 2.8142666666666667 1.9774333333333336 -0.02256666666666665 1.9774333333333336 1.9774333333333336 -0.02256666666666665 -0.02256666666666665 -0.02256666666666665 1.9774333333333336 -0.02256666666666665 1.9774333333333336 -0.02256666666666665 -0.02256666666666665 1.9774333333333336 -0.02256666666666665 1.9774333333333336
1.7598666666666662 1.7598666666666662 1.7598666666666662 -0.24013333333333334 1.7598666666666662 -0.24013333333333334 -0.24013333333333334 1.7598666666666662 1.7598666666666662 -0.24013333333333334 -0.24013333333333334 -0.24013333333333334 1.7598666666666662 1.7598666666666662 -0.24013333333333334 -0.32091666666666696 1.679083333333333 -0.32091666666666696 -0.32091666666666696 1.679083333333333 -0.32091666666666696 1.679083333333333 1.679083333333333 -0.32091666666666696 -0.32091666666666696 -0.32091666666666696 1.679083333333333 -0.32091666666666696 1.679083333333333 -0.32091666666666696 -0.038350000000000044 -2.03835 -2.03835 -0.038350000000000044 -0.038350000000000044 -2.03835 -2.03835 -2.03835 -0.038350000000000044 -2.03835 -2.03835 -0.038350000000000044 -0.038350000000000044 -2.03835 -0.038350000000000044 -1.38365 0.6163499999999997 0.6163499999999997 -1.38365 0.6163499999999997 0.6163499999999997 -1.38365 0.6163499999999997 0.6163499999999997 0.6163499999999997 -1.38365 -1.38365 -1.38365 -1.38365 0.6163499999999997 -0.010833333333333299 1.9891666666666663 1.9891666666666663 1.9891666666666663 -0.010833333333333299 1.9891666666666663 -0.010833333333333299 -0.010833333333333299 1.9891666666666663 -0.010833333333333299 -0.010833333333333299 1.9891666666666663 -0.010833333333333299 -0.010833333333333299 1.9891666666666663 0.2780166666666666 -1.7219833333333332 -1.7219833333333332 0.2780166666666666 0.2780166666666666 -1.7219833333333332 0.2780166666666666 0.2780166666666666 0.2780166666666666 0.2780166666666666 0.2780166666666666 -1.7219833333333332 0.2780166666666666 -1.7219833333333332 -1.7219833333333332 -0.6886333333333329 1.311366666666667 1.311366666666667 1.311366666666667 1.311366666666667 1.311366666666667 1.311366666666667 -0.6886333333333329 -0.6886333333333329 1.311366666666667 -0.6886333333333329 1.311366666666667 1.311366666666667 -0.6886333333333329 -0.6886333333333329 -1.1497333333333333 0.8502666666666665 -1.1497333333333333 -1.1497333333333333 0.8502666666666665 -1.1497333333333333 0.8502666666666665 -1.1497333333333333 0.8502666666666665 0.8502666666666665 -1.1497333333333333 0.8502666666666665 0.8502666666666665 0.8502666666666665 0.8502666666666665 0.18953333333333336 0.18953333333333336 0.18953333333333336 0.18953333333333336 -1.810466666666666 -1.810466666666666 -1.810466666666666 -1.810466666666666 -1.810466666666666 -1.810466666666666 0.18953333333333336 -1.810466666666666 -1.810466666666666 -1.810466666666666 0.18953333333333336 1.3646999999999998 1.3646999999999998 1.3646999999999998 1.3646999999999998 1.3646999999999998 -0.6353 -0.6353 -0.6353 -0.6353 1.3646999999999998 1.3646999999999998 1.3646999999999998 1.3646999999999998 1.3646999999999998 -0.6353
-3.1569666666666665 -1.1569666666666665 -1.1569666666666665 -1.1569666666666665 -3.1569666666666665 -3.1569666666666665 -3.1569666666666665 -3.1569666666666665 -1.1569666666666665 -3.1569666666666665 -3.1569666666666665 -3.1569666666666665 -1.1569666666666665 -1.1569666666666665 -3.1569666666666665 1.0139833333333332 3.0139833333333335 3.0139833333333335 3.0139833333333335 3.0139833333333335 1.0139833333333332 1.0139833333333332 1.0139833333333332 3.0139833333333335 3.0139833333333335 1.0139833333333332 1.0139833333333332 1.0139833333333332 1.0139833333333332 1.0139833333333332 0.8250166666666667 0.8250166666666667 0.8250166666666667 0.8250166666666667 0.8250166666666667 2.8250166666666665 0.8250166666666667 0.8250166666666667 0.8250166666666667 2.8250166666666665 2.8250166666666665 2.8250166666666665 2.8250166666666665 0.8250166666666667 0.8250166666666667 -1.90715 -3.9071499999999997 -3.9071499999999997 -3.9071499999999997 -1.90715 -1.90715 -1.90715 -3.9071499999999997 -3.9071499999999997 -3.9071499999999997 -3.9071499999999997 -1.90715 -3.9071499999999997 -3.9071499999999997 -1.90715 2.0437 0.04370000000000003 0.04370000000000003 0.04370000000000003 2.0437 2.0437 0.04370000000000003 2.0437 0.04370000000000003 0.04370000000000003 0.04370000000000003 2.0437 2.0437 0.04370000000000003 0.04370000000000003 -2.217483333333333 -2.217483333333333 -0.2174833333333335 -0.2174833333333335 -0.2174833333333335 -0.2174833333333335 -0.2174833333333335 -0.2174833333333335 -0.2174833333333335 -0.2174833333333335 -0.2174833333333335 -2.217483333333333 -0.2174833333333335 -2.217483333333333 -0.2174833333333335 1.8942000000000003 -0.1057999999999999 1.8942000000000003 -0.1057999999999999 1.8942000000000003 -0.1057999999999999 1.8942000000000003 1.8942000000000003 -0.1057999999999999 -0.1057999999999999 1.8942000000000003 1.8942000000000003 -0.1057999999999999 1.8942000000000003 1.8942000000000003 -0.5899000000000002 -0.5899000000000002 1.4101000000000001 1.4101000000000001 -0.5899000000000002 -0.5899000000000002 -0.5899000000000002 1.4101000000000001 -0.5899000000000002 -0.5899000000000002 1.4101000000000001 1.4101000000000001 -0.5899000000000002 -0.5899000000000002 -0.5899000000000002 2.155766666666667 0.1557666666666667 0.1557666666666667 2.155766666666667 2.155766666666667 0.1557666666666667 0.1557666666666667 2.155766666666667 0.1557666666666667 0.1557666666666667 2.155766666666667 0.1557666666666667 2.155766666666667 2.155766666666667 0.1557666666666667 -0.06116666666666673 -2.061166666666667 -2.061166666666667 -2.061166666666667 -0.06116666666666673 -2.061166666666667 -0.06116666666666673 -0.06116666666666673 -0.06116666666666673 -2.061166666666667 -0.06116666666666673 -0.06116666666666673 -0.06116666666666673 -0.06116666666666673 -0.06116666666666673
-3.9699 -3.9699 -1.9699 -1.9699 -1.9699 -1.9699 -1.9699 -1.9699 -1.9699 -3.9699 -3.9699 -3.9699 -1.9699 -3.9699 -3.9699 -0.4627499999999999 -2.4627499999999998 -0.4627499999999999 -0.4627499999999999 -0.4627499999999999 -0.4627499999999999 -0.4627499999999999 -0.4627499999999999 -2.4627499999999998 -0.4627499999999999 -2.4627499999999998 -0.4627499999999999 -2.4627499999999998 -2.4627499999999998 -2.4627499999999998 1.8843833333333333 1.8843833333333333 -0.1156166666666665 -0.1156166666666665 1.8843833333333333 -0.1156166666666665 -0.1156166666666665 1.8843833333333333 1.8843833333333333 -0.1156166666666665 1.8843833333333333 1.8843833333333333 -0.1156166666666665 -0.1156166666666665 1.8843833333333333 0.2637166666666667 -1.7362833333333332 -1.7362833333333332 -1.7362833333333332 0.2637166666666667 -1.7362833333333332 -1.7362833333333332 0.2637166666666667 -1.7362833333333332 -1.7362833333333332 0.2637166666666667 0.2637166666666667 -1.7362833333333332 -1.7362833333333332 0.2637166666666667 2.567300000000001 2.567300000000001 0.5673 0.5673 0.5673 0.5673 0.5673 2.567300000000001 0.5673 0.5673 0.5673 2.567300000000001 0.5673 0.5673 0.5673 -1.6569500000000004 0.34304999999999997 0.34304999999999997 -1.6569500000000004 -1.6569500000000004 -1.6569500000000004 -1.6569500000000004 0.34304999999999997 -1.6569500000000004 0.34304999999999997 -1.6569500000000004 0.34304999999999997 0.34304999999999997 -1.6569500000000004 0.34304999999999997 0.5844666666666664 -1.4155333333333338 0.5844666666666664 0.5844666666666664 -1.4155333333333338 -1.4155333333333338 -1.4155333333333338 -1.4155333333333338 -1.4155333333333338 -1.4155333333333338 -1.4155333333333338 -1.4155333333333338 0.5844666666666664 0.5844666666666664 0.5844666666666664 -0.05526666666666663 -0.05526666666666663 -0.05526666666666663 -0.05526666666666663 1.9447333333333334 1.9447333333333334 1.9447333333333334 1.9447333333333334 1.9447333333333334 1.9447333333333334 -0.05526666666666663 1.9447333333333334 1.9447333333333334 -0.05526666666666663 1.9447333333333334 -0.1881333333333334 -0.1881333333333334 1.8118666666666672 1.8118666666666672 1.8118666666666672 -0.1881333333333334 -0.1881333333333334 1.8118666666666672 1.8118666666666672 1.8118666666666672 1.8118666666666672 -0.1881333333333334 1.8118666666666672 -0.1881333333333334 -0.1881333333333334 1.0331333333333328 3.0331333333333332 3.0331333333333332 1.0331333333333328 3.0331333333333332 1.0331333333333328 1.0331333333333328 1.0331333333333328 1.0331333333333328 1.0331333333333328 3.0331333333333332 1.0331333333333328 3.0331333333333332 1.0331333333333328 1.0331333333333328
-1.4778999999999998 -1.4778999999999998 0.5221 0.5221 -1.4778999999999998 -1.4778999999999998 -1.4778999999999998 -1.4778999999999998 -1.4778999999999998 -1.4778999999999998 0.5221 0.5221 0.5221 -1.4778999999999998 0.5221 -1.1290166666666668 0.8709833333333334 0.8709833333333334 -1.1290166666666668 0.8709833333333334 0.8709833333333334 -1.1290166666666668 0.8709833333333334 -1.1290166666666668 0.8709833333333334 0.8709833333333334 0.8709833333333334 0.8709833333333334 0.8709833333333334 0.8709833333333334 -1.1044166666666666 -1.1044166666666666 -1.1044166666666666 0.8955833333333336 0.8955833333333336 -1.1044166666666666 -1.1044166666666666 0.8955833333333336 -1.1044166666666666 0.8955833333333336 0.8955833333333336 0.8955833333333336 0.8955833333333336 -1.1044166666666666 0.8955833333333336 -0.2210166666666667 -0.2210166666666667 -0.2210166666666667 -0.2210166666666667 1.7789833333333338 -0.2210166666666667 -0.2210166666666667 -0.2210166666666667 1.7789833333333338 -0.2210166666666667 1.7789833333333338 1.7789833333333338 1.7789833333333338 -0.2210166666666667 1.7789833333333338 -0.5057333333333337 -0.5057333333333337 1.4942666666666666 -0.5057333333333337 -0.5057333333333337 -0.5057333333333337 1.4942666666666666 -0.5057333333333337 -0.5057333333333337 1.4942666666666666 1.4942666666666666 1.4942666666666666 1.4942666666666666 -0.5057333333333337 -0.5057333333333337 0.9411166666666669 -1.0588833333333336 -1.0588833333333336 0.9411166666666669 0.9411166666666669 -1.0588833333333336 -1.0588833333333336 0.9411166666666669 0.9411166666666669 -1.0588833333333336 0.9411166666666669 -1.0588833333333336 0.9411166666666669 -1.0588833333333336 0.9411166666666669 0.3903666666666669 0.3903666666666669 -1.609633333333333 0.3903666666666669 0.3903666666666669 0.3903666666666669 -1.609633333333333 0.3903666666666669 0.3903666666666669 -1.609633333333333 0.3903666666666669 -1.609633333333333 -1.609633333333333 -1.609633333333333 0.3903666666666669 -1.5231666666666668 0.4768333333333334 0.4768333333333334 -1.5231666666666668 0.4768333333333334 -1.5231666666666668 0.4768333333333334 0.4768333333333334 0.4768333333333334 0.4768333333333334 0.4768333333333334 -1.5231666666666668 -1.5231666666666668 0.4768333333333334 0.4768333333333334 -1.111733333333333 0.8882666666666665 0.8882666666666665 -1.111733333333333 0.8882666666666665 0.8882666666666665 -1.111733333333333 0.8882666666666665 0.8882666666666665 -1.111733333333333 0.8882666666666665 -1.111733333333333 0.8882666666666665 0.8882666666666665 -1.111733333333333 -0.2584999999999999 -0.2584999999999999 1.7415 -0.2584999999999999 -0.2584999999999999 -0.2584999999999999 -0.2584999999999999 1.7415 1.7415 1.7415 -0.2584999999999999 1.7415 -0.2584999999999999 1.7415 -0.2584999999999999
-1.5267666666666664 -1.5267666666666664 -1.5267666666666664 0.47323333333333345 -1.5267666666666664 -1.5267666666666664 0.47323333333333345 0.47323333333333345 0.47323333333333345 0.47323333333333345 0.47323333333333345 0.47323333333333345 0.47323333333333345 0.47323333333333345 -1.5267666666666664 0.016883333333333028 2.016883333333333 2.016883333333333 0.016883333333333028 0.016883333333333028 2.016883333333333 0.016883333333333028 2.016883333333333 2.016883333333333 0.016883333333333028 2.016883333333333 2.016883333333333 0.016883333333333028 0.016883333333333028 0.016883333333333028 0.9361499999999998 0.9361499999999998 0.9361499999999998 0.9361499999999998 -1.06385 -1.06385 -1.06385 0.9361499999999998 0.9361499999999998 -1.06385 0.9361499999999998 0.9361499999999998 0.9361499999999998 -1.06385 0.9361499999999998 1.1564166666666669 1.1564166666666669 -0.843583333333333 1.1564166666666669 -0.843583333333333 1.1564166666666669 -0.843583333333333 1.1564166666666669 1.1564166666666669 -0.843583333333333 -0.843583333333333 1.1564166666666669 1.1564166666666669 -0.843583333333333 1.1564166666666669 1.3853999999999997 -0.6146000000000003 1.3853999999999997 -0.6146000000000003 -0.6146000000000003 -0.6146000000000003 -0.6146000000000003 1.3853999999999997 -0.6146000000000003 -0.6146000000000003 1.3853999999999997 -0.6146000000000003 1.3853999999999997 1.3853999999999997 -0.6146000000000003 0.4109499999999998 -1.5890500000000005 0.4109499999999998 0.4109499999999998 0.4109499999999998 0.4109499999999998 0.4109499999999998 -1.5890500000000005 0.4109499999999998 -1.5890500000000005 0.4109499999999998 -1.5890500000000005 -1.5890500000000005 0.4109499999999998 -1.5890500000000005 1.3420666666666663 -0.6579333333333337 1.3420666666666663 -0.6579333333333337 -0.6579333333333337 1.3420666666666663 -0.6579333333333337 -0.6579333333333337 1.3420666666666663 1.3420666666666663 1.3420666666666663 1.3420666666666663 1.3420666666666663 -0.6579333333333337 1.3420666666666663 1.2148666666666668 1.2148666666666668 -0.7851333333333331 -0.7851333333333331 -0.7851333333333331 1.2148666666666668 -0.7851333333333331 1.2148666666666668 -0.7851333333333331 -0.7851333333333331 -0.7851333333333331 -0.7851333333333331 -0.7851333333333331 -0.7851333333333331 1.2148666666666668 0.02759999999999998 -1.9724000000000004 0.02759999999999998 0.02759999999999998 -1.9724000000000004 -1.9724000000000004 -1.9724000000000004 0.02759999999999998 0.02759999999999998 0.02759999999999998 -1.9724000000000004 0.02759999999999998 0.02759999999999998 0.02759999999999998 0.02759999999999998 -0.9635666666666669 1.0364333333333333 1.0364333333333333 -0.9635666666666669 -0.9635666666666669 -0.9635666666666669 1.0364333333333333 1.0364333333333333 -0.9635666666666669 1.0364333333333333 1.0364333333333333 -0.9635666666666669 -0.9635666666666669 -0.9635666666666669 -0.9635666666666669
0.021600000000000053 2.0216 0.021600000000000053 0.021600000000000053 2.0216 0.021600000000000053 2.0216 0.021600000000000053 0.021600000000000053 2.0216 2.0216 2.0216 2.0216 2.0216 0.021600000000000053 -0.4500500000000001 -0.4500500000000001 1.5499500000000002 -0.4500500000000001 -0.4500500000000001 -0.4500500000000001 -0.4500500000000001 -0.4500500000000001 1.5499500000000002 1.5499500000000002 -0.4500500000000001 1.5499500000000002 -0.4500500000000001 -0.4500500000000001 -0.4500500000000001 -0.24958333333333324 1.7504166666666667 1.7504166666666667 -0.24958333333333324 -0.24958333333333324 1.7504166666666667 -0.24958333333333324 1.7504166666666667 -0.24958333333333324 1.7504166666666667 1.7504166666666667 1.7504166666666667 1.7504166666666667 -0.24958333333333324 1.7504166666666667 2.004883333333334 0.004883333333333255 2.004883333333334 2.004883333333334 0.004883333333333255 0.004883333333333255 2.004883333333334 2.004883333333334 0.004883333333333255 2.004883333333334 0.004883333333333255 0.004883333333333255 2.004883333333334 2.004883333333334 0.004883333333333255 -0.5276333333333333 -2.527633333333333 -2.527633333333333 -0.5276333333333333 -2.527633333333333 -0.5276333333333333 -0.5276333333333333 -0.5276333333333333 -2.527633333333333 -2.527633333333333 -0.5276333333333333 -0.5276333333333333 -0.5276333333333333 -0.5276333333333333 -2.527633333333333 -1.2034833333333335 0.7965166666666669 0.7965166666666669 -1.2034833333333335 0.7965166666666669 -1.2034833333333335 0.7965166666666669 0.7965166666666669 0.7965166666666669 -1.2034833333333335 0.7965166666666669 0.7965166666666669 -1.2034833333333335 -1.2034833333333335 0.7965166666666669 0.2567666666666665 -1.7432333333333332 -1.7432333333333332 -1.7432333333333332 -1.7432333333333332 0.2567666666666665 0.2567666666666665 0.2567666666666665 0.2567666666666665 0.2567666666666665 -1.7432333333333332 -1.7432333333333332 0.2567666666666665 -1.7432333333333332 -1.7432333333333332 -0.3161666666666667 -2.3161666666666667 -0.3161666666666667 -2.3161666666666667 -0.3161666666666667 -2.3161666666666667 -0.3161666666666667 -0.3161666666666667 -0.3161666666666667 -2.3161666666666667 -2.3161666666666667 -2.3161666666666667 -0.3161666666666667 -2.3161666666666667 -2.3161666666666667 -0.38326666666666664 -0.38326666666666664 1.6167333333333336 1.6167333333333336 1.6167333333333336 1.6167333333333336 1.6167333333333336 -0.38326666666666664 1.6167333333333336 1.6167333333333336 1.6167333333333336 1.6167333333333336 1.6167333333333336 1.6167333333333336 1.6167333333333336 0.8469333333333334 -1.1530666666666662 0.8469333333333334 -1.1530666666666662 0.8469333333333334 -1.1530666666666662 0.8469333333333334 0.8469333333333334 0.8469333333333334 0.8469333333333334 -1.1530666666666662 -1.1530666666666662 0.8469333333333334 0.8469333333333334 0.8469333333333334
0.41283333333333333 -1.5871666666666666 -1.5871666666666666 0.41283333333333333 -1.5871666666666666 -1.5871666666666666 0.41283333333333333 0.41283333333333333 -1.5871666666666666 -1.5871666666666666 0.41283333333333333 0.41283333333333333 0.41283333333333333 0.41283333333333333 0.41283333333333333 0.020249999999999962 -1.9797500000000003 0.020249999999999962 -1.9797500000000003 0.020249999999999962 0.020249999999999962 0.020249999999999962 -1.9797500000000003 0.020249999999999962 -1.9797500000000003 0.020249999999999962 0.020249999999999962 0.020249999999999962 0.020249999999999962 0.020249999999999962 0.4442499999999998 -1.55575 -1.55575 0.4442499999999998 0.4442499999999998 0.4442499999999998 -1.55575 0.4442499999999998 -1.55575 -1.55575 0.4442499999999998 0.4442499999999998 -1.55575 0.4442499999999998 -1.55575 0.9249833333333334 0.9249833333333334 0.9249833333333334 0.9249833333333334 0.9249833333333334 -1.0750166666666667 -1.0750166666666667 -1.0750166666666667 -1.0750166666666667 -1.0750166666666667 -1.0750166666666667 -1.0750166666666667 0.9249833333333334 0.9249833333333334 -1.0750166666666667 -1.7776666666666665 0.2223333333333334 -1.7776666666666665 -1.7776666666666665 -1.7776666666666665 0.2223333333333334 -1.7776666666666665 -1.7776666666666665 0.2223333333333334 0.2223333333333334 -1.7776666666666665 -1.7776666666666665 0.2223333333333334 0.2223333333333334 -1.7776666666666665 -1.10895 0.89105 0.89105 0.89105 0.89105 -1.10895 0.89105 -1.10895 -1.10895 -1.10895 -1.10895 -1.10895 0.89105 -1.10895 -1.10895 3.033666666666667 3.033666666666667 3.033666666666667 1.0336666666666667 3.033666666666667 1.0336666666666667 3.033666666666667 3.033666666666667 3.033666666666667 1.0336666666666667 3.033666666666667 1.0336666666666667 3.033666666666667 1.0336666666666667 1.0336666666666667 -0.5855666666666666 1.4144333333333339 -0.5855666666666666 -0.5855666666666666 -0.5855666666666666 -0.5855666666666666 1.4144333333333339 1.4144333333333339 1.4144333333333339 -0.5855666666666666 1.4144333333333339 1.4144333333333339 -0.5855666666666666 1.4144333333333339 1.4144333333333339 0.6799666666666667 -1.3200333333333334 -1.3200333333333334 -1.3200333333333334 -1.3200333333333334 0.6799666666666667 -1.3200333333333334 -1.3200333333333334 -1.3200333333333334 0.6799666666666667 -1.3200333333333334 0.6799666666666667 0.6799666666666667 0.6799666666666667 0.6799666666666667 -0.0437666666666668 1.9562333333333333 -0.0437666666666668 -0.0437666666666668 -0.0437666666666668 -0.0437666666666668 -0.0437666666666668 1.9562333333333333 -0.0437666666666668 -0.0437666666666668 -0.0437666666666668 -0.0437666666666668 -0.0437666666666668 1.9562333333333333 1.9562333333333333
-0.9566000000000001 1.0434000000000005 1.0434000000000005 1.0434000000000005 -0.9566000000000001 1.0434000000000005 1.0434000000000005 -0.9566000000000001 -0.9566000000000001 -0.9566000000000001 1.0434000000000005 -0.9566000000000001 1.0434000000000005 1.0434000000000005 -0.9566000000000001 0.3527166666666667 0.3527166666666667 0.3527166666666667 0.3527166666666667 0.3527166666666667 -1.6472833333333337 -1.6472833333333337 0.3527166666666667 -1.6472833333333337 0.3527166666666667 0.3527166666666667 0.3527166666666667 0.3527166666666667 0.3527166666666667 -1.6472833333333337 1.582183333333333 3.582183333333334 3.582183333333334 3.582183333333334 1.582183333333333 1.582183333333333 1.582183333333333 1.582183333333333 3.582183333333334 3.582183333333334 1.582183333333333 3.582183333333334 1.582183333333333 1.582183333333333 3.582183333333334 -2.4042833333333338 -0.40428333333333333 -2.4042833333333338 -0.40428333333333333 -2.4042833333333338 -0.40428333333333333 -2.4042833333333338 -0.40428333333333333 -2.4042833333333338 -0.40428333333333333 -2.4042833333333338 -0.40428333333333333 -2.4042833333333338 -0.40428333333333333 -0.40428333333333333 -0.6574666666666668 -0.6574666666666668 -2.657466666666666 -2.657466666666666 -2.657466666666666 -2.657466666666666 -0.6574666666666668 -2.657466666666666 -0.6574666666666668 -0.6574666666666668 -2.657466666666666 -2.657466666666666 -0.6574666666666668 -2.657466666666666 -0.6574666666666668 -0.044083333333333335 -0.044083333333333335 -0.044083333333333335 -2.044083333333333 -2.044083333333333 -0.044083333333333335 -0.044083333333333335 -2.044083333333333 -0.044083333333333335 -0.044083333333333335 -0.044083333333333335 -0.044083333333333335 -2.044083333333333 -2.044083333333333 -0.044083333333333335 5.280333333333333 3.2803333333333335 5.280333333333333 5.280333333333333 3.2803333333333335 3.2803333333333335 3.2803333333333335 5.280333333333333 5.280333333333333 5.280333333333333 5.280333333333333 5.280333333333333 5.280333333333333 3.2803333333333335 3.2803333333333335 -0.0020333333333333 -0.0020333333333333 -2.0020333333333338 -2.0020333333333338 -0.0020333333333333 -2.0020333333333338 -2.0020333333333338 -0.0020333333333333 -2.0020333333333338 -2.0020333333333338 -0.0020333333333333 -2.0020333333333338 -2.0020333333333338 -0.0020333333333333 -0.0020333333333333 0.4410999999999999 0.4410999999999999 0.4410999999999999 2.4411 0.4410999999999999 2.4411 2.4411 2.4411 2.4411 2.4411 2.4411 2.4411 2.4411 0.4410999999999999 0.4410999999999999 -3.5918666666666663 -1.5918666666666663 -3.5918666666666663 -1.5918666666666663 -3.5918666666666663 -3.5918666666666663 -1.5918666666666663 -3.5918666666666663 -1.5918666666666663 -1.5918666666666663 -1.5918666666666663 -1.5918666666666663 -3.5918666666666663 -1.5918666666666663 -3.5918666666666663
-0.11386666666666659 -2.113866666666667 -0.11386666666666659 -0.11386666666666659 -2.113866666666667 -0.11386666666666659 -0.11386666666666659 -0.11386666666666659 -2.113866666666667 -0.11386666666666659 -0.11386666666666659 -2.113866666666667 -0.11386666666666659 -0.11386666666666659 -2.113866666666667 -1.1640833333333334 -3.1640833333333327 -1.1640833333333334 -1.1640833333333334 -3.1640833333333327 -1.1640833333333334 -1.1640833333333334 -3.1640833333333327 -3.1640833333333327 -3.1640833333333327 -1.1640833333333334 -1.1640833333333334 -3.1640833333333327 -1.1640833333333334 -3.1640833333333327 -0.3075166666666668 1.6924833333333331 -0.3075166666666668 1.6924833333333331 1.6924833333333331 1.6924833333333331 1.6924833333333331 -0.3075166666666668 -0.3075166666666668 -0.3075166666666668 -0.3075166666666668 1.6924833333333331 -0.3075166666666668 1.6924833333333331 -0.3075166666666668 2.2464499999999994 2.2464499999999994 2.2464499999999994 2.2464499999999994 2.2464499999999994 2.2464499999999994 0.2464499999999998 2.2464499999999994 2.2464499999999994 2.2464499999999994 2.2464499999999994 2.2464499999999994 0.2464499999999998 2.2464499999999994 2.2464499999999994 -0.004033333333333246 -0.004033333333333246 -0.004033333333333246 1.9959666666666662 -0.004033333333333246 1.9959666666666662 -0.004033333333333246 1.9959666666666662 1.9959666666666662 1.9959666666666662 -0.004033333333333246 -0.004033333333333246 -0.004033333333333246 1.9959666666666662 1.9959666666666662 -1.0672499999999998 -1.0672499999999998 0.9327500000000001 0.9327500000000001 -1.0672499999999998 -1.0672499999999998 0.9327500000000001 -1.0672499999999998 -1.0672499999999998 -1.0672499999999998 0.9327500000000001 0.9327500000000001 -1.0672499999999998 -1.0672499999999998 -1.0672499999999998 -0.3121 -0.3121 -0.3121 1.6879000000000002 1.6879000000000002 1.6879000000000002 1.6879000000000002 -0.3121 -0.3121 1.6879000000000002 1.6879000000000002 -0.3121 -0.3121 1.6879000000000002 1.6879000000000002 -0.19353333333333342 -0.19353333333333342 -0.19353333333333342 1.8064666666666667 -0.19353333333333342 1.8064666666666667 -0.19353333333333342 1.8064666666666667 1.8064666666666667 -0.19353333333333342 -0.19353333333333342 1.8064666666666667 -0.19353333333333342 -0.19353333333333342 1.8064666666666667 -0.28073333333333333 -2.280733333333334 -2.280733333333334 -0.28073333333333333 -0.28073333333333333 -0.28073333333333333 -0.28073333333333333 -0.28073333333333333 -2.280733333333334 -2.280733333333334 -0.28073333333333333 -2.280733333333334 -0.28073333333333333 -0.28073333333333333 -0.28073333333333333 -0.8033333333333333 1.1966666666666665 1.1966666666666665 1.1966666666666665 -0.8033333333333333 1.1966666666666665 1.1966666666666665 1.1966666666666665 1.1966666666666665 1.1966666666666665 1.1966666666666665 -0.8033333333333333 -0.8033333333333333 1.1966666666666665 1.1966666666666665
1.7403000000000002 -0.25970000000000004 1.7403000000000002 -0.25970000000000004 -0.25970000000000004 -0.25970000000000004 -0.25970000000000004 1.7403000000000002 -0.25970000000000004 -0.25970000000000004 -0.25970000000000004 -0.25970000000000004 1.7403000000000002 1.7403000000000002 1.7403000000000002 -0.08318333333333336 -2.083183333333333 -0.08318333333333336 -0.08318333333333336 -0.08318333333333336 -0.08318333333333336 -2.083183333333333 -0.08318333333333336 -0.08318333333333336 -0.08318333333333336 -0.08318333333333336 -2.083183333333333 -0.08318333333333336 -0.08318333333333336 -2.083183333333333 -0.5262833333333331 -0.5262833333333331 1.4737166666666661 1.4737166666666661 1.4737166666666661 -0.5262833333333331 1.4737166666666661 1.4737166666666661 1.4737166666666661 -0.5262833333333331 1.4737166666666661 -0.5262833333333331 -0.5262833333333331 -0.5262833333333331 1.4737166666666661 0.8898500000000001 0.8898500000000001 2.8898499999999996 2.8898499999999996 0.8898500000000001 0.8898500000000001 2.8898499999999996 2.8898499999999996 2.8898499999999996 0.8898500000000001 2.8898499999999996 2.8898499999999996 0.8898500000000001 0.8898500000000001 0.8898500000000001 -1.2610000000000001 -1.2610000000000001 0.7390000000000002 0.7390000000000002 -1.2610000000000001 -1.2610000000000001 0.7390000000000002 -1.2610000000000001 -1.2610000000000001 0.7390000000000002 0.7390000000000002 -1.2610000000000001 -1.2610000000000001 -1.2610000000000001 0.7390000000000002 0.5744499999999999 -1.4255499999999999 -1.4255499999999999 -1.4255499999999999 0.5744499999999999 -1.4255499999999999 -1.4255499999999999 0.5744499999999999 0.5744499999999999 0.5744499999999999 0.5744499999999999 -1.4255499999999999 -1.4255499999999999 0.5744499999999999 0.5744499999999999 1.7127666666666672 -0.2872333333333333 1.7127666666666672 1.7127666666666672 1.7127666666666672 1.7127666666666672 1.7127666666666672 1.7127666666666672 1.7127666666666672 -0.2872333333333333 1.7127666666666672 -0.2872333333333333 -0.2872333333333333 -0.2872333333333333 1.7127666666666672 -2.2216 -2.2216 -0.2216000000000001 -0.2216000000000001 -0.2216000000000001 -2.2216 -2.2216 -0.2216000000000001 -0.2216000000000001 -0.2216000000000001 -0.2216000000000001 -2.2216 -2.2216 -2.2216 -0.2216000000000001 -1.1147666666666667 -1.1147666666666667 -1.1147666666666667 -1.1147666666666667 -1.1147666666666667 -1.1147666666666667 0.8852333333333335 -1.1147666666666667 0.8852333333333335 0.8852333333333335 0.8852333333333335 0.8852333333333335 -1.1147666666666667 0.8852333333333335 -1.1147666666666667 -1.710533333333334 -1.710533333333334 -1.710533333333334 -1.710533333333334 0.2894666666666667 -1.710533333333334 0.2894666666666667 0.2894666666666667 -1.710533333333334 -1.710533333333334 -1.710533333333334 -1.710533333333334 0.2894666666666667 0.2894666666666667 0.2894666666666667
0.9376666666666668 0.9376666666666668 -1.0623333333333336 0.9376666666666668 0.9376666666666668 -1.0623333333333336 -1.0623333333333336 -1.0623333333333336 0.9376666666666668 -1.0623333333333336 0.9376666666666668 -1.0623333333333336 -1.0623333333333336 0.9376666666666668 -1.0623333333333336 0.06965000000000002 -1.9303499999999998 -1.9303499999999998 0.06965000000000002 0.06965000000000002 0.06965000000000002 -1.9303499999999998 0.06965000000000002 0.06965000000000002 -1.9303499999999998 0.06965000000000002 -1.9303499999999998 -1.9303499999999998 -1.9303499999999998 -1.9303499999999998 2.781983333333333 2.781983333333333 0.7819833333333334 0.7819833333333334 2.781983333333333 2.781983333333333 2.781983333333333 2.781983333333333 0.7819833333333334 2.781983333333333 0.7819833333333334 0.7819833333333334 0.7819833333333334 0.7819833333333334 2.781983333333333 1.7477166666666668 3.7477166666666673 1.7477166666666668 3.7477166666666673 1.7477166666666668 1.7477166666666668 3.7477166666666673 1.7477166666666668 1.7477166666666668 3.7477166666666673 3.7477166666666673 3.7477166666666673 1.7477166666666668 1.7477166666666668 1.7477166666666668 -1.945933333333333 0.0540666666666665 0.0540666666666665 0.0540666666666665 -1.945933333333333 -1.945933333333333 -1.945933333333333 0.0540666666666665 -1.945933333333333 -1.945933333333333 0.0540666666666665 0.0540666666666665 -1.945933333333333 -1.945933333333333 -1.945933333333333 -1.5725166666666666 -1.5725166666666666 0.42748333333333316 -1.5725166666666666 0.42748333333333316 -1.5725166666666666 -1.5725166666666666 -1.5725166666666666 0.42748333333333316 0.42748333333333316 -1.5725166666666666 0.42748333333333316 -1.5725166666666666 -1.5725166666666666 -1.5725166666666666 -0.17376666666666665 -0.17376666666666665 1.8262333333333334 -0.17376666666666665 1.8262333333333334 -0.17376666666666665 -0.17376666666666665 1.8262333333333334 1.8262333333333334 1.8262333333333334 -0.17376666666666665 1.8262333333333334 1.8262333333333334 1.8262333333333334 -0.17376666666666665 -0.6632666666666666 -0.6632666666666666 -0.6632666666666666 -0.6632666666666666 -0.6632666666666666 -0.6632666666666666 -2.663266666666667 -2.663266666666667 -2.663266666666667 -2.663266666666667 -0.6632666666666666 -2.663266666666667 -0.6632666666666666 -2.663266666666667 -2.663266666666667 0.006433333333333328 2.0064333333333333 2.0064333333333333 0.006433333333333328 0.006433333333333328 2.0064333333333333 0.006433333333333328 0.006433333333333328 2.0064333333333333 0.006433333333333328 2.0064333333333333 0.006433333333333328 2.0064333333333333 2.0064333333333333 2.0064333333333333 -1.1879666666666664 -3.187966666666667 -1.1879666666666664 -3.187966666666667 -1.1879666666666664 -3.187966666666667 -3.187966666666667 -1.1879666666666664 -1.1879666666666664 -3.187966666666667 -1.1879666666666664 -3.187966666666667 -3.187966666666667 -1.1879666666666664 -1.1879666666666664
-0.1326666666666667 -2.1326666666666663 -0.1326666666666667 -2.1326666666666663 -2.1326666666666663 -0.1326666666666667 -2.1326666666666663 -0.1326666666666667 -0.1326666666666667 -2.1326666666666663 -0.1326666666666667 -2.1326666666666663 -0.1326666666666667 -2.1326666666666663 -0.1326666666666667 -1.3164500000000001 -3.3164499999999997 -3.3164499999999997 -3.3164499999999997 -3.3164499999999997 -3.3164499999999997 -1.3164500000000001 -1.3164500000000001 -1.3164500000000001 -3.3164499999999997 -1.3164500000000001 -1.3164500000000001 -3.3164499999999997 -1.3164500000000001 -3.3164499999999997 0.4300500000000001 0.4300500000000001 -1.56995 -1.56995 0.4300500000000001 0.4300500000000001 -1.56995 0.4300500000000001 -1.56995 -1.56995 0.4300500000000001 -1.56995 0.4300500000000001 0.4300500000000001 -1.56995 0.12881666666666666 2.1288166666666664 2.1288166666666664 0.12881666666666666 0.12881666666666666 2.1288166666666664 0.12881666666666666 0.12881666666666666 0.12881666666666666 0.12881666666666666 0.12881666666666666 0.12881666666666666 2.1288166666666664 2.1288166666666664 0.12881666666666666 2.920266666666666 0.9202666666666668 0.9202666666666668 2.920266666666666 0.9202666666666668 2.920266666666666 0.9202666666666668 0.9202666666666668 0.9202666666666668 0.9202666666666668 2.920266666666666 2.920266666666666 0.9202666666666668 0.9202666666666668 0.9202666666666668 0.015649999999999973 2.0156500000000004 0.015649999999999973 0.015649999999999973 2.0156500000000004 2.0156500000000004 2.0156500000000004 0.015649999999999973 2.0156500000000004 0.015649999999999973 0.015649999999999973 2.0156500000000004 2.0156500000000004 2.0156500000000004 2.0156500000000004 0.28423333333333334 0.28423333333333334 2.2842333333333333 2.2842333333333333 2.2842333333333333 2.2842333333333333 0.28423333333333334 2.2842333333333333 2.2842333333333333 2.2842333333333333 2.2842333333333333 0.28423333333333334 2.2842333333333333 0.28423333333333334 0.28423333333333334 -1.2388333333333335 -3.238833333333333 -1.2388333333333335 -1.2388333333333335 -3.238833333333333 -1.2388333333333335 -1.2388333333333335 -1.2388333333333335 -3.238833333333333 -3.238833333333333 -1.2388333333333335 -3.238833333333333 -3.238833333333333 -1.2388333333333335 -3.238833333333333 -0.8789999999999999 -0.8789999999999999 1.1210000000000004 1.1210000000000004 1.1210000000000004 -0.8789999999999999 -0.8789999999999999 -0.8789999999999999 -0.8789999999999999 1.1210000000000004 1.1210000000000004 1.1210000000000004 -0.8789999999999999 1.1210000000000004 -0.8789999999999999 -0.21206666666666674 -0.21206666666666674 1.7879333333333336 1.7879333333333336 1.7879333333333336 -0.21206666666666674 -0.21206666666666674 1.7879333333333336 -0.21206666666666674 -0.21206666666666674 1.7879333333333336 -0.21206666666666674 1.7879333333333336 -0.21206666666666674 -0.21206666666666674
-0.7951666666666667 -0.7951666666666667 1.2048333333333334 -0.7951666666666667 1.2048333333333334 1.2048333333333334 -0.7951666666666667 -0.7951666666666667 1.2048333333333334 -0.7951666666666667 1.2048333333333334 -0.7951666666666667 -0.7951666666666667 -0.7951666666666667 1.2048333333333334 -0.0013833333333332434 -0.0013833333333332434 -2.0013833333333335 -2.0013833333333335 -0.0013833333333332434 -0.0013833333333332434 -0.0013833333333332434 -0.0013833333333332434 -0.0013833333333332434 -0.0013833333333332434 -2.0013833333333335 -0.0013833333333332434 -0.0013833333333332434 -0.0013833333333332434 -2.0013833333333335 -0.2222499999999999 -0.2222499999999999 -0.2222499999999999 -0.2222499999999999 -0.2222499999999999 -2.22225 -2.22225 -2.22225 -2.22225 -2.22225 -2.22225 -2.22225 -2.22225 -2.22225 -0.2222499999999999 1.09425 1.09425 1.09425 1.09425 1.09425 -0.9057499999999998 1.09425 1.09425 1.09425 1.09425 -0.9057499999999998 1.09425 -0.9057499999999998 -0.9057499999999998 1.09425 -1.9216333333333329 0.07836666666666664 -1.9216333333333329 0.07836666666666664 -1.9216333333333329 0.07836666666666664 0.07836666666666664 0.07836666666666664 -1.9216333333333329 -1.9216333333333329 0.07836666666666664 0.07836666666666664 0.07836666666666664 0.07836666666666664 0.07836666666666664 0.6421166666666667 2.6421166666666673 2.6421166666666673 0.6421166666666667 0.6421166666666667 0.6421166666666667 2.6421166666666673 2.6421166666666673 2.6421166666666673 0.6421166666666667 2.6421166666666673 0.6421166666666667 0.6421166666666667 2.6421166666666673 2.6421166666666673 2.3715 2.3715 0.37150000000000005 2.3715 2.3715 0.37150000000000005 2.3715 2.3715 2.3715 0.37150000000000005 0.37150000000000005 2.3715 0.37150000000000005 2.3715 2.3715 -0.8478666666666664 1.1521333333333332 1.1521333333333332 -0.8478666666666664 -0.8478666666666664 -0.8478666666666664 1.1521333333333332 1.1521333333333332 -0.8478666666666664 1.1521333333333332 -0.8478666666666664 1.1521333333333332 1.1521333333333332 -0.8478666666666664 -0.8478666666666664 1.8766333333333334 1.8766333333333334 -0.12336666666666665 -0.12336666666666665 1.8766333333333334 1.8766333333333334 1.8766333333333334 1.8766333333333334 1.8766333333333334 1.8766333333333334 1.8766333333333334 -0.12336666666666665 1.8766333333333334 1.8766333333333334 1.8766333333333334 -0.1961999999999999 -2.1961999999999997 -0.1961999999999999 -0.1961999999999999 -0.1961999999999999 -0.1961999999999999 -0.1961999999999999 -2.1961999999999997 -0.1961999999999999 -0.1961999999999999 -0.1961999999999999 -0.1961999999999999 -2.1961999999999997 -2.1961999999999997 -0.1961999999999999
-2.0981333333333327 -2.0981333333333327 -2.0981333333333327 -0.09813333333333335 -0.09813333333333335 -0.09813333333333335 -0.09813333333333335 -0.09813333333333335 -2.0981333333333327 -2.0981333333333327 -0.09813333333333335 -2.0981333333333327 -0.09813333333333335 -2.0981333333333327 -2.0981333333333327 -1.8421833333333333 -1.8421833333333333 -1.8421833333333333 0.15781666666666674 -1.8421833333333333 0.15781666666666674 -1.8421833333333333 -1.8421833333333333 -1.8421833333333333 0.15781666666666674 -1.8421833333333333 0.15781666666666674 0.15781666666666674 -1.8421833333333333 -1.8421833333333333 0.47811666666666675 0.47811666666666675 2.4781166666666667 0.47811666666666675 2.4781166666666667 0.47811666666666675 0.47811666666666675 2.4781166666666667 0.47811666666666675 2.4781166666666667 2.4781166666666667 0.47811666666666675 0.47811666666666675 0.47811666666666675 2.4781166666666667 -2.2761166666666663 -2.2761166666666663 -0.2761166666666668 -0.2761166666666668 -2.2761166666666663 -0.2761166666666668 -0.2761166666666668 -0.2761166666666668 -2.2761166666666663 -0.2761166666666668 -2.2761166666666663 -0.2761166666666668 -0.2761166666666668 -0.2761166666666668 -2.2761166666666663 2.6850666666666663 0.6850666666666666 2.6850666666666663 2.6850666666666663 2.6850666666666663 0.6850666666666666 2.6850666666666663 0.6850666666666666 2.6850666666666663 0.6850666666666666 2.6850666666666663 2.6850666666666663 0.6850666666666666 0.6850666666666666 0.6850666666666666 -0.0624833333333333 -2.0624833333333337 -2.0624833333333337 -0.0624833333333333 -2.0624833333333337 -0.0624833333333333 -0.0624833333333333 -0.0624833333333333 -0.0624833333333333 -2.0624833333333337 -2.0624833333333337 -0.0624833333333333 -2.0624833333333337 -2.0624833333333337 -2.0624833333333337 2.9529666666666663 0.9529666666666667 0.9529666666666667 2.9529666666666663 0.9529666666666667 2.9529666666666663 2.9529666666666663 0.9529666666666667 2.9529666666666663 0.9529666666666667 2.9529666666666663 2.9529666666666663 0.9529666666666667 0.9529666666666667 0.9529666666666667 -3.025900000000001 -1.0258999999999998 -3.025900000000001 -3.025900000000001 -1.0258999999999998 -1.0258999999999998 -1.0258999999999998 -1.0258999999999998 -1.0258999999999998 -3.025900000000001 -1.0258999999999998 -3.025900000000001 -1.0258999999999998 -3.025900000000001 -3.025900000000001 0.2075333333333333 0.2075333333333333 0.2075333333333333 0.2075333333333333 0.2075333333333333 0.2075333333333333 2.2075333333333336 2.2075333333333336 2.2075333333333336 2.2075333333333336 2.2075333333333336 2.2075333333333336 0.2075333333333333 2.2075333333333336 0.2075333333333333 0.9811333333333335 -1.0188666666666664 0.9811333333333335 -1.0188666666666664 -1.0188666666666664 0.9811333333333335 0.9811333333333335 0.9811333333333335 -1.0188666666666664 -1.0188666666666664 0.9811333333333335 -1.0188666666666664 0.9811333333333335 0.9811333333333335 0.9811333333333335
-1.4049 0.5951000000000001 0.5951000000000001 -1.4049 0.5951000000000001 -1.4049 -1.4049 0.5951000000000001 -1.4049 0.5951000000000001 0.5951000000000001 0.5951000000000001 0.5951000000000001 -1.4049 0.5951000000000001 0.022916666666666592 2.0229166666666667 0.022916666666666592 0.022916666666666592 2.0229166666666667 0.022916666666666592 0.022916666666666592 0.022916666666666592 0.022916666666666592 2.0229166666666667 0.022916666666666592 2.0229166666666667 0.022916666666666592 2.0229166666666667 2.0229166666666667 1.1400166666666667 -0.8599833333333335 1.1400166666666667 -0.8599833333333335 -0.8599833333333335 -0.8599833333333335 1.1400166666666667 1.1400166666666667 1.1400166666666667 -0.8599833333333335 -0.8599833333333335 1.1400166666666667 1.1400166666666667 -0.8599833333333335 -0.8599833333333335 -0.8654833333333337 1.1345166666666664 1.1345166666666664 1.1345166666666664 -0.8654833333333337 1.1345166666666664 -0.8654833333333337 -0.8654833333333337 1.1345166666666664 1.1345166666666664 1.1345166666666664 -0.8654833333333337 1.1345166666666664 1.1345166666666664 1.1345166666666664 1.394 -0.606 1.394 -0.606 1.394 -0.606 -0.606 -0.606 1.394 -0.606 1.394 1.394 1.394 1.394 1.394 0.424216666666667 0.424216666666667 -1.5757833333333324 0.424216666666667 -1.5757833333333324 -1.5757833333333324 0.424216666666667 -1.5757833333333324 -1.5757833333333324 -1.5757833333333324 0.424216666666667 -1.5757833333333324 -1.5757833333333324 0.424216666666667 0.424216666666667 1.0077666666666667 1.0077666666666667 1.0077666666666667 -0.9922333333333336 1.0077666666666667 1.0077666666666667 1.0077666666666667 1.0077666666666667 -0.9922333333333336 -0.9922333333333336 1.0077666666666667 1.0077666666666667 1.0077666666666667 -0.9922333333333336 1.0077666666666667 1.1615333333333335 -0.8384666666666664 -0.8384666666666664 1.1615333333333335 -0.8384666666666664 -0.8384666666666664 -0.8384666666666664 -0.8384666666666664 1.1615333333333335 -0.8384666666666664 1.1615333333333335 1.1615333333333335 1.1615333333333335 -0.8384666666666664 1.1615333333333335 0.08923333333333344 -1.9107666666666665 -1.9107666666666665 -1.9107666666666665 -1.9107666666666665 0.08923333333333344 -1.9107666666666665 -1.9107666666666665 0.08923333333333344 -1.9107666666666665 -1.9107666666666665 0.08923333333333344 0.08923333333333344 0.08923333333333344 0.08923333333333344 1.0307000000000002 1.0307000000000002 -0.9692999999999998 1.0307000000000002 1.0307000000000002 1.0307000000000002 -0.9692999999999998 -0.9692999999999998 -0.9692999999999998 1.0307000000000002 -0.9692999999999998 1.0307000000000002 -0.9692999999999998 -0.9692999999999998 1.0307000000000002
0.14790000000000006 0.14790000000000006 0.14790000000000006 0.14790000000000006 -1.8520999999999999 0.14790000000000006 -1.8520999999999999 -1.8520999999999999 0.14790000000000006 -1.8520999999999999 0.14790000000000006 -1.8520999999999999 -1.8520999999999999 -1.8520999999999999 -1.8520999999999999 -1.454316666666666 0.5456833333333335 -1.454316666666666 0.5456833333333335 -1.454316666666666 0.5456833333333335 0.5456833333333335 0.5456833333333335 -1.454316666666666 0.5456833333333335 0.5456833333333335 -1.454316666666666 -1.454316666666666 0.5456833333333335 -1.454316666666666 0.08555000000000013 2.0855500000000005 0.08555000000000013 0.08555000000000013 2.0855500000000005 2.0855500000000005 0.08555000000000013 0.08555000000000013 2.0855500000000005 0.08555000000000013 2.0855500000000005 2.0855500000000005 0.08555000000000013 0.08555000000000013 2.0855500000000005 1.35005 3.3500500000000004 1.35005 3.3500500000000004 1.35005 1.35005 3.3500500000000004 1.35005 3.3500500000000004 3.3500500000000004 1.35005 3.3500500000000004 1.35005 1.35005 3.3500500000000004 1.1923333333333337 1.1923333333333337 -0.8076666666666669 1.1923333333333337 1.1923333333333337 1.1923333333333337 1.1923333333333337 -0.8076666666666669 -0.8076666666666669 1.1923333333333337 -0.8076666666666669 1.1923333333333337 -0.8076666666666669 1.1923333333333337 -0.8076666666666669 0.23271666666666674 0.23271666666666674 -1.7672833333333333 -1.7672833333333333 0.23271666666666674 -1.7672833333333333 -1.7672833333333333 -1.7672833333333333 -1.7672833333333333 -1.7672833333333333 -1.7672833333333333 0.23271666666666674 0.23271666666666674 -1.7672833333333333 0.23271666666666674 1.125666666666666 1.125666666666666 -0.8743333333333334 1.125666666666666 1.125666666666666 1.125666666666666 -0.8743333333333334 -0.8743333333333334 1.125666666666666 1.125666666666666 1.125666666666666 1.125666666666666 1.125666666666666 1.125666666666666 -0.8743333333333334 0.6521 -1.3478999999999997 0.6521 0.6521 -1.3478999999999997 0.6521 0.6521 0.6521 -1.3478999999999997 -1.3478999999999997 -1.3478999999999997 -1.3478999999999997 0.6521 0.6521 0.6521 -1.7369333333333332 -1.7369333333333332 -1.7369333333333332 0.2630666666666668 0.2630666666666668 -1.7369333333333332 -1.7369333333333332 0.2630666666666668 -1.7369333333333332 -1.7369333333333332 -1.7369333333333332 -1.7369333333333332 0.2630666666666668 0.2630666666666668 -1.7369333333333332 0.40493333333333337 0.40493333333333337 0.40493333333333337 -1.5950666666666669 0.40493333333333337 0.40493333333333337 -1.5950666666666669 0.40493333333333337 -1.5950666666666669 -1.5950666666666669 0.40493333333333337 0.40493333333333337 -1.5950666666666669 -1.5950666666666669 -1.5950666666666669
-0.9111999999999999 1.0888000000000002 -0.9111999999999999 -0.9111999999999999 1.0888000000000002 -0.9111999999999999 1.0888000000000002 1.0888000000000002 1.0888000000000002 1.0888000000000002 1.0888000000000002 -0.9111999999999999 1.0888000000000002 -0.9111999999999999 -0.9111999999999999 -0.68585 -0.68585 -0.68585 1.3141499999999997 1.3141499999999997 1.3141499999999997 1.3141499999999997 1.3141499999999997 -0.68585 -0.68585 1.3141499999999997 1.3141499999999997 1.3141499999999997 -0.68585 -0.68585 -2.5808500000000003 -0.5808500000000002 -2.5808500000000003 -0.5808500000000002 -2.5808500000000003 -0.5808500000000002 -2.5808500000000003 -2.5808500000000003 -0.5808500000000002 -0.5808500000000002 -0.5808500000000002 -2.5808500000000003 -0.5808500000000002 -0.5808500000000002 -0.5808500000000002 1.9255833333333334 1.9255833333333334 1.9255833333333334 -0.07441666666666676 -0.07441666666666676 1.9255833333333334 -0.07441666666666676 -0.07441666666666676 1.9255833333333334 1.9255833333333334 1.9255833333333334 1.9255833333333334 -0.07441666666666676 -0.07441666666666676 -0.07441666666666676 0.23209999999999997 -1.7678999999999998 0.23209999999999997 -1.7678999999999998 -1.7678999999999998 0.23209999999999997 0.23209999999999997 0.23209999999999997 0.23209999999999997 0.23209999999999997 0.23209999999999997 -1.7678999999999998 -1.7678999999999998 0.23209999999999997 -1.7678999999999998 -0.0012500000000000584 -0.0012500000000000584 1.99875 -0.0012500000000000584 -0.0012500000000000584 1.99875 1.99875 1.99875 1.99875 -0.0012500000000000584 -0.0012500000000000584 -0.0012500000000000584 1.99875 -0.0012500000000000584 -0.0012500000000000584 -3.266866666666666 -3.266866666666666 -3.266866666666666 -3.266866666666666 -1.2668666666666666 -1.2668666666666666 -3.266866666666666 -1.2668666666666666 -3.266866666666666 -1.2668666666666666 -3.266866666666666 -1.2668666666666666 -1.2668666666666666 -3.266866666666666 -3.266866666666666 1.6832 -0.3167999999999999 -0.3167999999999999 -0.3167999999999999 1.6832 1.6832 1.6832 -0.3167999999999999 -0.3167999999999999 -0.3167999999999999 -0.3167999999999999 1.6832 -0.3167999999999999 -0.3167999999999999 1.6832 0.6496333333333333 0.6496333333333333 2.6496333333333344 0.6496333333333333 0.6496333333333333 0.6496333333333333 0.6496333333333333 0.6496333333333333 2.6496333333333344 2.6496333333333344 0.6496333333333333 0.6496333333333333 0.6496333333333333 2.6496333333333344 2.6496333333333344 0.9554999999999999 0.9554999999999999 -1.0445000000000002 0.9554999999999999 -1.0445000000000002 0.9554999999999999 -1.0445000000000002 -1.0445000000000002 -1.0445000000000002 0.9554999999999999 -1.0445000000000002 0.9554999999999999 0.9554999999999999 0.9554999999999999 0.9554999999999999
1.183633333333333 -0.8163666666666667 1.183633333333333 -0.8163666666666667 1.183633333333333 1.183633333333333 -0.8163666666666667 1.183633333333333 1.183633333333333 1.183633333333333 1.183633333333333 1.183633333333333 -0.8163666666666667 1.183633333333333 -0.8163666666666667 -1.3499833333333329 -1.3499833333333329 0.6500166666666666 -1.3499833333333329 -1.3499833333333329 0.6500166666666666 0.6500166666666666 -1.3499833333333329 -1.3499833333333329 0.6500166666666666 0.6500166666666666 0.6500166666666666 0.6500166666666666 -1.3499833333333329 -1.3499833333333329 -0.03205000000000015 -0.03205000000000015 1.9679500000000005 -0.03205000000000015 1.9679500000000005 -0.03205000000000015 -0.03205000000000015 -0.03205000000000015 1.9679500000000005 -0.03205000000000015 -0.03205000000000015 -0.03205000000000015 1.9679500000000005 -0.03205000000000015 1.9679500000000005 0.018749999999999968 0.018749999999999968 0.018749999999999968 2.0187499999999994 0.018749999999999968 0.018749999999999968 2.0187499999999994 2.0187499999999994 0.018749999999999968 2.0187499999999994 0.018749999999999968 0.018749999999999968 0.018749999999999968 2.0187499999999994 0.018749999999999968 -2.558133333333333 -4.558133333333334 -4.558133333333334 -4.558133333333334 -4.558133333333334 -2.558133333333333 -2.558133333333333 -2.558133333333333 -4.558133333333334 -2.558133333333333 -2.558133333333333 -2.558133333333333 -4.558133333333334 -4.558133333333334 -4.558133333333334 0.6071833333333333 -1.3928166666666664 0.6071833333333333 0.6071833333333333 0.6071833333333333 0.6071833333333333 -1.3928166666666664 -1.3928166666666664 -1.3928166666666664 0.6071833333333333 -1.3928166666666664 0.6071833333333333 0.6071833333333333 -1.3928166666666664 0.6071833333333333 1.0909333333333335 -0.9090666666666667 1.0909333333333335 -0.9090666666666667 1.0909333333333335 -0.9090666666666667 -0.9090666666666667 -0.9090666666666667 1.0909333333333335 -0.9090666666666667 1.0909333333333335 -0.9090666666666667 -0.9090666666666667 -0.9090666666666667 -0.9090666666666667 -2.019066666666667 -0.019066666666666655 -0.019066666666666655 -2.019066666666667 -2.019066666666667 -2.019066666666667 -2.019066666666667 -0.019066666666666655 -0.019066666666666655 -2.019066666666667 -2.019066666666667 -0.019066666666666655 -2.019066666666667 -0.019066666666666655 -0.019066666666666655 1.983566666666667 -0.016433333333333303 1.983566666666667 1.983566666666667 -0.016433333333333303 -0.016433333333333303 -0.016433333333333303 1.983566666666667 1.983566666666667 -0.016433333333333303 -0.016433333333333303 1.983566666666667 -0.016433333333333303 -0.016433333333333303 -0.016433333333333303 1.0751666666666664 3.0751666666666666 3.0751666666666666 1.0751666666666664 1.0751666666666664 1.0751666666666664 1.0751666666666664 1.0751666666666664 3.0751666666666666 1.0751666666666664 1.0751666666666664 1.0751666666666664 1.0751666666666664 1.0751666666666664 1.0751666666666664
-1.3681333333333332 -1.3681333333333332 0.6318666666666667 0.6318666666666667 -1.3681333333333332 0.6318666666666667 0.6318666666666667 0.6318666666666667 -1.3681333333333332 -1.3681333333333332 -1.3681333333333332 -1.3681333333333332 -1.3681333333333332 -1.3681333333333332 -1.3681333333333332 2.973783333333334 0.9737833333333336 0.9737833333333336 2.973783333333334 2.973783333333334 2.973783333333334 2.973783333333334 0.9737833333333336 2.973783333333334 0.9737833333333336 0.9737833333333336 2.973783333333334 0.9737833333333336 0.9737833333333336 0.9737833333333336 0.032983333333333344 -1.9670166666666669 0.032983333333333344 0.032983333333333344 -1.9670166666666669 0.032983333333333344 -1.9670166666666669 0.032983333333333344 -1.9670166666666669 0.032983333333333344 -1.9670166666666669 0.032983333333333344 -1.9670166666666669 -1.9670166666666669 0.032983333333333344 0.33938333333333337 0.33938333333333337 2.3393833333333336 2.3393833333333336 2.3393833333333336 0.33938333333333337 0.33938333333333337 2.3393833333333336 0.33938333333333337 2.3393833333333336 0.33938333333333337 2.3393833333333336 0.33938333333333337 0.33938333333333337 2.3393833333333336 -1.9769666666666665 -1.9769666666666665 -1.9769666666666665 0.023033333333333225 -1.9769666666666665 0.023033333333333225 -1.9769666666666665 -1.9769666666666665 -1.9769666666666665 0.023033333333333225 -1.9769666666666665 0.023033333333333225 0.023033333333333225 -1.9769666666666665 -1.9769666666666665 -0.7556166666666669 -0.7556166666666669 -0.7556166666666669 1.2443833333333332 -0.7556166666666669 -0.7556166666666669 -0.7556166666666669 -0.7556166666666669 -0.7556166666666669 -0.7556166666666669 1.2443833333333332 1.2443833333333332 -0.7556166666666669 -0.7556166666666669 1.2443833333333332 0.5873666666666665 -1.4126333333333334 0.5873666666666665 0.5873666666666665 -1.4126333333333334 -1.4126333333333334 -1.4126333333333334 -1.4126333333333334 -1.4126333333333334 0.5873666666666665 -1.4126333333333334 -1.4126333333333334 -1.4126333333333334 -1.4126333333333334 -1.4126333333333334 1.7426666666666666 -0.25733333333333336 -0.25733333333333336 -0.25733333333333336 1.7426666666666666 -0.25733333333333336 1.7426666666666666 -0.25733333333333336 -0.25733333333333336 1.7426666666666666 -0.25733333333333336 1.7426666666666666 1.7426666666666666 -0.25733333333333336 -0.25733333333333336 0.17626666666666665 0.17626666666666665 0.17626666666666665 0.17626666666666665 -1.8237333333333337 -1.8237333333333337 0.17626666666666665 0.17626666666666665 -1.8237333333333337 0.17626666666666665 0.17626666666666665 -1.8237333333333337 0.17626666666666665 0.17626666666666665 -1.8237333333333337 -1.7517333333333334 -1.7517333333333334 0.24826666666666675 0.24826666666666675 -1.7517333333333334 0.24826666666666675 -1.7517333333333334 -1.7517333333333334 0.24826666666666675 0.24826666666666675 0.24826666666666675 -1.7517333333333334 -1.7517333333333334 -1.7517333333333334 -1.7517333333333334
0.6835333333333331 0.6835333333333331 0.6835333333333331 -1.3164666666666662 -1.3164666666666662 -1.3164666666666662 0.6835333333333331 -1.3164666666666662 0.6835333333333331 0.6835333333333331 -1.3164666666666662 0.6835333333333331 0.6835333333333331 -1.3164666666666662 0.6835333333333331 1.4347166666666669 -0.5652833333333334 1.4347166666666669 -0.5652833333333334 1.4347166666666669 -0.5652833333333334 1.4347166666666669 1.4347166666666669 1.4347166666666669 -0.5652833333333334 -0.5652833333333334 1.4347166666666669 1.4347166666666669 1.4347166666666669 -0.5652833333333334 -0.3799499999999999 -0.3799499999999999 -0.3799499999999999 1.6200500000000002 -0.3799499999999999 1.6200500000000002 1.6200500000000002 -0.3799499999999999 1.6200500000000002 1.6200500000000002 -0.3799499999999999 -0.3799499999999999 -0.3799499999999999 1.6200500000000002 -0.3799499999999999 2.8741833333333333 2.8741833333333333 0.8741833333333329 2.8741833333333333 0.8741833333333329 2.8741833333333333 2.8741833333333333 2.8741833333333333 0.8741833333333329 2.8741833333333333 0.8741833333333329 0.8741833333333329 2.8741833333333333 0.8741833333333329 0.8741833333333329 -1.0686 0.9314 -1.0686 -1.0686 -1.0686 -1.0686 0.9314 -1.0686 -1.0686 0.9314 -1.0686 0.9314 -1.0686 0.9314 0.9314 0.7581166666666665 0.7581166666666665 -1.2418833333333335 -1.2418833333333335 -1.2418833333333335 -1.2418833333333335 -1.2418833333333335 0.7581166666666665 0.7581166666666665 -1.2418833333333335 0.7581166666666665 -1.2418833333333335 0.7581166666666665 -1.2418833333333335 -1.2418833333333335 -1.5019666666666667 -1.5019666666666667 -1.5019666666666667 -1.5019666666666667 -1.5019666666666667 0.4980333333333335 0.4980333333333335 0.4980333333333335 -1.5019666666666667 0.4980333333333335 0.4980333333333335 -1.5019666666666667 0.4980333333333335 0.4980333333333335 0.4980333333333335 -1.4299666666666666 0.5700333333333333 -1.4299666666666666 -1.4299666666666666 0.5700333333333333 -1.4299666666666666 -1.4299666666666666 0.5700333333333333 -1.4299666666666666 0.5700333333333333 -1.4299666666666666 0.5700333333333333 0.5700333333333333 0.5700333333333333 0.5700333333333333 -1.6653666666666669 -1.6653666666666669 0.3346333333333333 0.3346333333333333 0.3346333333333333 0.3346333333333333 -1.6653666666666669 -1.6653666666666669 -1.6653666666666669 0.3346333333333333 -1.6653666666666669 -1.6653666666666669 0.3346333333333333 0.3346333333333333 -1.6653666666666669 -1.7047 -1.7047 -1.7047 0.29529999999999995 0.29529999999999995 0.29529999999999995 0.29529999999999995 0.29529999999999995 -1.7047 -1.7047 0.29529999999999995 0.29529999999999995 0.29529999999999995 -1.7047 0.29529999999999995
-1.7568000000000001 -1.7568000000000001 -1.7568000000000001 -1.7568000000000001 0.24319999999999992 0.24319999999999992 0.24319999999999992 0.24319999999999992 -1.7568000000000001 -1.7568000000000001 -1.7568000000000001 -1.7568000000000001 0.24319999999999992 0.24319999999999992 0.24319999999999992 0.09285000000000013 0.09285000000000013 2.09285 0.09285000000000013 2.09285 2.09285 2.09285 2.09285 0.09285000000000013 2.09285 0.09285000000000013 0.09285000000000013 0.09285000000000013 0.09285000000000013 0.09285000000000013 -0.9122500000000002 -0.9122500000000002 -0.9122500000000002 1.0877499999999996 -0.9122500000000002 1.0877499999999996 -0.9122500000000002 -0.9122500000000002 -0.9122500000000002 1.0877499999999996 1.0877499999999996 -0.9122500000000002 -0.9122500000000002 -0.9122500000000002 -0.9122500000000002 -0.7935500000000004 1.2064500000000002 1.2064500000000002 -0.7935500000000004 -0.7935500000000004 1.2064500000000002 1.2064500000000002 -0.7935500000000004 1.2064500000000002 1.2064500000000002 1.2064500000000002 -0.7935500000000004 -0.7935500000000004 1.2064500000000002 -0.7935500000000004 -0.5492666666666665 -0.5492666666666665 1.4507333333333332 1.4507333333333332 1.4507333333333332 1.4507333333333332 -0.5492666666666665 1.4507333333333332 -0.5492666666666665 1.4507333333333332 1.4507333333333332 -0.5492666666666665 1.4507333333333332 -0.5492666666666665 1.4507333333333332 -1.5280500000000001 0.47194999999999987 0.47194999999999987 0.47194999999999987 0.47194999999999987 0.47194999999999987 0.47194999999999987 0.47194999999999987 -1.5280500000000001 0.47194999999999987 0.47194999999999987 -1.5280500000000001 0.47194999999999987 0.47194999999999987 -1.5280500000000001 1.0992999999999995 1.0992999999999995 1.0992999999999995 -0.9007000000000001 1.0992999999999995 1.0992999999999995 -0.9007000000000001 1.0992999999999995 -0.9007000000000001 1.0992999999999995 1.0992999999999995 1.0992999999999995 1.0992999999999995 -0.9007000000000001 -0.9007000000000001 1.2550999999999999 -0.7448999999999998 -0.7448999999999998 1.2550999999999999 -0.7448999999999998 -0.7448999999999998 1.2550999999999999 -0.7448999999999998 1.2550999999999999 1.2550999999999999 1.2550999999999999 1.2550999999999999 -0.7448999999999998 -0.7448999999999998 1.2550999999999999 0.025099999999999987 -1.9749000000000003 0.025099999999999987 -1.9749000000000003 -1.9749000000000003 0.025099999999999987 0.025099999999999987 0.025099999999999987 -1.9749000000000003 0.025099999999999987 0.025099999999999987 0.025099999999999987 0.025099999999999987 0.025099999999999987 0.025099999999999987 1.0675666666666666 1.0675666666666666 1.0675666666666666 1.0675666666666666 1.0675666666666666 -0.9324333333333336 1.0675666666666666 -0.9324333333333336 1.0675666666666666 -0.9324333333333336 1.0675666666666666 -0.9324333333333336 1.0675666666666666 1.0675666666666666 -0.9324333333333336
2.479566666666666 0.4795666666666668 2.479566666666666 0.4795666666666668 0.4795666666666668 0.4795666666666668 2.479566666666666 0.4795666666666668 2.479566666666666 0.4795666666666668 0.4795666666666668 2.479566666666666 0.4795666666666668 2.479566666666666 2.479566666666666 -1.8663166666666666 -1.8663166666666666 -1.8663166666666666 -1.8663166666666666 0.1336833333333333 0.1336833333333333 -1.8663166666666666 -1.8663166666666666 -1.8663166666666666 0.1336833333333333 0.1336833333333333 0.1336833333333333 -1.8663166666666666 0.1336833333333333 0.1336833333333333 -0.8874166666666666 -2.8874166666666663 -2.8874166666666663 -0.8874166666666666 -0.8874166666666666 -0.8874166666666666 -2.8874166666666663 -2.8874166666666663 -2.8874166666666663 -0.8874166666666666 -2.8874166666666663 -0.8874166666666666 -2.8874166666666663 -0.8874166666666666 -2.8874166666666663 -1.6355166666666665 -1.6355166666666665 0.36448333333333355 -1.6355166666666665 0.36448333333333355 0.36448333333333355 -1.6355166666666665 -1.6355166666666665 -1.6355166666666665 -1.6355166666666665 0.36448333333333355 0.36448333333333355 0.36448333333333355 0.36448333333333355 0.36448333333333355 3.501233333333334 1.501233333333333 1.501233333333333 1.501233333333333 3.501233333333334 1.501233333333333 1.501233333333333 1.501233333333333 3.501233333333334 1.501233333333333 3.501233333333334 1.501233333333333 1.501233333333333 1.501233333333333 1.501233333333333 0.7718833333333331 0.7718833333333331 -1.228116666666667 0.7718833333333331 0.7718833333333331 0.7718833333333331 0.7718833333333331 -1.228116666666667 -1.228116666666667 0.7718833333333331 0.7718833333333331 0.7718833333333331 0.7718833333333331 -1.228116666666667 0.7718833333333331 1.9780333333333333 1.9780333333333333 1.9780333333333333 1.9780333333333333 -0.021966666666666794 1.9780333333333333 1.9780333333333333 -0.021966666666666794 -0.021966666666666794 -0.021966666666666794 -0.021966666666666794 1.9780333333333333 1.9780333333333333 1.9780333333333333 1.9780333333333333 -0.2790666666666667 -2.2790666666666666 -0.2790666666666667 -0.2790666666666667 -2.2790666666666666 -2.2790666666666666 -0.2790666666666667 -0.2790666666666667 -2.2790666666666666 -0.2790666666666667 -2.2790666666666666 -2.2790666666666666 -0.2790666666666667 -0.2790666666666667 -2.2790666666666666 -0.11336666666666656 -0.11336666666666656 -0.11336666666666656 -2.113366666666667 -2.113366666666667 -2.113366666666667 -0.11336666666666656 -0.11336666666666656 -0.11336666666666656 -2.113366666666667 -0.11336666666666656 -2.113366666666667 -0.11336666666666656 -2.113366666666667 -0.11336666666666656 0.050966666666666605 2.050966666666666 0.050966666666666605 0.050966666666666605 2.050966666666666 0.050966666666666605 2.050966666666666 0.050966666666666605 2.050966666666666 2.050966666666666 0.050966666666666605 2.050966666666666 2.050966666666666 2.050966666666666 2.050966666666666
1.943466666666666 -0.056533333333333366 -0.056533333333333366 -0.056533333333333366 1.943466666666666 -0.056533333333333366 1.943466666666666 1.943466666666666 1.943466666666666 -0.056533333333333366 -0.056533333333333366 -0.056533333333333366 -0.056533333333333366 -0.056533333333333366 1.943466666666666 0.4069499999999998 0.4069499999999998 -1.5930499999999999 -1.5930499999999999 0.4069499999999998 -1.5930499999999999 0.4069499999999998 0.4069499999999998 -1.5930499999999999 -1.5930499999999999 -1.5930499999999999 0.4069499999999998 0.4069499999999998 -1.5930499999999999 -1.5930499999999999 0.10348333333333326 -1.8965166666666666 0.10348333333333326 -1.8965166666666666 -1.8965166666666666 0.10348333333333326 0.10348333333333326 0.10348333333333326 -1.8965166666666666 0.10348333333333326 0.10348333333333326 0.10348333333333326 0.10348333333333326 -1.8965166666666666 -1.8965166666666666 -0.21551666666666677 1.7844833333333332 1.7844833333333332 -0.21551666666666677 1.7844833333333332 1.7844833333333332 -0.21551666666666677 -0.21551666666666677 -0.21551666666666677 1.7844833333333332 -0.21551666666666677 -0.21551666666666677 -0.21551666666666677 -0.21551666666666677 -0.21551666666666677 -0.07376666666666666 1.926233333333333 -0.07376666666666666 -0.07376666666666666 1.926233333333333 -0.07376666666666666 1.926233333333333 1.926233333333333 1.926233333333333 -0.07376666666666666 -0.07376666666666666 1.926233333333333 -0.07376666666666666 -0.07376666666666666 -0.07376666666666666 -2.338916666666667 -0.33891666666666675 -2.338916666666667 -0.33891666666666675 -0.33891666666666675 -2.338916666666667 -2.338916666666667 -0.33891666666666675 -0.33891666666666675 -0.33891666666666675 -0.33891666666666675 -0.33891666666666675 -0.33891666666666675 -0.33891666666666675 -2.338916666666667 1.2691666666666668 1.2691666666666668 1.2691666666666668 3.2691666666666674 1.2691666666666668 3.2691666666666674 3.2691666666666674 3.2691666666666674 1.2691666666666668 1.2691666666666668 3.2691666666666674 1.2691666666666668 1.2691666666666668 3.2691666666666674 1.2691666666666668 -1.001966666666667 0.9980333333333333 0.9980333333333333 -1.001966666666667 0.9980333333333333 -1.001966666666667 -1.001966666666667 -1.001966666666667 0.9980333333333333 0.9980333333333333 -1.001966666666667 0.9980333333333333 0.9980333333333333 -1.001966666666667 0.9980333333333333 -0.22716666666666674 -2.227166666666667 -0.22716666666666674 -0.22716666666666674 -2.227166666666667 -2.227166666666667 -0.22716666666666674 -2.227166666666667 -0.22716666666666674 -0.22716666666666674 -2.227166666666667 -0.22716666666666674 -0.22716666666666674 -2.227166666666667 -2.227166666666667 -1.8657333333333335 0.13426666666666667 -1.8657333333333335 -1.8657333333333335 -1.8657333333333335 -1.8657333333333335 0.13426666666666667 -1.8657333333333335 -1.8657333333333335 0.13426666666666667 0.13426666666666667 0.13426666666666667 -1.8657333333333335 0.13426666666666667 -1.8657333333333335
0.004633333333333293 0.004633333333333293 2.0046333333333335 0.004633333333333293 0.004633333333333293 2.0046333333333335 2.0046333333333335 2.0046333333333335 0.004633333333333293 2.0046333333333335 0.004633333333333293 0.004633333333333293 2.0046333333333335 0.004633333333333293 2.0046333333333335 -0.7450500000000002 -2.74505 -2.74505 -0.7450500000000002 -0.7450500000000002 -0.7450500000000002 -0.7450500000000002 -2.74505 -2.74505 -0.7450500000000002 -2.74505 -0.7450500000000002 -0.7450500000000002 -2.74505 -0.7450500000000002 -2.5936166666666667 -2.5936166666666667 -2.5936166666666667 -2.5936166666666667 -0.5936166666666665 -0.5936166666666665 -2.5936166666666667 -2.5936166666666667 -2.5936166666666667 -0.5936166666666665 -0.5936166666666665 -2.5936166666666667 -2.5936166666666667 -2.5936166666666667 -0.5936166666666665 -1.1375833333333332 -3.1375833333333327 -3.1375833333333327 -1.1375833333333332 -1.1375833333333332 -1.1375833333333332 -3.1375833333333327 -3.1375833333333327 -1.1375833333333332 -3.1375833333333327 -3.1375833333333327 -3.1375833333333327 -3.1375833333333327 -3.1375833333333327 -1.1375833333333332 -0.4754000000000001 -0.4754000000000001 -0.4754000000000001 -0.4754000000000001 -0.4754000000000001 1.5246 1.5246 -0.4754000000000001 1.5246 -0.4754000000000001 -0.4754000000000001 1.5246 1.5246 -0.4754000000000001 1.5246 2.0087833333333336 2.0087833333333336 0.00878333333333329 0.00878333333333329 0.00878333333333329 0.00878333333333329 2.0087833333333336 2.0087833333333336 0.00878333333333329 0.00878333333333329 2.0087833333333336 0.00878333333333329 0.00878333333333329 2.0087833333333336 0.00878333333333329 1.4384999999999997 1.4384999999999997 1.4384999999999997 1.4384999999999997 -0.5614999999999999 1.4384999999999997 -0.5614999999999999 1.4384999999999997 -0.5614999999999999 -0.5614999999999999 1.4384999999999997 1.4384999999999997 1.4384999999999997 -0.5614999999999999 -0.5614999999999999 1.9810333333333336 -0.018966666666666562 -0.018966666666666562 1.9810333333333336 1.9810333333333336 -0.018966666666666562 1.9810333333333336 -0.018966666666666562 -0.018966666666666562 1.9810333333333336 1.9810333333333336 -0.018966666666666562 -0.018966666666666562 -0.018966666666666562 -0.018966666666666562 2.045666666666667 2.045666666666667 0.045666666666666654 2.045666666666667 0.045666666666666654 2.045666666666667 2.045666666666667 0.045666666666666654 0.045666666666666654 0.045666666666666654 2.045666666666667 0.045666666666666654 2.045666666666667 0.045666666666666654 0.045666666666666654 1.473033333333333 1.473033333333333 -0.5269666666666667 1.473033333333333 -0.5269666666666667 1.473033333333333 1.473033333333333 1.473033333333333 1.473033333333333 1.473033333333333 1.473033333333333 1.473033333333333 1.473033333333333 -0.5269666666666667 1.473033333333333
-0.4107666666666666 -0.4107666666666666 -0.4107666666666666 -0.4107666666666666 -0.4107666666666666 -2.4107666666666665 -2.4107666666666665 -0.4107666666666666 -2.4107666666666665 -0.4107666666666666 -0.4107666666666666 -2.4107666666666665 -0.4107666666666666 -2.4107666666666665 -2.4107666666666665 -1.32355 0.67645 -1.32355 0.67645 0.67645 0.67645 0.67645 -1.32355 -1.32355 -1.32355 0.67645 -1.32355 -1.32355 0.67645 -1.32355 -2.2938500000000004 -0.2938499999999999 -2.2938500000000004 -2.2938500000000004 -2.2938500000000004 -0.2938499999999999 -2.2938500000000004 -2.2938500000000004 -0.2938499999999999 -0.2938499999999999 -0.2938499999999999 -2.2938500000000004 -2.2938500000000004 -2.2938500000000004 -2.2938500000000004 0.008949999999999896 2.00895 0.008949999999999896 0.008949999999999896 0.008949999999999896 2.00895 2.00895 0.008949999999999896 0.008949999999999896 0.008949999999999896 2.00895 2.00895 0.008949999999999896 0.008949999999999896 2.00895 -1.3902666666666665 -1.3902666666666665 0.6097333333333336 0.6097333333333336 -1.3902666666666665 -1.3902666666666665 0.6097333333333336 -1.3902666666666665 -1.3902666666666665 -1.3902666666666665 0.6097333333333336 0.6097333333333336 -1.3902666666666665 -1.3902666666666665 0.6097333333333336 -0.10261666666666654 -0.10261666666666654 -0.10261666666666654 -0.10261666666666654 -0.10261666666666654 -0.10261666666666654 1.8973833333333332 -0.10261666666666654 -0.10261666666666654 1.8973833333333332 -0.10261666666666654 -0.10261666666666654 1.8973833333333332 -0.10261666666666654 1.8973833333333332 -0.09456666666666712 -0.09456666666666712 -2.094566666666667 -0.09456666666666712 -2.094566666666667 -2.094566666666667 -0.09456666666666712 -0.09456666666666712 -2.094566666666667 -2.094566666666667 -2.094566666666667 -2.094566666666667 -0.09456666666666712 -2.094566666666667 -0.09456666666666712 0.03593333333333333 0.03593333333333333 0.03593333333333333 0.03593333333333333 2.0359333333333334 2.0359333333333334 0.03593333333333333 0.03593333333333333 2.0359333333333334 2.0359333333333334 2.0359333333333334 0.03593333333333333 2.0359333333333334 0.03593333333333333 2.0359333333333334 1.4522333333333333 1.4522333333333333 1.4522333333333333 -0.5477666666666667 1.4522333333333333 -0.5477666666666667 -0.5477666666666667 1.4522333333333333 1.4522333333333333 1.4522333333333333 -0.5477666666666667 -0.5477666666666667 1.4522333333333333 -0.5477666666666667 1.4522333333333333 0.11850000000000008 0.11850000000000008 2.1185 0.11850000000000008 0.11850000000000008 2.1185 0.11850000000000008 0.11850000000000008 2.1185 0.11850000000000008 0.11850000000000008 2.1185 0.11850000000000008 2.1185 0.11850000000000008
-3.0152333333333337 -3.0152333333333337 -3.0152333333333337 -3.0152333333333337 -3.0152333333333337 -3.0152333333333337 -3.0152333333333337 -3.0152333333333337 -1.0152333333333334 -1.0152333333333334 -1.0152333333333334 -1.0152333333333334 -1.0152333333333334 -1.0152333333333334 -3.0152333333333337 -2.928349999999999 -2.928349999999999 -0.9283500000000001 -2.928349999999999 -0.9283500000000001 -0.9283500000000001 -0.9283500000000001 -2.928349999999999 -2.928349999999999 -2.928349999999999 -0.9283500000000001 -0.9283500000000001 -0.9283500000000001 -2.928349999999999 -0.9283500000000001 -0.6646499999999997 1.33535 1.33535 -0.6646499999999997 -0.6646499999999997 1.33535 -0.6646499999999997 -0.6646499999999997 1.33535 1.33535 -0.6646499999999997 1.33535 -0.6646499999999997 -0.6646499999999997 -0.6646499999999997 2.778516666666667 0.7785166666666666 0.7785166666666666 0.7785166666666666 0.7785166666666666 0.7785166666666666 0.7785166666666666 0.7785166666666666 2.778516666666667 0.7785166666666666 2.778516666666667 2.778516666666667 2.778516666666667 2.778516666666667 0.7785166666666666 1.745366666666667 -0.25463333333333316 1.745366666666667 1.745366666666667 1.745366666666667 -0.25463333333333316 1.745366666666667 -0.25463333333333316 1.745366666666667 1.745366666666667 1.745366666666667 1.745366666666667 1.745366666666667 -0.25463333333333316 1.745366666666667 -0.9854833333333334 -2.985483333333333 -0.9854833333333334 -2.985483333333333 -0.9854833333333334 -2.985483333333333 -2.985483333333333 -2.985483333333333 -0.9854833333333334 -0.9854833333333334 -0.9854833333333334 -0.9854833333333334 -0.9854833333333334 -2.985483333333333 -2.985483333333333 -1.7297 0.27030000000000004 0.27030000000000004 -1.7297 -1.7297 -1.7297 0.27030000000000004 -1.7297 0.27030000000000004 -1.7297 -1.7297 -1.7297 -1.7297 0.27030000000000004 -1.7297 0.24793333333333356 0.24793333333333356 2.247933333333333 2.247933333333333 0.24793333333333356 2.247933333333333 0.24793333333333356 2.247933333333333 0.24793333333333356 0.24793333333333356 2.247933333333333 0.24793333333333356 0.24793333333333356 0.24793333333333356 2.247933333333333 1.3667666666666667 -0.6332333333333332 -0.6332333333333332 1.3667666666666667 -0.6332333333333332 1.3667666666666667 -0.6332333333333332 -0.6332333333333332 1.3667666666666667 1.3667666666666667 1.3667666666666667 1.3667666666666667 -0.6332333333333332 1.3667666666666667 1.3667666666666667 1.184833333333333 1.184833333333333 3.1848333333333323 3.1848333333333323 1.184833333333333 3.1848333333333323 3.1848333333333323 3.1848333333333323 1.184833333333333 1.184833333333333 3.1848333333333323 3.1848333333333323 3.1848333333333323 3.1848333333333323 1.184833333333333
-0.43739999999999996 1.5625999999999995 1.5625999999999995 1.5625999999999995 -0.43739999999999996 -0.43739999999999996 1.5625999999999995 1.5625999999999995 1.5625999999999995 -0.43739999999999996 1.5625999999999995 -0.43739999999999996 1.5625999999999995 1.5625999999999995 -0.43739999999999996 -2.0561499999999993 -0.05615000000000013 -2.0561499999999993 -0.05615000000000013 -0.05615000000000013 -0.05615000000000013 -0.05615000000000013 -0.05615000000000013 -2.0561499999999993 -0.05615000000000013 -0.05615000000000013 -2.0561499999999993 -2.0561499999999993 -0.05615000000000013 -0.05615000000000013 -1.5785833333333337 0.4214166666666669 0.4214166666666669 0.4214166666666669 -1.5785833333333337 0.4214166666666669 -1.5785833333333337 0.4214166666666669 -1.5785833333333337 0.4214166666666669 0.4214166666666669 0.4214166666666669 0.4214166666666669 0.4214166666666669 0.4214166666666669 1.2627833333333336 1.2627833333333336 1.2627833333333336 1.2627833333333336 1.2627833333333336 -0.7372166666666663 1.2627833333333336 1.2627833333333336 -0.7372166666666663 -0.7372166666666663 -0.7372166666666663 -0.7372166666666663 -0.7372166666666663 1.2627833333333336 -0.7372166666666663 -0.28800000000000003 -0.28800000000000003 -0.28800000000000003 -0.28800000000000003 -0.28800000000000003 1.712 -0.28800000000000003 -0.28800000000000003 1.712 -0.28800000000000003 1.712 1.712 1.712 1.712 1.712 -2.1934500000000003 -2.1934500000000003 -2.1934500000000003 -0.19344999999999993 -0.19344999999999993 -2.1934500000000003 -2.1934500000000003 -2.1934500000000003 -2.1934500000000003 -2.1934500000000003 -2.1934500000000003 -2.1934500000000003 -2.1934500000000003 -0.19344999999999993 -2.1934500000000003 -2.8057666666666665 -2.8057666666666665 -0.8057666666666666 -0.8057666666666666 -0.8057666666666666 -2.8057666666666665 -0.8057666666666666 -2.8057666666666665 -2.8057666666666665 -2.8057666666666665 -0.8057666666666666 -2.8057666666666665 -0.8057666666666666 -0.8057666666666666 -2.8057666666666665 1.994233333333333 -0.0057666666666667185 1.994233333333333 1.994233333333333 1.994233333333333 1.994233333333333 -0.0057666666666667185 -0.0057666666666667185 -0.0057666666666667185 1.994233333333333 -0.0057666666666667185 1.994233333333333 1.994233333333333 -0.0057666666666667185 -0.0057666666666667185 0.05483333333333337 2.0548333333333333 2.0548333333333333 0.05483333333333337 0.05483333333333337 2.0548333333333333 2.0548333333333333 0.05483333333333337 2.0548333333333333 2.0548333333333333 0.05483333333333337 0.05483333333333337 2.0548333333333333 0.05483333333333337 0.05483333333333337 0.04750000000000002 0.04750000000000002 0.04750000000000002 2.0475000000000003 0.04750000000000002 2.0475000000000003 2.0475000000000003 0.04750000000000002 2.0475000000000003 0.04750000000000002 2.0475000000000003 0.04750000000000002 0.04750000000000002 0.04750000000000002 0.04750000000000002
1.3389333333333335 1.3389333333333335 -0.6610666666666667 -0.6610666666666667 -0.6610666666666667 -0.6610666666666667 -0.6610666666666667 -0.6610666666666667 1.3389333333333335 1.3389333333333335 1.3389333333333335 -0.6610666666666667 -0.6610666666666667 -0.6610666666666667 1.3389333333333335 -1.6521833333333333 -1.6521833333333333 -1.6521833333333333 -1.6521833333333333 -1.6521833333333333 -1.6521833333333333 -1.6521833333333333 -1.6521833333333333 0.3478166666666667 0.3478166666666667 -1.6521833333333333 -1.6521833333333333 -1.6521833333333333 -1.6521833333333333 0.3478166666666667 -1.8993166666666665 -1.8993166666666665 0.10068333333333335 -1.8993166666666665 -1.8993166666666665 0.10068333333333335 0.10068333333333335 0.10068333333333335 -1.8993166666666665 -1.8993166666666665 0.10068333333333335 -1.8993166666666665 -1.8993166666666665 0.10068333333333335 0.10068333333333335 -2.3315166666666665 -0.3315166666666667 -2.3315166666666665 -0.3315166666666667 -2.3315166666666665 -2.3315166666666665 -0.3315166666666667 -2.3315166666666665 -2.3315166666666665 -0.3315166666666667 -2.3315166666666665 -2.3315166666666665 -0.3315166666666667 -2.3315166666666665 -0.3315166666666667 -1.6427 0.35730000000000006 -1.6427 -1.6427 -1.6427 0.35730000000000006 0.35730000000000006 -1.6427 -1.6427 0.35730000000000006 -1.6427 0.35730000000000006 -1.6427 -1.6427 -1.6427 -0.3452833333333332 -0.3452833333333332 1.6547166666666666 -0.3452833333333332 -0.3452833333333332 1.6547166666666666 -0.3452833333333332 1.6547166666666666 -0.3452833333333332 1.6547166666666666 1.6547166666666666 -0.3452833333333332 -0.3452833333333332 -0.3452833333333332 1.6547166666666666 -1.4906333333333333 0.5093666666666669 0.5093666666666669 -1.4906333333333333 -1.4906333333333333 0.5093666666666669 0.5093666666666669 -1.4906333333333333 0.5093666666666669 0.5093666666666669 0.5093666666666669 -1.4906333333333333 0.5093666666666669 0.5093666666666669 -1.4906333333333333 2.011266666666667 2.011266666666667 2.011266666666667 2.011266666666667 2.011266666666667 0.011266666666666699 2.011266666666667 0.011266666666666699 0.011266666666666699 2.011266666666667 0.011266666666666699 2.011266666666667 0.011266666666666699 0.011266666666666699 0.011266666666666699 -0.31656666666666655 -0.31656666666666655 1.6834333333333331 -0.31656666666666655 1.6834333333333331 1.6834333333333331 1.6834333333333331 1.6834333333333331 1.6834333333333331 -0.31656666666666655 1.6834333333333331 -0.31656666666666655 1.6834333333333331 -0.31656666666666655 -0.31656666666666655 0.32799999999999996 2.3280000000000003 0.32799999999999996 0.32799999999999996 0.32799999999999996 2.3280000000000003 0.32799999999999996 2.3280000000000003 2.3280000000000003 0.32799999999999996 2.3280000000000003 0.32799999999999996 0.32799999999999996 2.3280000000000003 0.32799999999999996
1.7059000000000002 -0.2940999999999999 1.7059000000000002 1.7059000000000002 -0.2940999999999999 1.7059000000000002 1.7059000000000002 -0.2940999999999999 1.7059000000000002 1.7059000000000002 1.7059000000000002 -0.2940999999999999 -0.2940999999999999 1.7059000000000002 -0.2940999999999999 1.9896833333333332 1.9896833333333332 1.9896833333333332 -0.01031666666666668 1.9896833333333332 -0.01031666666666668 1.9896833333333332 1.9896833333333332 1.9896833333333332 -0.01031666666666668 1.9896833333333332 1.9896833333333332 -0.01031666666666668 -0.01031666666666668 -0.01031666666666668 -1.5866166666666666 -1.5866166666666666 -1.5866166666666666 0.41338333333333344 0.41338333333333344 0.41338333333333344 -1.5866166666666666 -1.5866166666666666 0.41338333333333344 0.41338333333333344 0.41338333333333344 0.41338333333333344 0.41338333333333344 -1.5866166666666666 -1.5866166666666666 -1.0279166666666664 0.9720833333333335 0.9720833333333335 0.9720833333333335 0.9720833333333335 -1.0279166666666664 0.9720833333333335 0.9720833333333335 -1.0279166666666664 -1.0279166666666664 -1.0279166666666664 -1.0279166666666664 -1.0279166666666664 0.9720833333333335 0.9720833333333335 -1.8067666666666664 -1.8067666666666664 -1.8067666666666664 -3.8067666666666673 -3.8067666666666673 -3.8067666666666673 -1.8067666666666664 -3.8067666666666673 -1.8067666666666664 -1.8067666666666664 -1.8067666666666664 -3.8067666666666673 -1.8067666666666664 -1.8067666666666664 -1.8067666666666664 1.6397833333333331 1.6397833333333331 -0.36021666666666685 1.6397833333333331 1.6397833333333331 -0.36021666666666685 1.6397833333333331 -0.36021666666666685 -0.36021666666666685 -0.36021666666666685 1.6397833333333331 1.6397833333333331 -0.36021666666666685 -0.36021666666666685 -0.36021666666666685 -0.17256666666666656 -2.1725666666666656 -0.17256666666666656 -2.1725666666666656 -0.17256666666666656 -0.17256666666666656 -0.17256666666666656 -0.17256666666666656 -0.17256666666666656 -0.17256666666666656 -0.17256666666666656 -2.1725666666666656 -0.17256666666666656 -0.17256666666666656 -2.1725666666666656 2.0312999999999994 2.0312999999999994 0.031299999999999974 0.031299999999999974 2.0312999999999994 2.0312999999999994 0.031299999999999974 2.0312999999999994 2.0312999999999994 2.0312999999999994 2.0312999999999994 2.0312999999999994 0.031299999999999974 2.0312999999999994 0.031299999999999974 0.5504999999999999 -1.4494999999999998 -1.4494999999999998 -1.4494999999999998 -1.4494999999999998 -1.4494999999999998 -1.4494999999999998 0.5504999999999999 0.5504999999999999 0.5504999999999999 -1.4494999999999998 0.5504999999999999 -1.4494999999999998 -1.4494999999999998 -1.4494999999999998 0.6767 2.6767 2.6767 0.6767 2.6767 0.6767 0.6767 0.6767 2.6767 2.6767 0.6767 0.6767 0.6767 0.6767 2.6767
2.008233333333333 0.008233333333333405 2.008233333333333 2.008233333333333 2.008233333333333 0.008233333333333405 0.008233333333333405 2.008233333333333 2.008233333333333 0.008233333333333405 0.008233333333333405 2.008233333333333 2.008233333333333 0.008233333333333405 2.008233333333333 -1.3748166666666668 -1.3748166666666668 0.6251833333333333 0.6251833333333333 0.6251833333333333 -1.3748166666666668 0.6251833333333333 0.6251833333333333 -1.3748166666666668 -1.3748166666666668 -1.3748166666666668 -1.3748166666666668 -1.3748166666666668 0.6251833333333333 -1.3748166666666668 -0.7751500000000001 -0.7751500000000001 -0.7751500000000001 -0.7751500000000001 -0.7751500000000001 -0.7751500000000001 1.22485 -0.7751500000000001 1.22485 1.22485 1.22485 1.22485 1.22485 1.22485 -0.7751500000000001 1.8299166666666666 1.8299166666666666 -0.17008333333333334 1.8299166666666666 -0.17008333333333334 1.8299166666666666 1.8299166666666666 -0.17008333333333334 -0.17008333333333334 1.8299166666666666 -0.17008333333333334 1.8299166666666666 1.8299166666666666 -0.17008333333333334 1.8299166666666666 -0.47880000000000006 1.5212 -0.47880000000000006 -0.47880000000000006 1.5212 -0.47880000000000006 -0.47880000000000006 1.5212 1.5212 -0.47880000000000006 1.5212 1.5212 1.5212 -0.47880000000000006 -0.47880000000000006 -0.7844166666666668 1.2155833333333332 -0.7844166666666668 1.2155833333333332 1.2155833333333332 1.2155833333333332 1.2155833333333332 1.2155833333333332 -0.7844166666666668 -0.7844166666666668 1.2155833333333332 1.2155833333333332 -0.7844166666666668 -0.7844166666666668 -0.7844166666666668 -3.8583 -3.8583 -1.8582999999999996 -3.8583 -1.8582999999999996 -1.8582999999999996 -1.8582999999999996 -1.8582999999999996 -1.8582999999999996 -1.8582999999999996 -3.8583 -1.8582999999999996 -1.8582999999999996 -1.8582999999999996 -1.8582999999999996 -1.3729 0.6270999999999999 0.6270999999999999 -1.3729 0.6270999999999999 0.6270999999999999 -1.3729 0.6270999999999999 0.6270999999999999 -1.3729 0.6270999999999999 -1.3729 0.6270999999999999 -1.3729 0.6270999999999999 -0.6134666666666665 1.3865333333333336 1.3865333333333336 1.3865333333333336 -0.6134666666666665 1.3865333333333336 1.3865333333333336 1.3865333333333336 1.3865333333333336 -0.6134666666666665 -0.6134666666666665 1.3865333333333336 1.3865333333333336 -0.6134666666666665 -0.6134666666666665 -0.5802999999999999 1.4196999999999997 -0.5802999999999999 1.4196999999999997 1.4196999999999997 1.4196999999999997 -0.5802999999999999 1.4196999999999997 1.4196999999999997 -0.5802999999999999 1.4196999999999997 1.4196999999999997 -0.5802999999999999 -0.5802999999999999 -0.5802999999999999
1.997466666666667 -0.0025333333333333293 -0.0025333333333333293 -0.0025333333333333293 1.997466666666667 -0.0025333333333333293 -0.0025333333333333293 -0.0025333333333333293 1.997466666666667 1.997466666666667 -0.0025333333333333293 -0.0025333333333333293 1.997466666666667 1.997466666666667 -0.0025333333333333293 -2.171683333333333 -0.17168333333333324 -2.171683333333333 -0.17168333333333324 -2.171683333333333 -0.17168333333333324 -0.17168333333333324 -2.171683333333333 -0.17168333333333324 -2.171683333333333 -2.171683333333333 -2.171683333333333 -2.171683333333333 -0.17168333333333324 -2.171683333333333 1.4950166666666673 -0.5049833333333332 -0.5049833333333332 1.4950166666666673 1.4950166666666673 1.4950166666666673 -0.5049833333333332 1.4950166666666673 -0.5049833333333332 1.4950166666666673 -0.5049833333333332 1.4950166666666673 -0.5049833333333332 -0.5049833333333332 -0.5049833333333332 1.0397500000000002 1.0397500000000002 1.0397500000000002 3.0397500000000006 1.0397500000000002 1.0397500000000002 3.0397500000000006 3.0397500000000006 1.0397500000000002 3.0397500000000006 1.0397500000000002 1.0397500000000002 1.0397500000000002 3.0397500000000006 3.0397500000000006 -2.004566666666667 -2.004566666666667 -0.0045666666666668125 -0.0045666666666668125 -0.0045666666666668125 -2.004566666666667 -2.004566666666667 -2.004566666666667 -0.0045666666666668125 -0.0045666666666668125 -2.004566666666667 -0.0045666666666668125 -2.004566666666667 -0.0045666666666668125 -0.0045666666666668125 -2.0054499999999997 -2.0054499999999997 -2.0054499999999997 -2.0054499999999997 -0.005449999999999962 -2.0054499999999997 -0.005449999999999962 -2.0054499999999997 -0.005449999999999962 -0.005449999999999962 -2.0054499999999997 -0.005449999999999962 -0.005449999999999962 -0.005449999999999962 -0.005449999999999962 4.062800000000001 2.0627999999999993 4.062800000000001 2.0627999999999993 4.062800000000001 4.062800000000001 4.062800000000001 2.0627999999999993 4.062800000000001 2.0627999999999993 4.062800000000001 2.0627999999999993 2.0627999999999993 4.062800000000001 4.062800000000001 -1.9634000000000003 0.03660000000000003 0.03660000000000003 -1.9634000000000003 0.03660000000000003 0.03660000000000003 0.03660000000000003 0.03660000000000003 0.03660000000000003 0.03660000000000003 0.03660000000000003 -1.9634000000000003 -1.9634000000000003 -1.9634000000000003 -1.9634000000000003 -0.05073333333333324 -0.05073333333333324 -0.05073333333333324 -0.05073333333333324 -0.05073333333333324 -0.05073333333333324 -2.050733333333333 -0.05073333333333324 -2.050733333333333 -2.050733333333333 -2.050733333333333 -0.05073333333333324 -2.050733333333333 -0.05073333333333324 -2.050733333333333 -0.3992000000000001 -2.3992 -0.3992000000000001 -2.3992 -2.3992 -2.3992 -2.3992 -0.3992000000000001 -0.3992000000000001 -2.3992 -0.3992000000000001 -2.3992 -2.3992 -2.3992 -0.3992000000000001
